tree
version=v2
num_class=1
num_tree_per_iteration=1
label_index=0
max_feature_idx=19
objective=binary sigmoid:1
feature_names=TLAssignedName_Armannsson__G___Gabriela_ ScreenedParties COFATCA.CRS_Major_last_10_checklists PCFATCA.CRS_Major_last_5_checklists CODocumentation_standard_Minor_last_5_checklists COClient_Outreach_Major_last_5_checklists PCDocumentation_standard_Major_last_10_checklists DRClient_Outreach_Major_last_5_checklists PCDocumentation_standard_Minor_last_10_checklists PCDocumentation_standard_Major_last_5_checklists PCDocumentation_standard_Minor_last_5_checklists TeamExperience PCFATCA.CRS_Critical_last_5_checklists ProjectExperience PCFATCA.CRS_Critical_last_10_checklists DRClient_Outreach_Major_last_10_checklists CRS_FALSE CRS_TRUE FATCA_FALSE FATCA_TRUE
feature_infos=[0:1] [-1.33096411493054:7.5650029946217598] [-0.13930821007543201:11.3536191211477] [-0.28486541759029199:6.4298194256094412] [-0.30425270611390198:11.395295209071099] [-0.58635398739326594:4.7454721003761602] [-0.67005078998210499:6.426329567815241] [-0.77449706568511711:5.1401404134950592] [-1.12677371210425:5.2442365292328708] [-0.52574784907408401:6.1941982500066404] [-0.89474259576979009:6.4203826804561999] [-1.17208852408901:2.98242113525315] [-0.15025025644313098:12.835664764713199] [-1.37744542758453:2.70499138557311] [-0.20279916616391799:9.1156941651654613] [-0.99452560359753595:5.0763173466138802] [0:1] [0:1] [0:1] [0:1]
tree_sizes=266 277 277 276 277 277 277 277 277 277 278 278 278 277 277 278 278 278 278 277 277 278 277 278 278 278 278 278 278 278 278 278 278 277 278 278 278 278 278 277 278 278 277 277 278 277 278 277 278 278 277 278 277 275 277 278 278 277 278 278 278 277 277 277 278 278 277 278 278 278 278 278 278 278 278 278 278 278 278 278 278 278 278 278 278 277 278 278 278 278 278 278 278 278 275 278 278 277 276 277 279 279 278 277 279 278 278 279 279 279 279 278 279 279 278 279 278 279 279 279 279 279 277 278 279 279 279 279 279 279 279 279 279 279 279 279 279 279 278 277 279 279 279 279 276 279 279 278 279 279 279 279 278 279 279 279 279 279 279 279 279 279 279 279 278 279 279 279 279 279 278 279 279 279 279 279 279 278 278 279 279 279 279 278 279 279 279 277 277 279 279 279 278 279 279 279 278 279 279 279 279 278 278 279 278 279 278 278 278 278 279 279 279 278 279 279 279 279 279 279 279 279 278 279 279 279 279 278 279 279 279 278 278 276 279 279 279 279 279 277 279 279 277 279 279 279 278 278 278 278 279 279 278 279 279 278 278 279 279 279 279 278 279 279 275 279 279 279 279 279 277 279 279 279 277 279 277 278 279 279 279 278 279 276 279 279 279 279 279 279 279 279 278 279 278 279 279 279 279 280 277 279 279 277 280 279 279 280 279 279 280 279 280 279 280 280 279 279 279 279 280 280 279 280 279 280 280 279 280 279 279 279 280 279 280 279 280 280 279 280 280 279 279 279 280 280 279 280 279 279 280 279 279 279 278 279 278 279 280 280 279 279 280 279 280 279 279 279 279 280 280 279 280 280 279 280 279 280 280 279 279 280 279 280 278 280 278 279 280 280 279 280 280 278 279 278 280 279 279 280 279 278 280 280 276 280 279 280 280 279 280 279 279 279 278 280 280 278 280 280 279 278 279 279 280 279 280 279 279 280 280 279 278 279 280 278 277 280 280 279 280 280 279 280 279 279 280 279 280 280 277 280 279 280 280 279 280 278 279 278 280 279 280 279 280 280 279 280 280 279 280 277 280 279 279 280 280 278 280 279 279 280 279 280 280 278 279 280 279 280 279 278 280 279 280 280 279 280 279 280 280 279 280 280 279 278 278 280 280 279 280 280 279 279 279 280 280 280 280 280 279 280 280 280 279 280 280 280 279 278 279 280 280 280 277 279 280 280 279 280 279 280 280 279 279 279 279 279 280 280 280 280 280 280 280 278 280 280 279 279 280 280 280 280 280 280 280 280 279 280 279 280 280 280 280 280 279 280 279 279 280 280 280 280 280 280 279 280 280 280 280 279 280 280 280 280 280 279 280 280 280 280 279 280 280 279 279 280 280 280 280 279 280 280 279 280 280 280 280 280 280 280 280 279 280 280 280 280 280 280 280 280 280 280 280 280 279 280 280 280 280 280 280 280 280 279 280 279 280 280 280 280 277 279 280 279 280 279 280 280 280 280 280 280 280 280 280 280 280 280 280 280 280 280 280 280 280 278 279 280 280 279 280 280 278 279 279 280 280 280 280 280 279 280 280 280 280 280 279 280 279 280 279 280 280 279 280 280 280 279 280 280 280 279 279 280 280 279 280 280 280 280 278 280 278 280 280 279 278 279 280 278 279 279 277 280 280 277 280 280 276 280 280 278 279 280 280 278 279 280 277 280 280 278 279 279 277 279 279 278 280 280 277 279 280 277 280 280 278 280 280 280 277 280 280 278 280 279 277 280 280 278 280 273 280 278 280 280 278 279 272 280 280 278 280 273 280 278 280 280 278 279 272 280 278 280 279 278 273 280 278 278 280 278 280 273 279 278 280 279 278 278 280 273 279 278 279 280 277 280 277 272 280 280 277 280 278 273 280 278 279 280 277 278 280 273 280 280 278 280 278 280 278 273 279 279 278 280 278 280 273 280 278 280 280 276 278 280 273 279 278 280 279 278 278 273 280 280 275 280 280 278 272 280 276 279 280 278 278 280 273 280 278 280 280 278 280 278 273 280 280 277 279 278 272 280 278 279 279 278 280 276 273 280 278 279 280 278 279 278 272 280 280 277 279 277 278 273 278 280 279 280 278 273 278 280 280 278 280 277 280 275 273 279 280 277 280 278 280 273 278 279 280 279 278 273 280 278 279 278 280 280 273 278 278 280 280 278 280 273 280 278 279 278 278 280 278 273 279 278 279 278 280 280 273 278 278 280 280 278 280 273 280 278 279 277 280 280 278 273 281 277 281 279 281 281 274 279 281 279 281 279 280 281 273 278 281 279 281 280 279 272 281 279 279 279 281 281 272 279 281 279 281 281 279 274 280 278 281 277 281 280 278 274 281 279 281 279 281 280 273 278 281 279 280 281 279 274 281 281 279 279 280 281 274 279 281 279 281 279 281 270 281 279 281 279 281 279 280 274 281 279 281 279 281 280 274 279 280 279 281 279 281 272 281 281 279 278 281 281 273 279 281 278 281 277 278 280 277 281 277 281 273 279 277 281 277 280 277 281 279 276 281 278 276 281 277 279 281 272 276 281 277 280 279 281 277 278 277 281 276 281 279 271 281 277 281 277 279 281 277 281 275 279 281 276 279 281 277 274 280 275 281 278 277 281 277 281 277 281 279 279 277 281 274 276 281 279 281 277 281 277 281 277 279 278 276 272 281 277 278 281 278 277 278 277 281 277 279 281 277 281 274 277 280 279 277 281 278 277 280 277 280 279 281 277 281 277 273 279 281 277 281 277 277 281 277 279 281 277 279 277 273 280 279 277 281 277 277 279 276 281 279 277 280 276 281 278 274 281 276 280 277 281 277 279 281 276 279 280 277 279 281 274 277 281 277 281 277 279 281 277 281 279 277 277 279 277 281 274 277 279 277 281 279 281 277 281 276 279 279 279 276 274 281 277 281 277 279 281 277 280 277 279 281 277 274 281 279 277 281 278 277 281 280 277 276 281 277 276 281 273 281 277 279 278 281 275 281 277 280 276 279 280 276 274 281 276 281 279 277 279 280 277 281 277 281 279 276 281 273 279 277 278 276 281 278 281 277 281 276 279 279 277 274 281 277 278 281 277 281 277 279 279 277 279 281 277 281 273 277 280 279 277 281 280 277 279 279 281 277 277 281 274 281 277 279 281 277 281 277 281 279 276 277 281 277 279 274 277 279 281 275 280 277 281 279 277 280 274 281 277 279 280 277 279 280 277 281 277 279 281 276 274 281 277 280 279 277 279 281 276 281 277 280 278 276 281 272 276 281 279 277 280 279 277 281 280 277 279 281 277 274 280 277 279 280 277 281 277 278 281 279 277 281 277 274 280 277 281 275 277 281 277 280 279 279 280 276 273 276 281 281 277 279 281 276 281 277 279 281 277 279 281 274 277 280 279 277 281 276 280 276 281 278 273 276 281 277 276 281 278 281 277 281 276 280 279 275 281 273 276 281 277 279 281 279 277 281 277 281 278 277 280 273 277 281 279 277 281 279 281 275 277 281 278 281 277 274 281 277 279 281 276 281 277 279 281 277 279 281 274 277 280 277 281 279 277 281 277 281 277 279 277 280 273 281 277 280 277 279 281 275 281 276 279 281 274 276 281 279 277 280 279 277 281 277 280 277 281 279 274 276 280 278 281 277 279 277 281 281 277 281 274 279 277 281 277 281 277 276 281 278 276 281 277 281 273 277 277 280 279 276 279 276 281 279 277 281 280 276 274 279 280 276 280 277 281 279 275 281 279 276 281 274 278 277 280 277 280 275 281 279 277 281 277 280 277 279 278 281 275 274 281 277 281 276 278 281 276 278 281 277 281 278 277 281 274 279 280 277 278 280 277 279 280 276 281 277 279 281 277 278 281 275 281 279 279 276 274 281 277 281 278 281 276 279 280 274 281 277 279 281 277 273 281 277 277 281 278 274 279 281 277 280 277 280 279 277 276 281 279 276 279 274 278 280 277 281 275 278 281 277 279 281 277 281 276 281 278 279 277 281 279 281 276 274 281 277 279 281 277 278 280 277 279 281 277 281 279 277 281 274 279 277 281 278 280 277 277 281 278 280 277 278 281 277 278 281 277 279 280 274 275 281 280 277 281 278 281 277 276 281 280 279 277 273 281 277 279 280 280 278 276 281 276 281 280 277 280 278 277 281 277 281 280 279 277 280 274 281 277 278 280 280 277 280 277 281 277 280 281 278 277 280 277 277 281 274 280 281 277 281 277 278 280 281 277 281 277 281 278 276 279 281 274 277 281 278 277 281 279 279 277 277 281 277 278 281 277 281 276 279 274 281 277 279 281 277 281 277 277 281 279 281 276 277 281 274 279 280 281 277 280 278 277 281 277 280 281 277 280 278 277 281 280 274 280 277 278 277 281 280 280 277 281 278 277 280 276 279 279 277 274 281 278 277 281 280 278 280 277 277 281 279 281 277 277 281 277 281 273 276 280 281 277 277 281 277 281 280 277 277 281 277 280 279 281 274 277 279 277 279 276 281 275 279 281 277 281 277 280 281 278 277 280 274 277 281 280 280 277 279 281 277 278 281 280 276 281 276 281 274 277 280 281 279 277 281 278 277 281 280 281 277 281 276 278 281 280 277 280 274 277 281 279 277 281 280 277 281 278 276 281 280 281 277 274 281 276 280 281 277 279 278 281 277 281 280 276 281 277 281 274 278 281 277 280 281 275 278 281 277 280 281 277 278 281 277 281 278 274 277 281 277 281 279 277 280 274 280 281 277 281 277 280 281 274 277 281 278 276 281 280 276 281 278 277 281 280 281 277 278 281 275 274 280 280 277 281 277 278 281 278 277 279 279 277 281 273 277 281 280 281 277 278 280 277 281 280 277 279 281 276 278 281 277 280 281 274 277 281 277 280 278 279 281 277 278 281 277 281 280 277 274 281 277 281 280 276 281 278 275 281 279 280 280 276 274 281 277 280 278 277 280 280 276 281 277 280 280 278 276 281 278 277 280 272 280 281 277 280 277 278 281 280 276 281 277 279 280 274 277 281 280 277 280 278 279 277 280 280 277 279 281 276 274 280 280 277 280 278 275 281 280 277 279 277 281 278 281 280 277 274 278 281 277 281 277 280 281 277 278 281 277 281 280 274 277 281 279 277 281 279 281 277 278 281 277 280 280 277 280 272 277 280 278 279 277 281 280 277 281 281 277 280 277 281 277 274 281 275 280 279 277 279 281 277 281 280 278 281 277 275 281 273 280 281 277 279 281 277 278 281 280 277 281 277 281 273 280 281 277 277 281 277 279 281 277 279 280 277 281 277 277 280 278 274 277 281 277 280 280 279 281 277 278 281 277 280 279 277 274 281 275 280 279 277 281 278 276 281 279 277 281 280 274 281 277 281 278 276 280 281 276 281 278 277 281 279 273 277 281 278 277 280 280 281 277 281 277 278 280 280 277 279 281 274 277 281 280 277 280 276 281 278 281 277 280 280 274 276 279 280 277 279 281 277 278 281 275 281 280 277 281 274 279 277 279 279 281 277 278 280 277 281 280 277 281 274 277 279 278 280 281 277 279 281 276 281 280 277 281 274 277 278 280 280 277 281 278 276 281 277 281 280 277 281 276 274 279 277 279 281 277 279 281 278 277 280 279 277 281 274 277 281 280 281 276 278 281 277 279 281 280 277 281 274 276 281 279 277 281 277 277 281 280 281 276 278 281 277 274 280 278 277 280 281 276 281 277 280 280 278 281 276 279 272 280 277 280 281 277 281 277 277 280 281 278 277 280 277 278 277 281 279 273 280 276 278 278 278 277 281 278 278 277 280 279 277 281 278 280 278 281 276 280 277 278 280 281 273 277 281 276 278 277 281 279 280 281 277 278 281 277 280 281 278 278 276 280 274 277 281 280 277 279 277 281 277 281 278 277 281 280 277 281 278 277 281 279 280 274 277 281 277 278 279 276 280 281 278 277 281 277 277 281 277 280 279 276 280 277 281 278 274 280 281 277 278 281 278 277 281 280 277 278 277 281 278 280 277 278 280 281 277 281 274 276 278 281 280 277 279 281 278 278 281 277 279 277 281 278 281 277 277 281 280 277 275 278 281 274 276 281 279 278 276 281 278 281 277 278 280 281 277 281 279 276 277 277 279 280 274 280 277 278 280 277 280 281 276 277 281 278 278 277 281 278 280 277 280 274 281 277 277 280 279 278 276 280 278 278 277 281 280 276 281 278 278 277 281 280 280 274 278 277 281 278 277 280 278 280 278 277 281 275 278 281 280 281 277 272 279 278 281 278 277 281 280 277 278 280 277 280 279 278 278 280 277 280 281 277 278 279 280 274 277 281 278 278 281 277 280 281 277 278 280 281 275 276 281 279 277 278 277 281 281 277 280 277 274 281 274 277 281 278 278 280 277 281 280 274 281 278 277 281 280 277 281 277 277 277 281 274 279 280 277 275 280 281 274 277 281 280 277 275 278 281 276 281 278 277 280 281 274 278 280 275 278 279 281 277 280 278 281 277 274 281 278 277 280 275 280 274 281 277 280 278 280 280 275 275 280 277 277 276 280 279 276 281 278 275 281 277 278 281 280 274 279 277 281 275 281 277 276 280 274 281 277 279 276 278 276 281 280 275 281 277 278 279 281 280 277 281 278 277 274 277 281 280 281 277 277 274 281 279 276 275 281 278 278 279 280 277 277 280 274 280 281 274 278 278 277 280 280 277 280 280 278 273 279 277 273 281 280 276 277 281 278 276 281 274 277 281 280 277 279 281 278 278 277 281 275 279 279 277 278 281 274 275 281 280 278 278 275 277 280 280 281 278 277 280 281 277 278 281 278 275 280 281 277 278 280 277 280 281 274 280 277 277 277 281 274 281 277 280 278 281 275 276 280 278 278 277 281 280 279 277 281 278 275 281 277 279 281 278 278 276 281 274 275 280 281 277 277 280 278 277 281 278 278 280 277 280 275 281 277 277 279 281 276 280 281 278 278 275 277 280 280 277 280 274 277 281 275 277 280 277 279 278 281 277 279 278 280 280 277 275 281 278 278 277 281 280 281 276 272 278 275 281 276 280 281 278 278 278 277 280 275 281 278 276 280 281 277 278 281 278 279 277 281 280 275 277 281 277 274 280 280 277 281 278 275 278 281 277 280 277 280 277 280 281 274 278 278 281 273 280 278 281 277 277 281 274 277 280 281 275 278 278 281 277 280 281 279 277 277 281 274 276 281 278 277 278 280 281 277 280 278 277 275 281 280 278 276 281 277 279 281 276 274 280 277 280 275 277 281 277 278 278 281 276 280 280 275 275 278 281 280 278 276 280 277 278 279 277 278 281 275 278 277 277 280 278 277 281 277 280 273 281 275 277 281 280 278 277 281 280 278 278 281 278 277 275 281 279 277 281 278 277 277 281 280 280 275 278 279 277 281 274 277 281 277 278 278 280 281 277 275 278 281 277 281 280 278 278 281 277 279 275 279 277 278 280 280 278 276 281 278 278 274 280 279 277 281 273 278 277 281 280 280 277 281 278 275 278 281 278 277 281 280 274 277 280 278 275 278 281 277 280 280 277 274 281 278 280 280 277 281 275 278 278 281 278 277 281 279 278 280 276 275 277 281 274 278 281 279 280 277 280 277 278 278 275 280 277 277 281 277 277 281 274 277 281 280 275 278 278 281 277 281 278 278 279 279 276 281 272 281 278 277 278 280 279 276 277 281 274 281 276 280 273 280 278 281 276 278 281 278 277 277 277 281 275 281 277 278 276 281 279 277 281 270 278 280 280 276 280 278 281 278 278 277 281 275 277 281 278 280 274 281 277 278 280 276 277 280 280 274 279 278 281 278 277 281 280 277 277 278 281 275 277 281 279 278 281 274 277 280 281 278 275 275 281 277 279 277 279 275 278 281 278 277 280 281 275 276 281 277 278 281 280 277 277 278 281 274 280 280 276 277 280 274 281 277 281 278 275 278 277 281 280 278 281 277 278 281 280 280 277 276 281 274 278 281 277 278 279 281 276 274 280 275 277 277 281 280 278 276 281 277 278 280 279 275 280 277 281 277 278 279 276 278 278 281 274 277 281 278 278 278 277 281 280 280 281 273 277 278 281 275 277 281 280 277 278 281 277 278 281 275 280 278 275 281 280 278 281 277 278 279 280 275 277 281 278 274 281 276 280 278 278 281 277 277 281 275 280 277 281 278 280 278 281 277 278 281 275 280 277 281 278 278 280 278 277 280 281 275 277 275 281 274 280 277 281 280 278 280 274 278 277 281 278 278 277 281 277 281 277 278 278 279 275 281 279 278 277 281 273 281 277 280 278 281 274 278 277 281 278 278 280 280 277 280 281 275 278 277 278 281 280 281 277 278 274 281 275 277 280 279 277 278 277 277 280 280 281 278 280 277 275 280 277 278 281 277 280 281 277 278 278 274 281 276 280 280 274 278 279 277 281 278 281 275 278 280 277 280 276 280 278 277 278 281 279 277 274 281 276 280 277 281 278 278 278 281 274 276 279 274 280 277 278 280 278 281 277 278 278 274 281 280 275 281 279 278 277 280 280 275 278 280 278 277 281 278 277 279 280 278 274 281 274 276 278 281 278 280 280 279 277 278 281 274 277 280 281 278 276 277 277 281 280 276 281 280 277 275 281 278 277 281 277 280 272 280 277 278 281 275 278 277 281 279 278 277 281 278 280 276 281 273 280 277 281 276 278 278 281 273 276 281 274 276 280 281 277 278 275 281 276 280 277 281 276 278 276 278 281 280 275 277 281 276 281 273 275 277 280 281 276 277 280 280 278 276 276 274 281 276 276 281 279 275 278 276 278 278 275 280 275 278 281 280 277 277 275 280 281 276 281 275 277 278 278 281 275 280 273 281 274 275 280 278 278 275 276 281 280 275 276 281 277 278 276 281 276 281 276 278 276 273 280 278 274 280 276 281 277 276 281 278 278 278 280 277 280 275 281 277 276 280 275 278 280 278 281 276 277 280 276 281 278 277 280 276 279 274 281 275 276 277 281 278 278 281 275 278 277 280 281 276 278 280 281 277 276 278 281 275 278 280 276 281 277 281 276 274 276 281 277 280 275 280 281 275 277 276 281 278 277 276 281 276 279 281 275 277 277 281 278 278 276 276 281 280 276 275 281 280 276 281 274 276 277 281 276 279 276 279 277 278 277 275 281 279 276 281 277 277 280 281 276 276 276 281 277 276 278 281 278 277 280 281 276 271 280 276 280 277 277 281 276 278 276 280 281 276 275 280 278 275 280 276 279 280 278 280 276 276 277 281 277 276 274 281 277 278 280 280 276 277 280 276 277 278 280 278 276 276 279 281 280 277 276 280 278 277 281 275 274 280 279 276 276 277 279 277 278 274 278 279 277 276 281 280 278 277 280 276 275 277 281 276 278 280 279 275 278 276 281 274 276 281 276 280 278 278 281 276 278 276 277 281 278 276 281 275 280 276 281 280 277 280 276 278 276 278 281 276 277 280 280 273 278 276 281 277 278 281 276 278 275 280 278 280 276 276 281 280 276 281 276 278 280 281 276 278 276 280 277 276 278 281 273 280 276 277 281 279 276 281 277 277 276 276 281 275 280 281 277 275 278 281 278 276 276 281 280 278 278 281 276 280 276 277 281 276 274 281 278 277 276 281 279 278 276 281 273 277 280 277 281 276 280 281 277 275 281 274 277 276 276 281 277 278 281 276 280 274 278 277 281 276 280 281 277 276 281 280 278 278 276 281 273 274 279 275 280 278 280 281 277 276 274 281 277 276 280 278 278 276 280 280 275 276 281 278 276 278 281 277 277 276 280 280 280 276 278 279 276 277 281 274 276 280 281 277 277 276 281 278 276 280 276 279 276 277 280 281 276 277 280 277 276 277 281 275 277 276 281 280 276 281 273 276 277 278 280 280 276 280 281 277 276 278 281 278 276 280 277 276 280 281 276 280 278 276 281 272 276 281 278 275 275 278 280 281 275 276 281 276 277 280 278 278 276 280 280 277 280 276 280 275 278 277 281 276 279 280 273 276 277 281 277 276 276 281 276 280 280 277 276 281 278 280 278 277 276 279 277 276 280 281 278 276 276 281 276 280 277 281 274 276 277 280 280 276 277 280 277 276 278 280 275 280 277 281 276 279 278 281 277 276 277 281 278 276 279 276 280 275 278 281 275 274 277 281 280 276 280 278 278 275 280 275 281 276 276 281 279 278 277 281 276 278 281 278 277 276 281 278 276 280 274 281 276 277 279 280 276 277 277 280 280 276 275 281 278 278 281 276 277 279 280 277 281 276 277 281 277 276 277 281 274 276 281 279 276 277 276 281 276 279 276 279 276 280 278 281 277 277 276 281 278 277 277 281 274 280 276 281 276 274 281 275 278 277 277 276 280 280 279 276 281 277 276 281 277 276 279 279 277 276 279 277 278 278 280 274 281 276 281 276 280 277 275 281 274 276 276 281 278 277 279 276 279 275 277 281 276 279 280 278 277 279 276 277 281 278 276 280 277 278 280 281 276 274 281 276 278 276 280 277 281 275 277 274 280 276 280 281 275 276 277 276 281 276 280 281 278 278 276 276 281 279 277 278 274 280 277 276 281 276 274 281 276 276 281 276 280 278 280 277 276 281 277 280 278 276 278 281 277 279 277 276 281 278 278 276 281 277 280 281 279 275 274 276 281 278 277 276 281 280 276 281 275 278 278 277 281 276 280 281 277 276 280 278 280 278 278 276 281 277 277 277 281 276 280 272 281 277 276 280 275 278 279 276 280 277 280 278 281 276 276 277 281 274 276 281 280 273 277 276 281 278 280 281 276 278 278 276 279 281 276 278 275 280 277 275 281 280 276 278 280 278 275 277 280 276 280 278 280 280 277 276 281 274 277 276 281 277 277 280 281 278 275 280 281 276 277 276 278 280 278 278 280 276 277 277 278 280 276 277 281 280 276 276 280 274 278 280 280 276 277 277 279 275 276 280 278 281 277 276 281 278 276 276 281 280 275 277 281 278 276 280 275 281 278 275 281 280 272 277 275 280 277 281 278 280 275 278 277 280 276 275 280 281 278 276 281 275 280 273 280 276 274 276 281 277 278 276 280 281 280 277 277 281 276 278 281 276 276 275 281 280 278 278 276 281 277 276 281 280 277 277 278 281 276 276 274 279 276 278 281 278 278 277 277 276 279 281 278 278 276 277 280 281 280 276 278 281 276 276 277 276 281 279 281 273 276 277 280 277 277 275 280 281 278 277 276 280 279 278 276 281 275 277 280 280 277 276 278 281 278 277 276 281 280 277 277 281 280 275 277 281 273 276 280 277 278 277 276 280 280 276 281 277 276 280 278 280 277 276 278 280 277 278 277 274 281 278 277 281 276 273 280 281 278 277 276 280 278 277 276 280 280 277 277 277 281 276 276 278 276 277 278 279 280 278 276 280 274 276 278 278 281 276 277 280 281 275 275 281 278 278 276 281 278 276 280 281 274 276 280 278 280 277 276 281 277 280 273 276 281 278 277 281 275 277 280 280 281 276 278 276 280 277 276 280 279 278 275 276 281 276 277 278 280 276 277 281 278 280 274 279 276 281 277 277 281 275 278 278 281 280 276 276 281 275 278 280 276 279 277 280 281 276 278 278 277 281 276 276 281 277 280 274 276 281 278 277 281 276 280 278 281 277 278 280 275 281 277 276 281 277 280 278 280 276 276 278 281 277 276 280 280 274 277 280 276 281 277 277 281 276 276 278 281 278 279 276 277 280 275 278 281 276 280 277 281 276 280 275 281 277 278 276 276 280 277 279 275 281 278 277 280 281 276 277 281 280 278 277 276 281 277 278 275 281 277 281 276 278 280 274 274 279 277 280 276 281 277 278 274 280 277 280 275 281 276 276 280 277 279 276 280 281 275 278 278 279 276 276 278 279 275 274 279 281 277 278 277 275 281 278 281 276 280 277 278 279 280 276 276 281 277 280 276 281 278 278 276 280 276 274 277 281 277 278 276 280 280 276 276 281 278 278 277 277 281 276 280 277 280 275 278 281 277 280 276 281 280 276 274 276 281 278 274 277 281 276 280 277 280 278 277 276 281 280 280 281 275 276 277 278 278 281 277 275 280 277 276 280 280 278 275 281 276 276 277 278 281 278 279 276 281 280 277 275 281 276 278 281 280 275 277 280 277 278 276 278 281 279 277 275 276 281 279 276 281 276 278 277 281 278 275 276 280 280 277 277 281 276 280 279 276 277 280 275 280 278 277 276 281 278 276 275 281 279 277 277 281 276 276 277 281 280 278 278 276 281 280 276 276 281 276 278 281 280 276 273 277 281 280 276 281 278 277 275 277 281 275 279 281 276 277 278 281 277 278 277 276 281 279 278 277 281 275 280 275 280 276 276 280 280 277 278 276 281 278 277 281 276 280 276 275 280 279 276 277 280 277 278 278 276 281 278 277 281 277 276 278 281 275 280 275 281 277 278 276 280 276 278 278 277 281 275 280 281 276 278 275 277 281 280 280 281 276 274 276 278 281 276 277 281 278 276 280 275 281 278 276 281 276 278 276 280 276 278 280 276 280 280 275 279 276 275 278 279 281 277 276 281 277 276 278 278 281 280 280 276 281 277 277 277 279 275 278 278 281 276 276 279 281 275 277 279 276 276 275 280 281 276 278 277 281 277 277 275 280 277 278 276 280 278 276 277 281 276 280 276 277 280 278 277 274 280 280 272 276 281 277 281 277 276 280 275 281 277 279 276 281 277 278 280 277 278 276 277 280 278 275 275 280 280 276 274 276 281 279 277 278 281 275 278 276 281 280 276 281 277 276 277 276 281 277 280 281 278 276 277 279 279 276 276 275 281 279 278 277 280 276 277 278 281 277 276 278 281 277 280 276 281 280 277 281 276 278 278 276 279 280 276 275 280 277 278 275 280 276 280 277 281 276 280 277 278 280 276 277 281 278 280 277 278 281 274 276 279 275 278 280 279 278 275 280 275 281 274 277 275 281 279 278 277 281 277 276 281 278 276 279 278 280 280 277 280 276 275 277 277 281 276 277 276 280 281 278 276 280 277 276 276 281 279 276 280 281 277 274 278 281 278 277 280 276 281 277 278 281 276 274 279 280 276 276 279 275 281 278 277 277 281 276 277 281 276 280 278 276 281 277 276 280 277 278 278 280 281 274 277 277 281 276 275 280 278 279 276 275 281 278 276 276 281 276 277 280 281 276 280 274 281 275 277 275 281 276 276 280 280 276 278 281 278 277 275 280 281 276 280 276 281 276 278 278 281 276 278 277 280 280 277 278 276 281 274 279 275 281 277 279 278 281 277 276 277 281 277 276 281 278 280 276 281 276 277 280 281 278 277 276 280 281 276 277 276 281 275 278 277 281 276 280 277 280 278 276 281 278 279 275 277 281 275 280 278 281 276 277 275 281 274 280 276 281 277 278 277 280 275 279 278 279 276 280 277 278 281 277 278 276 280 277 277 280 281 275 275 281 280 275 276 277 281 278 279 281 275 276 278 279 276 276 278 281 279 277 275 281 276 279 278 277 275 281 276 280 281 276 277 275 281 278 276 269 281 277 280 281 276 280 278 278 281 277 276 277 281 280 278 281 276 278 278 277 281 276 273 281 279 278 276 277 276 281 279 276 280 277 278 280 277 281 275 278 281 278 277 276 280 280 280 277 280 276 275 278 281 277 279 276 281 278 278 275 281 276 278 277 281 280 276 280 281 277 277 277 276 277 281 278 281 276 275 277 278 281 275 279 276 281 276 279 275 281 278 278 278 281 276 277 280 277 278 280 276 281 276 276 281 276 275 276 280 279 281 277 275 281 277 276 278 281 279 276 277 281 276 278 278 277 281 276 280 277 281 280 275 276 281 278 277 281 276 276 275 280 280 276 277 280 277 277 279 276 281 280 278 277 279 276 277 276 281 278 275 280 281 277 276 274 281 276 279 278 281 275 276 278 280 281 276 276 278 275 278 281 280 276 275 278 281 277 276 280 278 281 275 280 277 276 281 277 280 278 276 276 281 279 278 276 276 281 278 277 279 281 276 280 277 281 275 276 278 281 276 278 275 280 277 280 281 277 276 280 277 281 277 276 279 280 278 278 278 276 281 275 281 276 278 280 276 281 273 275 280 275 280 276 277 280 280 276 277 277 280 276 280 278 279 277 280 281 276 276 278 279 278 280 276 277 281 274 280 276 281 276 278 277 281 276 278 281 280 276 279 278 277 279 277 276 281 280 275 278 280 276 277 281 279 278 276 276 281 280 277 276 281 276 280 277 280 276 277 278 278 281 278 276 281 277 275 281 276 278 280 277 280 280 276 277 281 278 278 279 276 281 280 276 276 281 276 278 281 280 277 280 276 280 277 274 278 280 276 278 280 281 277 276 280 277 277 274 280 281 277 280 280 275 278 278 278 276 281 276 276 280 280 278 275 279 276 277 278 280 276 277 280 278 281 280 276 277 281 276 277 280 280 276 277 277 280 277 276 281 275 278 277 281 276 279 277 280 280 276 278 278 281 277 280 276 281 277 278 280 276 281 276 281 280 274 276 276 281 278 278 277 281 276 279 280 281 274 277 277 279 277 278 276 280 280 276 279 276 281 276 275 281 275 274 279 281 278 277 276 281 278 276 279 278 280 275 279 277 280 279 276 281 276 278 276 281 275 277 280 279 277 276 278 280 275 280 280 276 281 276 276 280 277 276 277 281 279 280 277 275 281 277 277 280 281 276 278 276 281 280 277 276 276 281 274 276 281 280 277 278 281 276 275 280 281 276 276 278 280 278 280 279 276 279 277 275 280 276 276 280 278 280 278 277 276 280 280 278 276 280 279 276 281 277 276 278 278 281 277 279 281 276 276 274 279 278 280 276 281 276 280 277 276 281 277 278 278 280 276 276 279 281 276 277 275 281 280 277 276 281 275 277 277 281 277 278 276 277 281 280 275 281 278 278 277 281 276 280 278 275 280 278 280 276 281 277 275 276 279 277 277 280 279 277 275 280 280 278 276 281 278 276 280 277 281 276 279 281 278 276 277 275 281 280 276 281 276 280 276 276 278 281 274 275 281 280 277 275 275 281 276 281 276 279 280 277 277 281 277 276 277 280 277 276 280 277 278 280 278 274 280 275 280 275 277 278 280 276 280 280 277 280 276 277 278 280 281 277 276 281 279 277 277 276 281 276 277 281 280 276 280 276 281 278 276 276 281 275 280 277 280 276 276 280 278 276 279 275 281 279 277 278 280 276 274 279 281 276 276 281 275 278 280 276 281 275 277 281 276 280 276 280 277 281 278 276 281 277 278 280 276 280 275 277 281 277 276 280 278 281 278 276 277 281 279 277 281 278 278 276 275 281 280 276 277 280 276 276 279 276 280 276 281 279 275 277 278 276 281 277 276 281 279 278 278 280 281 276 280 277 281 275 274 275 281 278 280 281 276 277 278 281 274 277 275 279 281 277 280 275 280 277 275 276 281 275 280 277 280 279 276 278 280 275 276 280 280 276 276 278 281 276 280 276 281 277 276 280 277 281 278 274 281 276 277 277 281 280 278 276 276 281 280 277 276 275 280 278 279 274 279 274 276 281 276 276 281 277 278 279 277 280 280 276 277 281 274 276 277 281 279 279 278 281 275 276 278 281 277 275 275 278 280 280 276 280 277 278 277 277 281 276 280 281 275 277 275 280 281 277 278 275 280 280 278 277 276 281 276 274 281 276 280 277 280 275 277 278 281 276 279 278 276 281 280 277 276 281 277 278 281 275 277 279 281 280 275 276 280 275 277 278 281 276 280 278 280 277 281 276 277 281 276 276 276 281 279 277 280 278 276 280 277 281 276 280 281 275 277 278 276 281 275 278 279 281 280 276 276 278 281 280 277 275 281 277 277 277 281 280 276 281 275 276 278 281 278 277 280 279 280 276 278 275 280 276 276 278 277 281 280 276 281 277 277 278 281 275 277 280 281 279 276 277 278 280 278 276 279 275 280 278 277 280 273 276 279 279 277 277 276 281 280 278 276 280 280 275 278 281 278 277 279 276 281 276 280 275 277 280 278 281 280 277 276 275 281 277 281 276 277 277 279 279 281 276 277 281 276 278 278 275 280 279 279 277 281 276 277 278 276 281 279 276 281 275 277 281 275 278 280 277 279 280 277 276 280 277 281 278 277 280 276 277 279 276 280 278 277 276 281 277 280 275 278 277 278 280 279 277 276 281 277 279 277 278 281 276 277 280 280 277 276 278 281 278 280 277 276 281 275 280 275 281 277 277 281 278 277 276 279 280 279 277 281 276 277 278 277 277 281 279 275 280 281 277 276 278 281 277 278 281 277 280 278 277 277 279 277 280 277 281 275 279 281 277 277 279 277 280 276 276 277 281 276 276 277 280 280 277 279 280 276 277 277 278 281 276 280 277 281 277 276 276 277 281 278 275 280 279 277 277 280 281 275 277 277 281 278 276 276 278 281 277 281 276 278 277 276 281 280 277 277 281 279 278 276 277 280 277 280 281 277 276 278 277 278 281 276 277 281 276 277 277 281 280 277 279 274 281 274 277 276 281 276 280 278 276 281 279 278 277 281 277 277 281 275 277 280 279 277 281 277 277 280 278 277 277 280 279 277 277 281 275 276 278 276 281 277 277 280 281 277 279 276 281 278 278 276 277 281 276 279 277 281 278 277 277 281 276 276 281 280 275 280 278 277 280 277 279 280 277 276 280 277 281 276 277 277 281 277 277 277 281 280 278 280 281 275 276 277 277 281 277 278 278 278 278 277 277 281 277 278 279 278 276 280 276 279 281 277 277 281 277 278 277 277 280 277 280 276 281 277 278 280 281 275 277 275 281 280 277 277 281 277 278 277 279 281 276 277 280 281 278 276 279 277 281 277 277 281 276 276 278 280 277 281 277 281 277 277 277 278 278 281 280 277 276 281 274 280 277 280 275 278 280 278 277 277 277 278 277 275 281 278 276 280 277 277 281 280 276 278 279 277 277 277 281 279 279 277 281 277 277 277 281 277 275 280 281 275 277 280 278 280 277 277 277 281 277 275 280 277 281 278 277 281 277 278 276 281 279 277 276 277 280 281 277 277 277 281 276 280 281 277 276 277 281 277 277 277 281 278 280 279 277 281 277 273 279 277 280 276 278 279 276 279 276 277 280 277 276 280 278 277 280 277 277 280 280 277 281 278 276 276 280 279 277 277 281 280 277 278 277 281 277 277 280 281 275 277 280 277 281 275 277 277 281 277 280 277 280 277 277 276 281 279 277 280 280 277 278 278 277 281 279 277 277 281 277 278 281 275 279 277 276 281 275 277 280 280 277 278 277 277 281 280 277 277 281 277 277 279 281 276 280 277 281 276 277 278 281 274 280 277 277 280 277 280 280 278 276 277 277 281 277 279 281 277 277 279 278 276 280 275 277 281 280 277 275 279 281 278 278 276 280 277 277 280 277 280 278 277 281 276 279 277 277 281 278 278 277 281 277 277 280 281 277 277 280 278 277 277 276 281 280 273 280 277 281 277 278 277 281 280 276 277 281 278 279 277 277 281 277 276 281 277 280 277 279 278 280 277 277 281 276 277 281 276 279 277 277 281 277 277 279 281 277 275 280 277 280 277 275 277 281 279 278 277 281 278 280 277 277 281 277 276 280 280 277 279 277 281 276 276 276 280 274 278 277 281 276 280 277 277 279 275 277 280 278 278 277 280 277 281 280 278 277 281 277 274 278 281 277 279 277 279 278 277 277 281 275 278 280 276 281 277 279 276 281 278 278 278 277 281 279 277 279 281 277 277 278 274 281 278 277 281 277 279 276 280 277 281 277 278 278 280 276 275 276 280 280 277 278 277 276 276 278 276 281 277 280 278 281 277 277 275 277 280 275 280 276 276 281 279 277 281 277 278 277 275 281 277 280 277 280 276 279 276 281 277 276 278 280 281 277 276 276 281 278 277 277 281 277 279 278 275 280 275 280 276 281 277 277 280 278 280 277 277 276 280 277 278 278 277 281 275 280 281 278 278 277 280 278 280 277 277 279 280 277 276 278 280 275 278 277 281 277 276 280 277 279 275 276 280 281 278 276 276 280 280 277 277 278 281 278 277 278 279 281 277 279 277 281 276 278 280 278 277 279 277 277 281 280 277 277 281 278 278 277 277 281 280 277 274 281 277 276 281 278 278 277 280 274 280 279 277 277 281 277 279 278 281 278 280 277 277 281 277 276 278 281 277 280 278 279 280 277 277 277 281 275 277 278 281 278 278 280 277 281 277 276 281 278 277 280 277 281 280 278 276 277 280 277 278 276 281 276 279 278 277 281 278 277 278 281 278 277 276 281 280 276 278 273 281 276 280 277 281 275 280 276 277 281 277 278 281 276 275 278 280 277 281 279 276 281 274 278 277 278 278 281 277 277 280 281 276 277 278 281 277 277 275 281 280 276 276 281 277 280 277 274 281 277 276 276 279 281 277 275 280 278 277 278 277 281 278 280 277 281 277 277 280 278 281 278 277 278 279 281 275 277 281 277 277 277 280 277 281 277 278 281 276 275 277 281 278 280 276 278 280 277 279 277 275 281 278 276 274 281 280 278 275 280 275 276 280 278 281 277 280 276 280 278 277 278 279 281 277 278 276 281 277 280 277 281 276 276 276 281 278 277 278 277 281 280 277 277 281 277 277 278 277 281 280 277 280 274 277 277 276 281 277 278 279 279 281 277 277 279 278 280 277 277 277 281 278 279 274 277 281 277 281 278 276 275 279 278 281 278 279 277 281 278 277 276 275 280 273 280 277 281 277 277 280 278 277 279 276 279 281 276 278 278 281 277 277 278 277 280 279 276 277 281 278 278 277 281 277 277 280 281 274 277 278 277 279 281 278 277 281 277 278 277 277 276 281 277 281 278 280 277 276 277 280 279 278 277 280 278 280 277 277 281 276 280 275 281 277 277 276 278 279 278 275 280 281 277 275 281 277 280 277 278 276 281 280 277 277 281 277 278 278 280 276 279 277 280 280 277 276 281 276 276 278 279 277 281 277 280 278 276 281 277 280 278 275 277 277 280 281 277 277 281 277 277 280 278 279 281 276 277 278 280 276 277 281 278 277 276 280 280 277 277 279 277 281 278 277 276 281 279 280 276 277 281 275 278 281 271 278 278 280 277 281 276 275 277 281 276 278 279 281 277 280 277 276 281 277 275 281 278 277 280 277 277 281 279 276 279 277 278 278 278 281 280 275 277 281 277 280 277 277 281 278 277 280 276 281 277 277 277 280 278 276 279 280 278 276 276 281 277 279 277 278 278 277 280 278 281 275 277 277 281 277 278 278 281 277 277 280 278 281 277 277 277 280 277 276 280 276 279 276 281 281 277 277 276 278 280 281 278 276 280 277 277 277 277 281 277 274 280 281 279 278 277 277 281 277 278 278 281 277 277 278 278 278 281 277 281 276 278 280 277 281 276 278 279 276 281 277 277 277 281 277 277 277 278 279 275 276 281 277 278 280 277 281 277 279 278 276 281 278 277 278 280 281 277 278 281 275 278 277 277 281 277 277 280 281 277 276 278 281 277 280 277 275 281 280 277 277 277 281 278 277 281 278 280 277 277 281 277 277 278 281 279 276 276 281 276 280 277 277 276 281 280 278 281 275 275 278 279 280 277 275 277 281 276 276 280 278 281 277 278 281 277 276 280 277 277 278 279 278 281 277 277 277 277 281 276 279 278 281 278 280 277 279 276 274 280 277 281 278 280 277 277 281 277 277 277 281 277 277 278 281 280 278 276 281 277 277 279 277 281 278 280 276 277 280 277 277 281 277 279 277 279 277 281 276 274 281 277 276 277 277 281 277 278 280 281 278 277 280 277 281 277 277 280 279 278 276 277 277 280 276 281 280 278 276 276 277 281 273 280 277 280 276 280 277 277 279 277 277 278 277 280 279 277 280 280 275 276 276 281 278 278 274 281 276 280 277 280 277 281 277 274 276 281 277 276 281 278 280 277 281 275 276 277 276 281 277 278 278 281 277 280 276 277 280 277 278 276 279 275 280 277 276 279 277 277 278 280 277 279 278 280 278 277 280 277 281 278 275 277 281 280 277 278 277 281 277 276 281 278 280 277 278 281 277 279 281 277 277 277 277 280 275 281 279 277 281 278 278 278 276 276 281 280 278 281 274 277 276 280 277 276 280 278 281 280 277 278 281 277 276 280 276 277 279 277 275 280 278 276 279 281 277 278 278 280 280 277 277 278 281 280 277 275 281 277 280 278 277 281 277 277 281 277 277 276 280 278 281 277 277 280 277 280 277 276 281 277 276 277 281 277 277 277 277 281 279 280 281 277 275 277 278 278 281 277 276 279 280 280 277 278 278 277 281 277 277 281 277 280 281 277 278 278 277 276 281 276 276 281 280 276 280 277 280 278 277 276 281 275 280 276 279 277 281 278 281 278 278 277 277 277 280 279 276 281 280 277 278 276 281 276 277 280 280 277 275 276 277 281 278 277 279 281 277 274 279 281 276 278 277 277 281 279 277 277 277 281 278 279 278 281 277 278 280 281 277 277 276 276 281 278 280 277 280 278 276 280 277 281 277 274 280 278 280 278 277 276 281 277 275 279 275 278 278 280 277 280 277 277 281 280 277 277 277 280 278 276 278 280 281 277 276 280 275 275 278 276 280 280 278 281 277 277 278 277 281 278 277 277 280 281 277 277 276 280 277 278 277 280 277 280 276 278 279 277 280 277 281 277 278 279 275 280 277 276 277 281 275 277 277 280 277 280 277 277 281 277 276 280 279 280 278 276 277 281 278 277 276 281 279 277 278 280 281 276 277 281 278 277 276 277 281 277 280 276 281 275 277 280 277 280 276 277 281 278 280 277 277 281 277 278 277 281 279 276 277 280 280 276 277 275 281 278 277 280 278 281 277 277 278 274 281 277 276 281 277 279 278 277 279 277 277 281 276 277 279 278 276 281 280 277 276 281 277 278 278 281 277 280 277 281 277 279 277 277 281 275 278 280 281 276 277 279 278 281 277 275 281 277 278 280 277 277 280 278 274 281 277 277 280 278 281 280 278 277 276 281 277 277 277 280 278 280 274 278 281 276 276 281 280 279 277 277 281 277 277 278 281 276 277 280 280 279 276 278 277 281 277 278 278 280 277 280 275 281 277 277 277 276 280 277 280 280 276 281 277 278 276 280 277 277 276 280 278 278 277 277 281 278 277 278 281 276 280 275 281 277 280 277 278 279 277 278 277 281 276 279 275 281 276 276 278 281 278 278 277 280 277 281 280 278 281 277 278 277 280 277 281 277 277 280 277 275 278 280 277 277 276 280 280 277 277 280 281 275 278 278 280 281 277 276 278 281 277 276 278 280 277 279 277 277 281 276 279 277 281 277 278 281 278 280 276 280 277 277 281 275 280 277 277 279 277 277 280 277 277 281 278 276 277 278 278 281 277 280 280 277 277 277 281 277 279 278 277 277 281 275 277 281 276 279 280 278 281 275 278 275 281 277 277 280 277 281 277 278 280 281 278 277 277 280 276 280 277 281 277 278 278 275 281 277 280 277 281 276 279 278 278 277 281 274 279 276 276 279 277 280 281 278 277 277 278 278 277 280 281 277 280 274 277 281 278 278 277 281 279 276 277 280 278 276 278 280 276 276 277 280 280 279 277 277 279 274 277 277 277 281 276 279 280 281 276 277 278 277 281 278 278 280 280 277 278 280 281 277 276 278 276 281 280 276 277 280 276 278 275 277 281 276 278 280 280 277 280 276 281 278 277 278 280 280 277 277 277 279 281 277 278 281 279 278 277 276 281 277 276 281 278 277 275 279 280 275 278 279 277 277 281 277 281 276 280 276 278 281 277 276 276 276 281 279 278 280 280 277 278 277 280 278 277 280 278 281 276 280 277 281 276 277 276 275 281 276 280 277 279 278 279 277 277 281 275 276 280 277 278 280 276 281 278 277 277 281 278 278 278 280 276 280 278 277 281 277 276 280 277 281 280 274 278 277 281 278 277 281 277 277 280 278 280 276 277 281 278 276 279 280 277 281 277 278 281 275 277 278 277 279 280 280 277 281 276 276 278 277 281 278 279 277 281 277 277 276 280 277 279 277 275 281 277 280 277 280 278 277 277 281 277 278 279 280 281 277 278 275 281 277 277 279 281 278 276 280 275 276 281 277 278 281 277 277 280 276 280 276 281 277 277 277 277 280 276 281 277 280 277 281 277 277 275 281 277 279 278 281 277 275 278 279 280 278 277 280 280 277 276 278 280 277 280 277 276 279 276 280 275 280 277 276 277 281 277 278 280 281 275 276 277 278 281 280 277 275 280 280 278 278 278 281 277 277 279 281 277 277 280 278 281 277 278 275 281 276 276 280 281 278 280 277 277 280 275 278 277 280 276 280 278 281 277 278 277 281 278 279 277 277 281 280 277 276 281 277 277 279 277 281 276 275 278 281 278 276 275 276 277 278 280 281 277 276 278 277 281 277 280 277 280 277 278 280 278 281 277 277 278 281 279 277 279 276 281 277 278 277 280 276 278 275 281 277 280 277 277 280 278 276 280 277 274 277 280 278 280 277 277 279 278 277 280 277 281 279 278 278 282 277 279 278 279 281 278 281 277 281 279 278 278 282 278 278 281 276 281 277 278 281 279 281 278 278 278 282 281 277 281 277 279 278 278 282 279 280 282 278 278 275 280 278 281 278 278 278 282 279 279 277 278 282 280 278 278 281 276 280 279 282 278 277 277 282 278 279 277 281 282 278 279 281 282 278 277 278 282 279 280 278 281 278 282 277 278 282 279 277 278 281 282 276 277 282 278 281 278 279 276 282 278 278 280 281 278 278 277 280 279 279 281 279 282 278 278 281 282 278 278 276 282 279 281 277 279 282 278 277 280 282 281 277 278 281 279 277 278 279 282 277 281 278 281 281 279 278 279 282 279 278 277 282 274 281 279 278 282 278 278 282 278 281 278 277 282 281 279 278 279 282 278 279 278 281 279 278 277 282 279 278 282 278 278 278 276 281 282 278 280 278 282 277 276 279 281 278 282 277 280 276 279 278 274 282 280 279 280 278 282 278 281 278 281 278 276 278 282 279 281 278 277 281 277 279 281 278 278 280 279 282 276 278 279 282 276 279 280 278 282 281 279 278 281 278 280 278 282 279 281 278 278 278 282 279 282 278 278 278 280 281 281 278 279 277 282 276 276 281 279 281 277 279 278 281 279 278 282 281 278 279 278 281 277 280 278 278 282 281 278 277 282 281 279 278 282 278 279 276 277 282 280 278 282 278 279 279 279 278 281 277 281 281 281 278 279 277 282 279 278 277 281 278 280 281 278 279 282 278 281 277 279 280 274 277 282 281 278 279 278 281 277 279 282 281 278 277 277 281 278 277 282 277 279 280 278 282 278 280 277 278 282 278 281 279 278 282 276 275 281 278 280 278 279 282 280 278 278 282 276 277 281 282 278 278 278 281 281 279 279 278 282 277 278 278 280 282 277 279 282 276 278 278 280 282 278 279 281 282 278 278 279 280 282 278 278 282 277 280 278 279 278 282 279 278 282 281 277 277 279 281 282 278 279 278 281 278 281 279 281 278 276 278 282 278 278 278 282 279 281 278 277 282 277 277 281 282 277 278 278 279 282 278 279 282 277 278 279 278 282 280 277 277 281 277 279 276 277 282 278 278 281 282 278 278 278 280 282 277 277 279 280 281 278 278 280 279 278 281 279 280 278 278 278 281 282 278 278 279 282 278 281 280 276 278 277 278 282 279 278 278 282 277 277 280 279 281 278 278 281 282 276 279 281 279 282 278 279 278 282 278 278 279 282 281 278 278 275 282 278 281 277 281 278 281 279 278 282 279 277 282 276 277 280 279 276 282 278 280 282 278 278 278 281 282 277 277 280 278 282 278 278 276 282 275 281 278 282 278 279 278 282 277 278 281 280 281 278 278 279 282 277 278 280 278 282 278 279 281 282 279 278 277 282 277 281 278 282 276 276 281 279 282 278 278 278 282 278 279 281 278 282 279 277 282 278 281 277 279 282 278 278 281 279 282 278 279 282 277 281 278 279 276 281 278 277 282 278 279 281 279 282 278 278 281 277 279 281 277 281 277 282 278 279 282 278 278 279 282 281 278 276 282 279 278 279 278 282 278 281 279 277 282 278 278 281 282 279 278 278 281 281 278 278 281 278 278 278 278 280 280 279 278 282 278 281 276 278 282 278 280 282 278 279 277 278 280 278 280 278 282 278 278 281 282 278 279 277 279 282 278 281 278 282 279 278 278 277 282 278 278 282 281 279 276 276 282 278 279 277 282 277 277 280 281 279 282 278 279 280 282 278 278 279 282 278 281 279 281 278 278 278 281 280 278 276 282 278 278 280 278 281 279 278 276 281 282 276 278 278 282 277 278 281 282 280 278 278 282 278 278 278 281 278 281 278 277 282 281 277 279 278 282 278 279 280 281 278 275 278 282 279 278 278 282 281 277 278 280 281 278 278 280 281 277 278 279 282 278 281 279 278 282 278 278 281 279 281 277 279 278 281 281 276 278 282 279 281 277 281 278 277 279 278 282 278 277 280 282 281 279 279 281 278 278 281 276 281 279 278 280 282 275 278 279 282 278 278 276 281 282 278 279 282 278 279 278 281 278 282 278 281 282 277 279 278 279 282 280 281 278 282 278 279 275 279 281 279 278 281 282 278 281 276 278 282 278 279 279 282 277 276 281 278 282 276 278 282 278 278 281 282 278 278 281 275 280 280 278 277 282 278 281 279 277 276 282 278 276 278 282 279 279 281 278 281 277 281 278 282 278 276 281 282 279 279 275 277 278 282 281 281 279 281 276 278 278 276 282 277 278 278 282 281 279 279 282 279 278 279 278 281 281 277 274 282 277 278 281 279 282 278 278 277 282 281 276 279 278 282 278 278 278 281 276 280 277 282 279 280 276 279 278 282 274 280 278 282 278 278 279 282 279 280 281 278 281 277 276 280 278 282 279 278 278 279 282 281 278 278 281 277 279 276 280 276 279 281 278 282 281 279 277 277 281 276 278 281 281 278 278 280 278 279 281 281 276 278 282 278 279 275 281 278 280 281 278 280 279 279 278 278 282 277 282 277 279 281 275 278 282 281 279 278 282 278 278 279 278 281 282 277 282 279 274 278 278 282 280 277 281 278 281 278 279 276 282 278 279 279 279 278 282 278 282 276 278 281 278 278 282 277 279 276 281 282 278 277 281 282 279 278 278 279 280 277 276 280 278 281 278 281 278 282 279 278 278 281 277 276 280 279 282 278 279 281 282 278 278 278 280 282 279 281 276 278 278 282 277 278 282 280 278 277 279 280 276 278 280 277 281 276 280 278 282 278 278 277 281 279 276 281 282 275 278 278 279 282 281 279 278 282 281 278 277 280 282 278 276 278 278 282 278 281 276 278 282 278 281 275 279 282 277 281 278 282 276 278 277 282 279 278 281 282 278 278 276 282 277 278 281 276 279 282 281 279 277 282 277 278 282 280 276 281 279 282 279 278 278 275 282 278 281 281 278 282 278 276 279 282 278 278 278 281 281 278 279 277 282 278 276 281 278 282 278 281 278 282 279 277 278 275 282 281 276 277 277 281 279 280 278 281 277 278 281 278 282 279 279 278 282 279 278 276 278 282 281 278 281 277 279 281 278 277 281 276 279 280 282 277 278 282 278 278 281 278 278 281 278 278 282 276 279 281 278 279 281 278 276 278 278 282 280 278 282 279 281 276 276 278 282 278 278 282 276 281 279 281 276 282 278 278 278 282 277 278 278 281 282 278 278 278 281 281 275 277 282 278 279 278 276 282 278 277 282 276 281 279 278 280 278 282 277 281 282 279 277 277 280 282 276 279 276 277 278 281 279 281 281 275 278 278 281 282 277 277 278 282 275 279 280 282 277 279 278 278 282 279 279 276 282 277 280 278 278 279 282 278 280 282 281 278 278 277 279 282 277 275 281 281 278 278 278 281 276 280 279 276 281 280 278 276 282 278 278 278 276 282 279 281 278 282 277 277 281 277 282 276 279 276 280 277 282 280 278 282 278 279 276 279 281 281 278 277 282 281 278 279 278 281 278 279 281 282 278 276 278 280 277 279 281 279 277 281 278 280 282 276 278 278 276 282 281 278 279 282 278 278 280 278 282 280 276 279 279 278 281 280 278 282 281 278 279 279 278 282 278 278 282 274 277 280 282 279 278 281 278 277 282 279 276 281 282 278 279 277 282 277 278 278 282 279 281 280 278 282 274 281 279 282 276 278 279 278 281 282 276 279 276 282 277 275 280 281 278 278 277 281 282 279 278 282 278 277 279 281 277 280 276 278 278 279 282 281 280 279 282 278 276 278 279 282 279 278 280 282 277 277 278 281 278 278 279 282 278 281 276 278 282 279 276 281 279 276 282 281 278 278 282 278 277 279 281 273 281 277 282 280 277 278 279 282 275 281 277 279 282 278 278 280 282 278 278 277 281 278 281 279 281 278 282 275 278 278 282 278 281 279 282 279 276 278 282 274 281 281 279 278 282 278 278 279 281 277 281 276 277 282 279 277 281 278 278 280 277 282 281 278 281 279 281 278 278 279 276 282 276 281 278 282 279 279 279 282 278 278 281 278 282 275 281 277 279 282 279 280 278 281 278 276 278 282 280 277 275 281 279 279 280 277 281 281 275 278 282 278 279 279 281 276 276 282 278 278 282 278 279 281 278 282 281 279 276 278 281 278 277 281 280 277 278 279 282 276 277 281 278 282 281 279 277 282 279 275 278 281 280 280 276 277 278 282 279 278 278 278 276 278 281 279 281 278 278 279 279 282 278 278 278 279 282 278 276 281 278 280 278 282 278 279 280 278 277 280 278 277 281 279 277 276 282 278 278 278 282 278 278 279 281 278 282 276 278 281 278 278 279 282 276 278 281 279 278 282 278 276 278 278 282 278 278 280 278 278 281 279 282 278 276 278 276 282 278 281 279 278 278 282 277 279 278 276 282 278 279 280 278 280 278 280 276 277 278 277 278 282 278 278 281 275 279 282 278 276 278 281 277 280 278 279 277 281 276 278 281 278 277 277 278 281 280 279 281 276 278 281 276 279 281 278 278 278 282 277 281 279 282 278 278 278 278 279 277 278 282 276 281 278 278 282 278 278 281 276 280 282 278 278 279 280 278 277 281 279 278 278 278 282 281 276 278 279 278 277 282 279 276 277 278 276 282 281 279 277 278 278 282 275 281 278 278 278 277 281 281 278 278 277 280 278 282 278 278 281 279 278 278 280 276 282 279 281 278 277 277 278 282 279 280 277 278 277 282 279 276 279 278 278 282 281 279 278 277 278 282 275 280 278 278 278 279 282 276 281 276 278 278 278 278 282 282 278 277 278 278 281 281 279 281 278 277 278 280 278 282 278 278 281 279 276 282 277 277 277 278 278 281 281 281 279 275 278 282 276 278 279 278 278 277 280 276 281 278 280 279 282 278 278 281 278 277 281 278 278 280 277 277 276 282 279 278 275 282 277 278 281 277 278 282 281 277 278 276 276 277 282 281 278 278 278 278 282 280 276 278 279 278 282 278 281 278 281 279 278 282 276 274 278 282 277 276 278 277 280 277 279 281 278 278 282 278 278 276 279 280 276 281 278 281 277 278 278 278 282 278 281 277 278 276 282 278 280 277 279 278 280 278 280 277 277 279 275 280 278 278 278 278 277 281 278 281 278 278 281 279 276 276 281 278 277 278 282 278 281 278 282 278 278 279 276 277 282 281 278 279 281 276 277 282 277 280 278 279 282 278 278 278 277 280 279 281 277 277 278 275 282 279 276 280 278 278 281 279 282 276 276 278 276 281 280 279 281 276 282 278 277 279 278 281 278 282 278 278 279 281 282 277 278 277 278 276 282 281 278 276 277 279 277 282 276 281 277 275 282 279 281 276 278 278 278 282 279 280 278 277 278 278 282 278 281 282 276 278 276 281 279 275 278 278 281 276 281 279 282 278 277 277 279 281 278 282 281 278 278 279 275 278 282 278 277 278 276 282 278 280 278 278 278 281 279 278 281 278 278 278 281 279 281 278 281 278 278 275 278 280 278 278 282 278 281 278 277 282 278 277 280 275 279 282 278 281 278 279 278 278 282 276 277 278 279 281 281 278 278 278 282 275 281 279 277 278 281 278 282 279 277 279 280 278 277 273 279 275 282 280 278 278 279 276 280 278 277 281 279 277 278 282 281 277 277 278 277 282 276 278 280 276 279 280 278 282 281 277 277 278 282 279 278 278 278 282 277 279 281 277 282 278 278 278 276 280 279 282 277 279 281 278 278 281 280 277 277 277 281 278 275 280 278 279 278 281 277 282 278 278 278 282 276 281 279 278 279 282 276 278 278 278 279 281 282 278 279 278 278 280 280 279 277 278 277 282 277 277 281 278 276 279 282 278 279 280 278 281 277 281 276 278 278 277 279 276 278 280 279 277 281 281 278 277 278 282 275 277 279 278 281 276 279 281 280 278 278 281 277 278 278 276 279 282 277 281 277 278 281 278 282 278 278 280 282 278 276 279 281 278 279 278 282 277 277 278 281 282 277 279 278 281 276 278 278 281 276 278 278 278 282 280 278 278 282 278 278 279 280 278 282 278 278 278 280 281 275 278 282 278 278 279 277 282 280 278 277 276 278 282 279 275 279 280 278 278 281 281 277 277 282 278 275 278 280 279 276 275 282 281 279 276 281 278 278 282 278 278 282 279 281 277 278 277 276 282 276 278 278 280 282 281 277 279 276 278 282 278 278 281 278 278 278 280 281 278 279 278 282 278 278 278 280 275 277 282 278 278 281 279 279 277 282 278 278 276 281 281 278 278 278 280 278 282 277 279 278 278 278 279 282 280 276 278 282 276 278 278 279 276 278 278 282 280 279 282 280 277 278 277 278 281 279 281 278 278 280 279 276 282 278 277 278 278 282 281 278 277 278 278 278 282 280 276 278 278 276 280 281 278 279 282 279 278 278 279 278 280 278 278 282 277 278 282 278 278 281 277 279 276 282 281 277 278 278 278 281 279 279 279 277 278 278 282 279 276 281 277 275 278 282 277 279 277 281 278 278 278 282 274 276 278 278 282 275 279 281 277 282 278 279 278 278 278 280 277 276 282 281 277 278 277 277 282 279 278 278 277 276 282 280 280 276 278 278 275 278 282 278 278 279 277 281 277 278 280 277 277 278 277 278 282 277 281 277 278 278 276 281 277 278 278 277 282 276 279 278 277 277 281 276 278 280 282 276 278 282 277 281 276 278 278 276 277 282 276 277 279 277 280 279 277 282 276 278 277 278 282 278 276 281 278 281 279 277 275 282 278 280 278 278 276 282 281

Tree=0
num_leaves=2
num_cat=0
split_feature=16
split_gain=133.826
threshold=1.0000000180025095e-35
decision_type=2
left_child=-1
right_child=-2
leaf_value=-2.9024297798301184 -2.9044109277082071
leaf_count=317 1165
internal_value=0
internal_count=1482
shrinkage=1


Tree=1
num_leaves=2
num_cat=0
split_feature=16
split_gain=133.529
threshold=1.0000000180025095e-35
decision_type=2
left_child=-1
right_child=-2
leaf_value=0.0015542745652483661 -0.00042367444238053929
leaf_count=317 1165
internal_value=0
internal_count=1482
shrinkage=0.0006


Tree=2
num_leaves=2
num_cat=0
split_feature=16
split_gain=133.234
threshold=1.0000000180025095e-35
decision_type=2
left_child=-1
right_child=-2
leaf_value=0.0015511800629902264 -0.00042358108955724446
leaf_count=317 1165
internal_value=0
internal_count=1482
shrinkage=0.0006


Tree=3
num_leaves=2
num_cat=0
split_feature=16
split_gain=132.94
threshold=1.0000000180025095e-35
decision_type=2
left_child=-1
right_child=-2
leaf_value=0.0015480962506108848 -0.00042348771613621457
leaf_count=317 1165
internal_value=0
internal_count=1482
shrinkage=0.0006


Tree=4
num_leaves=2
num_cat=0
split_feature=16
split_gain=132.647
threshold=1.0000000180025095e-35
decision_type=2
left_child=-1
right_child=-2
leaf_value=0.0015450231771739779 -0.00042339434165184023
leaf_count=317 1165
internal_value=0
internal_count=1482
shrinkage=0.0006


Tree=5
num_leaves=2
num_cat=0
split_feature=16
split_gain=132.354
threshold=1.0000000180025095e-35
decision_type=2
left_child=-1
right_child=-2
leaf_value=0.0015419609543271661 -0.00042330094655851906
leaf_count=317 1165
internal_value=0
internal_count=1482
shrinkage=0.0006


Tree=6
num_leaves=2
num_cat=0
split_feature=16
split_gain=132.063
threshold=1.0000000180025095e-35
decision_type=2
left_child=-1
right_child=-2
leaf_value=0.0015389092590457447 -0.00042320756310405231
leaf_count=317 1165
internal_value=0
internal_count=1482
shrinkage=0.0006


Tree=7
num_leaves=2
num_cat=0
split_feature=16
split_gain=131.773
threshold=1.0000000180025095e-35
decision_type=2
left_child=-1
right_child=-2
leaf_value=0.0015358683058347819 -0.00042311417873319089
leaf_count=317 1165
internal_value=0
internal_count=1482
shrinkage=0.0006


Tree=8
num_leaves=2
num_cat=0
split_feature=16
split_gain=131.484
threshold=1.0000000180025095e-35
decision_type=2
left_child=-1
right_child=-2
leaf_value=0.0015328378887028075 -0.00042302074180950328
leaf_count=317 1165
internal_value=0
internal_count=1482
shrinkage=0.0006


Tree=9
num_leaves=2
num_cat=0
split_feature=16
split_gain=131.196
threshold=1.0000000180025095e-35
decision_type=2
left_child=-1
right_child=-2
leaf_value=0.0015298178258525562 -0.00042292733628578028
leaf_count=317 1165
internal_value=0
internal_count=1482
shrinkage=0.0006


Tree=10
num_leaves=2
num_cat=0
split_feature=16
split_gain=130.909
threshold=1.0000000180025095e-35
decision_type=2
left_child=-1
right_child=-2
leaf_value=0.0015268082307708874 -0.00042283394249544861
leaf_count=317 1165
internal_value=0
internal_count=1482
shrinkage=0.0006


Tree=11
num_leaves=2
num_cat=0
split_feature=16
split_gain=130.623
threshold=1.0000000180025095e-35
decision_type=2
left_child=-1
right_child=-2
leaf_value=0.0015238090144930371 -0.00042274048376759993
leaf_count=317 1165
internal_value=0
internal_count=1482
shrinkage=0.0006


Tree=12
num_leaves=2
num_cat=0
split_feature=16
split_gain=130.338
threshold=1.0000000180025095e-35
decision_type=2
left_child=-1
right_child=-2
leaf_value=0.0015208201099350968 -0.00042264706913616127
leaf_count=317 1165
internal_value=0
internal_count=1482
shrinkage=0.0006


Tree=13
num_leaves=2
num_cat=0
split_feature=16
split_gain=130.053
threshold=1.0000000180025095e-35
decision_type=2
left_child=-1
right_child=-2
leaf_value=0.001517841645301918 -0.00042255362175953361
leaf_count=317 1165
internal_value=0
internal_count=1482
shrinkage=0.0006


Tree=14
num_leaves=2
num_cat=0
split_feature=16
split_gain=129.77
threshold=1.0000000180025095e-35
decision_type=2
left_child=-1
right_child=-2
leaf_value=0.0015148731638011243 -0.00042246015419499026
leaf_count=317 1165
internal_value=0
internal_count=1482
shrinkage=0.0006


Tree=15
num_leaves=2
num_cat=0
split_feature=16
split_gain=129.488
threshold=1.0000000180025095e-35
decision_type=2
left_child=-1
right_child=-2
leaf_value=0.0015119149682039105 -0.00042236669880118703
leaf_count=317 1165
internal_value=0
internal_count=1482
shrinkage=0.0006


Tree=16
num_leaves=2
num_cat=0
split_feature=16
split_gain=129.207
threshold=1.0000000180025095e-35
decision_type=2
left_child=-1
right_child=-2
leaf_value=0.0015089668040163221 -0.00042227324291657545
leaf_count=317 1165
internal_value=0
internal_count=1482
shrinkage=0.0006


Tree=17
num_leaves=2
num_cat=0
split_feature=16
split_gain=128.927
threshold=1.0000000180025095e-35
decision_type=2
left_child=-1
right_child=-2
leaf_value=0.0015060288402289771 -0.00042217975444766169
leaf_count=317 1165
internal_value=0
internal_count=1482
shrinkage=0.0006


Tree=18
num_leaves=2
num_cat=0
split_feature=16
split_gain=128.647
threshold=1.0000000180025095e-35
decision_type=2
left_child=-1
right_child=-2
leaf_value=0.0015031008827287814 -0.00042208627832541752
leaf_count=317 1165
internal_value=0
internal_count=1482
shrinkage=0.0006


Tree=19
num_leaves=2
num_cat=0
split_feature=16
split_gain=128.369
threshold=1.0000000180025095e-35
decision_type=2
left_child=-1
right_child=-2
leaf_value=0.001500182787607777 -0.00042199278226134288
leaf_count=317 1165
internal_value=0
internal_count=1482
shrinkage=0.0006


Tree=20
num_leaves=2
num_cat=0
split_feature=16
split_gain=128.092
threshold=1.0000000180025095e-35
decision_type=2
left_child=-1
right_child=-2
leaf_value=0.0014972746532419814 -0.0004218992858885826
leaf_count=317 1165
internal_value=0
internal_count=1482
shrinkage=0.0006


Tree=21
num_leaves=2
num_cat=0
split_feature=16
split_gain=127.815
threshold=1.0000000180025095e-35
decision_type=2
left_child=-1
right_child=-2
leaf_value=0.0014943763774962679 -0.00042180580204870895
leaf_count=317 1165
internal_value=0
internal_count=1482
shrinkage=0.0006


Tree=22
num_leaves=2
num_cat=0
split_feature=16
split_gain=127.54
threshold=1.0000000180025095e-35
decision_type=2
left_child=-1
right_child=-2
leaf_value=0.0014914878190966843 -0.00042171228584815355
leaf_count=317 1165
internal_value=0
internal_count=1482
shrinkage=0.0006


Tree=23
num_leaves=2
num_cat=0
split_feature=16
split_gain=127.265
threshold=1.0000000180025095e-35
decision_type=2
left_child=-1
right_child=-2
leaf_value=0.0014886090761460015 -0.00042161874988771579
leaf_count=317 1165
internal_value=0
internal_count=1482
shrinkage=0.0006


Tree=24
num_leaves=2
num_cat=0
split_feature=16
split_gain=126.991
threshold=1.0000000180025095e-35
decision_type=2
left_child=-1
right_child=-2
leaf_value=0.0014857401373766183 -0.00042152524622991435
leaf_count=317 1165
internal_value=0
internal_count=1482
shrinkage=0.0006


Tree=25
num_leaves=2
num_cat=0
split_feature=16
split_gain=126.719
threshold=1.0000000180025095e-35
decision_type=2
left_child=-1
right_child=-2
leaf_value=0.0014828808095012141 -0.00042143169074508277
leaf_count=317 1165
internal_value=0
internal_count=1482
shrinkage=0.0006


Tree=26
num_leaves=2
num_cat=0
split_feature=16
split_gain=126.447
threshold=1.0000000180025095e-35
decision_type=2
left_child=-1
right_child=-2
leaf_value=0.0014800309923310234 -0.00042133816741536873
leaf_count=317 1165
internal_value=0
internal_count=1482
shrinkage=0.0006


Tree=27
num_leaves=2
num_cat=0
split_feature=16
split_gain=126.176
threshold=1.0000000180025095e-35
decision_type=2
left_child=-1
right_child=-2
leaf_value=0.0014771909088946099 -0.00042124462479786805
leaf_count=317 1165
internal_value=0
internal_count=1482
shrinkage=0.0006


Tree=28
num_leaves=2
num_cat=0
split_feature=16
split_gain=125.906
threshold=1.0000000180025095e-35
decision_type=2
left_child=-1
right_child=-2
leaf_value=0.0014743602250457495 -0.00042115104978737445
leaf_count=317 1165
internal_value=0
internal_count=1482
shrinkage=0.0006


Tree=29
num_leaves=2
num_cat=0
split_feature=16
split_gain=125.637
threshold=1.0000000180025095e-35
decision_type=2
left_child=-1
right_child=-2
leaf_value=0.0014715390742513483 -0.00042105750066962812
leaf_count=317 1165
internal_value=0
internal_count=1482
shrinkage=0.0006


Tree=30
num_leaves=2
num_cat=0
split_feature=16
split_gain=125.369
threshold=1.0000000180025095e-35
decision_type=2
left_child=-1
right_child=-2
leaf_value=0.0014687272492848579 -0.00042096393883833281
leaf_count=317 1165
internal_value=0
internal_count=1482
shrinkage=0.0006


Tree=31
num_leaves=2
num_cat=0
split_feature=16
split_gain=125.102
threshold=1.0000000180025095e-35
decision_type=2
left_child=-1
right_child=-2
leaf_value=0.0014659248301387793 -0.00042087035793296755
leaf_count=317 1165
internal_value=0
internal_count=1482
shrinkage=0.0006


Tree=32
num_leaves=2
num_cat=0
split_feature=16
split_gain=124.835
threshold=1.0000000180025095e-35
decision_type=2
left_child=-1
right_child=-2
leaf_value=0.0014631317714152868 -0.00042077677729762181
leaf_count=317 1165
internal_value=0
internal_count=1482
shrinkage=0.0006


Tree=33
num_leaves=2
num_cat=0
split_feature=16
split_gain=124.57
threshold=1.0000000180025095e-35
decision_type=2
left_child=-1
right_child=-2
leaf_value=0.0014603480636081881 -0.00042068316475958524
leaf_count=317 1165
internal_value=0
internal_count=1482
shrinkage=0.0006


Tree=34
num_leaves=2
num_cat=0
split_feature=16
split_gain=124.305
threshold=1.0000000180025095e-35
decision_type=2
left_child=-1
right_child=-2
leaf_value=0.0014575735015103768 -0.00042058957814933279
leaf_count=317 1165
internal_value=0
internal_count=1482
shrinkage=0.0006


Tree=35
num_leaves=2
num_cat=0
split_feature=16
split_gain=124.041
threshold=1.0000000180025095e-35
decision_type=2
left_child=-1
right_child=-2
leaf_value=0.0014548081301208945 -0.00042049595973688361
leaf_count=317 1165
internal_value=0
internal_count=1482
shrinkage=0.0006


Tree=36
num_leaves=2
num_cat=0
split_feature=16
split_gain=123.778
threshold=1.0000000180025095e-35
decision_type=2
left_child=-1
right_child=-2
leaf_value=0.0014520518716302864 -0.00042040234178178609
leaf_count=317 1165
internal_value=0
internal_count=1482
shrinkage=0.0006


Tree=37
num_leaves=2
num_cat=0
split_feature=16
split_gain=123.517
threshold=1.0000000180025095e-35
decision_type=2
left_child=-1
right_child=-2
leaf_value=0.0014493047518274113 -0.00042030874995924454
leaf_count=317 1165
internal_value=0
internal_count=1482
shrinkage=0.0006


Tree=38
num_leaves=2
num_cat=0
split_feature=16
split_gain=123.255
threshold=1.0000000180025095e-35
decision_type=2
left_child=-1
right_child=-2
leaf_value=0.0014465667423080373 -0.00042021511382928989
leaf_count=317 1165
internal_value=0
internal_count=1482
shrinkage=0.0006


Tree=39
num_leaves=2
num_cat=0
split_feature=16
split_gain=122.995
threshold=1.0000000180025095e-35
decision_type=2
left_child=-1
right_child=-2
leaf_value=0.001443837768916082 -0.00042012149095146988
leaf_count=317 1165
internal_value=0
internal_count=1482
shrinkage=0.0006


Tree=40
num_leaves=2
num_cat=0
split_feature=16
split_gain=122.736
threshold=1.0000000180025095e-35
decision_type=2
left_child=-1
right_child=-2
leaf_value=0.0014411175769741891 -0.00042002783647868684
leaf_count=317 1165
internal_value=0
internal_count=1482
shrinkage=0.0006


Tree=41
num_leaves=2
num_cat=0
split_feature=16
split_gain=122.477
threshold=1.0000000180025095e-35
decision_type=2
left_child=-1
right_child=-2
leaf_value=0.0014384063662859709 -0.00041993419573576235
leaf_count=317 1165
internal_value=0
internal_count=1482
shrinkage=0.0006


Tree=42
num_leaves=2
num_cat=0
split_feature=16
split_gain=122.22
threshold=1.0000000180025095e-35
decision_type=2
left_child=-1
right_child=-2
leaf_value=0.0014357040999919072 -0.00041984052349006916
leaf_count=317 1165
internal_value=0
internal_count=1482
shrinkage=0.0006


Tree=43
num_leaves=2
num_cat=0
split_feature=16
split_gain=121.963
threshold=1.0000000180025095e-35
decision_type=2
left_child=-1
right_child=-2
leaf_value=0.0014330105920855479 -0.0004197468647052129
leaf_count=317 1165
internal_value=0
internal_count=1482
shrinkage=0.0006


Tree=44
num_leaves=2
num_cat=0
split_feature=16
split_gain=121.707
threshold=1.0000000180025095e-35
decision_type=2
left_child=-1
right_child=-2
leaf_value=0.0014303258890151858 -0.00041965317449544888
leaf_count=317 1165
internal_value=0
internal_count=1482
shrinkage=0.0006


Tree=45
num_leaves=2
num_cat=0
split_feature=16
split_gain=121.452
threshold=1.0000000180025095e-35
decision_type=2
left_child=-1
right_child=-2
leaf_value=0.001427650019249439 -0.00041955949825428149
leaf_count=317 1165
internal_value=0
internal_count=1482
shrinkage=0.0006


Tree=46
num_leaves=2
num_cat=0
split_feature=16
split_gain=121.197
threshold=1.0000000180025095e-35
decision_type=2
left_child=-1
right_child=-2
leaf_value=0.0014249826819728152 -0.00041946582296177809
leaf_count=317 1165
internal_value=0
internal_count=1482
shrinkage=0.0006


Tree=47
num_leaves=2
num_cat=0
split_feature=16
split_gain=120.944
threshold=1.0000000180025095e-35
decision_type=2
left_child=-1
right_child=-2
leaf_value=0.001422324218661728 -0.00041937212948942222
leaf_count=317 1165
internal_value=0
internal_count=1482
shrinkage=0.0006


Tree=48
num_leaves=2
num_cat=0
split_feature=16
split_gain=120.691
threshold=1.0000000180025095e-35
decision_type=2
left_child=-1
right_child=-2
leaf_value=0.0014196742729173438 -0.00041927840434595074
leaf_count=317 1165
internal_value=0
internal_count=1482
shrinkage=0.0006


Tree=49
num_leaves=2
num_cat=0
split_feature=16
split_gain=120.439
threshold=1.0000000180025095e-35
decision_type=2
left_child=-1
right_child=-2
leaf_value=0.0014170328394829275 -0.00041918472570674244
leaf_count=317 1165
internal_value=0
internal_count=1482
shrinkage=0.0006


Tree=50
num_leaves=2
num_cat=0
split_feature=16
split_gain=120.188
threshold=1.0000000180025095e-35
decision_type=2
left_child=-1
right_child=-2
leaf_value=0.0014144000225937614 -0.0004190909836170969
leaf_count=317 1165
internal_value=0
internal_count=1482
shrinkage=0.0006


Tree=51
num_leaves=2
num_cat=0
split_feature=16
split_gain=119.938
threshold=1.0000000180025095e-35
decision_type=2
left_child=-1
right_child=-2
leaf_value=0.0014117756382523116 -0.00041899728816959279
leaf_count=317 1165
internal_value=0
internal_count=1482
shrinkage=0.0006


Tree=52
num_leaves=2
num_cat=0
split_feature=16
split_gain=119.689
threshold=1.0000000180025095e-35
decision_type=2
left_child=-1
right_child=-2
leaf_value=0.001409159704073826 -0.00041890354849245109
leaf_count=317 1165
internal_value=0
internal_count=1482
shrinkage=0.0006


Tree=53
num_leaves=2
num_cat=0
split_feature=16
split_gain=119.44
threshold=1.0000000180025095e-35
decision_type=2
left_child=-1
right_child=-2
leaf_value=0.0014065522109113712 -0.000418809803667152
leaf_count=317 1165
internal_value=0
internal_count=1482
shrinkage=0.0006


Tree=54
num_leaves=2
num_cat=0
split_feature=16
split_gain=119.192
threshold=1.0000000180025095e-35
decision_type=2
left_child=-1
right_child=-2
leaf_value=0.001403953067165507 -0.00041871610569379879
leaf_count=317 1165
internal_value=0
internal_count=1482
shrinkage=0.0006


Tree=55
num_leaves=2
num_cat=0
split_feature=16
split_gain=118.945
threshold=1.0000000180025095e-35
decision_type=2
left_child=-1
right_child=-2
leaf_value=0.0014013624075351182 -0.00041862233127305863
leaf_count=317 1165
internal_value=0
internal_count=1482
shrinkage=0.0006


Tree=56
num_leaves=2
num_cat=0
split_feature=16
split_gain=118.699
threshold=1.0000000180025095e-35
decision_type=2
left_child=-1
right_child=-2
leaf_value=0.0013987798864851244 -0.00041852860381862871
leaf_count=317 1165
internal_value=0
internal_count=1482
shrinkage=0.0006


Tree=57
num_leaves=2
num_cat=0
split_feature=16
split_gain=118.454
threshold=1.0000000180025095e-35
decision_type=2
left_child=-1
right_child=-2
leaf_value=0.0013962055011605627 -0.0004184348259232061
leaf_count=317 1165
internal_value=0
internal_count=1482
shrinkage=0.0006


Tree=58
num_leaves=2
num_cat=0
split_feature=16
split_gain=118.209
threshold=1.0000000180025095e-35
decision_type=2
left_child=-1
right_child=-2
leaf_value=0.0013936395825614085 -0.00041834103681573148
leaf_count=317 1165
internal_value=0
internal_count=1482
shrinkage=0.0006


Tree=59
num_leaves=2
num_cat=0
split_feature=16
split_gain=117.965
threshold=1.0000000180025095e-35
decision_type=2
left_child=-1
right_child=-2
leaf_value=0.0013910816892829616 -0.00041824726201741353
leaf_count=317 1165
internal_value=0
internal_count=1482
shrinkage=0.0006


Tree=60
num_leaves=2
num_cat=0
split_feature=16
split_gain=117.722
threshold=1.0000000180025095e-35
decision_type=2
left_child=-1
right_child=-2
leaf_value=0.0013885319397039253 -0.00041815346975966367
leaf_count=317 1165
internal_value=0
internal_count=1482
shrinkage=0.0006


Tree=61
num_leaves=2
num_cat=0
split_feature=16
split_gain=117.48
threshold=1.0000000180025095e-35
decision_type=2
left_child=-1
right_child=-2
leaf_value=0.0013859903248377226 -0.00041805967918084143
leaf_count=317 1165
internal_value=0
internal_count=1482
shrinkage=0.0006


Tree=62
num_leaves=2
num_cat=0
split_feature=16
split_gain=117.238
threshold=1.0000000180025095e-35
decision_type=2
left_child=-1
right_child=-2
leaf_value=0.0013834568415565418 -0.0004179658707265338
leaf_count=317 1165
internal_value=0
internal_count=1482
shrinkage=0.0006


Tree=63
num_leaves=2
num_cat=0
split_feature=16
split_gain=116.998
threshold=1.0000000180025095e-35
decision_type=2
left_child=-1
right_child=-2
leaf_value=0.0013809312361220847 -0.0004178720969500062
leaf_count=317 1165
internal_value=0
internal_count=1482
shrinkage=0.0006


Tree=64
num_leaves=2
num_cat=0
split_feature=16
split_gain=116.758
threshold=1.0000000180025095e-35
decision_type=2
left_child=-1
right_child=-2
leaf_value=0.0013784135928207679 -0.00041777825972389977
leaf_count=317 1165
internal_value=0
internal_count=1482
shrinkage=0.0006


Tree=65
num_leaves=2
num_cat=0
split_feature=16
split_gain=116.518
threshold=1.0000000180025095e-35
decision_type=2
left_child=-1
right_child=-2
leaf_value=0.0013759039712339237 -0.00041768443768164704
leaf_count=317 1165
internal_value=0
internal_count=1482
shrinkage=0.0006


Tree=66
num_leaves=2
num_cat=0
split_feature=16
split_gain=116.28
threshold=1.0000000180025095e-35
decision_type=2
left_child=-1
right_child=-2
leaf_value=0.0013734022149159155 -0.00041759059796068343
leaf_count=317 1165
internal_value=0
internal_count=1482
shrinkage=0.0006


Tree=67
num_leaves=2
num_cat=0
split_feature=16
split_gain=116.042
threshold=1.0000000180025095e-35
decision_type=2
left_child=-1
right_child=-2
leaf_value=0.0013709083124889157 -0.00041749679316443257
leaf_count=317 1165
internal_value=0
internal_count=1482
shrinkage=0.0006


Tree=68
num_leaves=2
num_cat=0
split_feature=16
split_gain=115.805
threshold=1.0000000180025095e-35
decision_type=2
left_child=-1
right_child=-2
leaf_value=0.0013684222285991331 -0.00041740292504742119
leaf_count=317 1165
internal_value=0
internal_count=1482
shrinkage=0.0006


Tree=69
num_leaves=2
num_cat=0
split_feature=16
split_gain=115.569
threshold=1.0000000180025095e-35
decision_type=2
left_child=-1
right_child=-2
leaf_value=0.0013659441169871325 -0.00041730907236153998
leaf_count=317 1165
internal_value=0
internal_count=1482
shrinkage=0.0006


Tree=70
num_leaves=2
num_cat=0
split_feature=16
split_gain=115.334
threshold=1.0000000180025095e-35
decision_type=2
left_child=-1
right_child=-2
leaf_value=0.0013634736585494747 -0.00041721522179565337
leaf_count=317 1165
internal_value=0
internal_count=1482
shrinkage=0.0006


Tree=71
num_leaves=2
num_cat=0
split_feature=16
split_gain=115.099
threshold=1.0000000180025095e-35
decision_type=2
left_child=-1
right_child=-2
leaf_value=0.0013610108541699264 -0.00041712134099258145
leaf_count=317 1165
internal_value=0
internal_count=1482
shrinkage=0.0006


Tree=72
num_leaves=2
num_cat=0
split_feature=16
split_gain=114.865
threshold=1.0000000180025095e-35
decision_type=2
left_child=-1
right_child=-2
leaf_value=0.0013585557282768158 -0.00041702750821902577
leaf_count=317 1165
internal_value=0
internal_count=1482
shrinkage=0.0006


Tree=73
num_leaves=2
num_cat=0
split_feature=16
split_gain=114.632
threshold=1.0000000180025095e-35
decision_type=2
left_child=-1
right_child=-2
leaf_value=0.0013561082549718025 -0.00041693357987088739
leaf_count=317 1165
internal_value=0
internal_count=1482
shrinkage=0.0006


Tree=74
num_leaves=2
num_cat=0
split_feature=16
split_gain=114.399
threshold=1.0000000180025095e-35
decision_type=2
left_child=-1
right_child=-2
leaf_value=0.0013536684762227628 -0.00041683969966944717
leaf_count=317 1165
internal_value=0
internal_count=1482
shrinkage=0.0006


Tree=75
num_leaves=2
num_cat=0
split_feature=16
split_gain=114.167
threshold=1.0000000180025095e-35
decision_type=2
left_child=-1
right_child=-2
leaf_value=0.0013512362473968931 -0.00041674583528998024
leaf_count=317 1165
internal_value=0
internal_count=1482
shrinkage=0.0006


Tree=76
num_leaves=2
num_cat=0
split_feature=16
split_gain=113.936
threshold=1.0000000180025095e-35
decision_type=2
left_child=-1
right_child=-2
leaf_value=0.0013488115602811432 -0.00041665192745225419
leaf_count=317 1165
internal_value=0
internal_count=1482
shrinkage=0.0006


Tree=77
num_leaves=2
num_cat=0
split_feature=16
split_gain=113.706
threshold=1.0000000180025095e-35
decision_type=2
left_child=-1
right_child=-2
leaf_value=0.0013463943477011124 -0.00041655800246326834
leaf_count=317 1165
internal_value=0
internal_count=1482
shrinkage=0.0006


Tree=78
num_leaves=2
num_cat=0
split_feature=16
split_gain=113.476
threshold=1.0000000180025095e-35
decision_type=2
left_child=-1
right_child=-2
leaf_value=0.0013439846176778387 -0.00041646408062694323
leaf_count=317 1165
internal_value=0
internal_count=1482
shrinkage=0.0006


Tree=79
num_leaves=2
num_cat=0
split_feature=16
split_gain=113.247
threshold=1.0000000180025095e-35
decision_type=2
left_child=-1
right_child=-2
leaf_value=0.0013415822956504549 -0.00041637017418980115
leaf_count=317 1165
internal_value=0
internal_count=1482
shrinkage=0.0006


Tree=80
num_leaves=2
num_cat=0
split_feature=16
split_gain=113.019
threshold=1.0000000180025095e-35
decision_type=2
left_child=-1
right_child=-2
leaf_value=0.0013391874160177326 -0.00041627623792019606
leaf_count=317 1165
internal_value=0
internal_count=1482
shrinkage=0.0006


Tree=81
num_leaves=2
num_cat=0
split_feature=16
split_gain=112.792
threshold=1.0000000180025095e-35
decision_type=2
left_child=-1
right_child=-2
leaf_value=0.0013367999700055989 -0.00041618233068299837
leaf_count=317 1165
internal_value=0
internal_count=1482
shrinkage=0.0006


Tree=82
num_leaves=2
num_cat=0
split_feature=16
split_gain=112.565
threshold=1.0000000180025095e-35
decision_type=2
left_child=-1
right_child=-2
leaf_value=0.0013344197495894986 -0.00041608836732429918
leaf_count=317 1165
internal_value=0
internal_count=1482
shrinkage=0.0006


Tree=83
num_leaves=2
num_cat=0
split_feature=16
split_gain=112.339
threshold=1.0000000180025095e-35
decision_type=2
left_child=-1
right_child=-2
leaf_value=0.0013320468067984047 -0.00041599443311674455
leaf_count=317 1165
internal_value=0
internal_count=1482
shrinkage=0.0006


Tree=84
num_leaves=2
num_cat=0
split_feature=16
split_gain=112.113
threshold=1.0000000180025095e-35
decision_type=2
left_child=-1
right_child=-2
leaf_value=0.0013296812667896076 -0.00041590046926050488
leaf_count=317 1165
internal_value=0
internal_count=1482
shrinkage=0.0006


Tree=85
num_leaves=2
num_cat=0
split_feature=16
split_gain=111.889
threshold=1.0000000180025095e-35
decision_type=2
left_child=-1
right_child=-2
leaf_value=0.0013273229399323435 -0.0004158064757883214
leaf_count=317 1165
internal_value=0
internal_count=1482
shrinkage=0.0006


Tree=86
num_leaves=2
num_cat=0
split_feature=16
split_gain=111.665
threshold=1.0000000180025095e-35
decision_type=2
left_child=-1
right_child=-2
leaf_value=0.0013249717110077411 -0.00041571253127662485
leaf_count=317 1165
internal_value=0
internal_count=1482
shrinkage=0.0006


Tree=87
num_leaves=2
num_cat=0
split_feature=16
split_gain=111.441
threshold=1.0000000180025095e-35
decision_type=2
left_child=-1
right_child=-2
leaf_value=0.0013226276657070657 -0.00041561854365435654
leaf_count=317 1165
internal_value=0
internal_count=1482
shrinkage=0.0006


Tree=88
num_leaves=2
num_cat=0
split_feature=16
split_gain=111.219
threshold=1.0000000180025095e-35
decision_type=2
left_child=-1
right_child=-2
leaf_value=0.0013202908286579253 -0.00041552455303543284
leaf_count=317 1165
internal_value=0
internal_count=1482
shrinkage=0.0006


Tree=89
num_leaves=2
num_cat=0
split_feature=16
split_gain=110.997
threshold=1.0000000180025095e-35
decision_type=2
left_child=-1
right_child=-2
leaf_value=0.0013179610289448451 -0.00041543056547628537
leaf_count=317 1165
internal_value=0
internal_count=1482
shrinkage=0.0006


Tree=90
num_leaves=2
num_cat=0
split_feature=16
split_gain=110.775
threshold=1.0000000180025095e-35
decision_type=2
left_child=-1
right_child=-2
leaf_value=0.0013156384023213781 -0.00041533658102446794
leaf_count=317 1165
internal_value=0
internal_count=1482
shrinkage=0.0006


Tree=91
num_leaves=2
num_cat=0
split_feature=16
split_gain=110.555
threshold=1.0000000180025095e-35
decision_type=2
left_child=-1
right_child=-2
leaf_value=0.0013133227182923876 -0.00041524258088204133
leaf_count=317 1165
internal_value=0
internal_count=1482
shrinkage=0.0006


Tree=92
num_leaves=2
num_cat=0
split_feature=16
split_gain=110.335
threshold=1.0000000180025095e-35
decision_type=2
left_child=-1
right_child=-2
leaf_value=0.0013110139135291186 -0.00041514855069011244
leaf_count=317 1165
internal_value=0
internal_count=1482
shrinkage=0.0006


Tree=93
num_leaves=2
num_cat=0
split_feature=16
split_gain=110.116
threshold=1.0000000180025095e-35
decision_type=2
left_child=-1
right_child=-2
leaf_value=0.0013087123111397265 -0.00041505455701901629
leaf_count=317 1165
internal_value=0
internal_count=1482
shrinkage=0.0006


Tree=94
num_leaves=2
num_cat=0
split_feature=16
split_gain=109.897
threshold=1.0000000180025095e-35
decision_type=2
left_child=-1
right_child=-2
leaf_value=0.0013064175602462778 -0.00041496051454669
leaf_count=317 1165
internal_value=0
internal_count=1482
shrinkage=0.0006


Tree=95
num_leaves=2
num_cat=0
split_feature=16
split_gain=109.679
threshold=1.0000000180025095e-35
decision_type=2
left_child=-1
right_child=-2
leaf_value=0.0013041297468995188 -0.00041486647542644269
leaf_count=317 1165
internal_value=0
internal_count=1482
shrinkage=0.0006


Tree=96
num_leaves=2
num_cat=0
split_feature=16
split_gain=109.462
threshold=1.0000000180025095e-35
decision_type=2
left_child=-1
right_child=-2
leaf_value=0.0013018487255780651 -0.00041477245262932101
leaf_count=317 1165
internal_value=0
internal_count=1482
shrinkage=0.0006


Tree=97
num_leaves=2
num_cat=0
split_feature=16
split_gain=109.245
threshold=1.0000000180025095e-35
decision_type=2
left_child=-1
right_child=-2
leaf_value=0.001299574664964996 -0.00041467840156280279
leaf_count=317 1165
internal_value=0
internal_count=1482
shrinkage=0.0006


Tree=98
num_leaves=2
num_cat=0
split_feature=16
split_gain=109.029
threshold=1.0000000180025095e-35
decision_type=2
left_child=-1
right_child=-2
leaf_value=0.001297307424090157 -0.0004145843206659459
leaf_count=317 1165
internal_value=0
internal_count=1482
shrinkage=0.0006


Tree=99
num_leaves=2
num_cat=0
split_feature=16
split_gain=108.814
threshold=1.0000000180025095e-35
decision_type=2
left_child=-1
right_child=-2
leaf_value=0.0012950468826960263 -0.0004144902895962728
leaf_count=317 1165
internal_value=0
internal_count=1482
shrinkage=0.0006


Tree=100
num_leaves=2
num_cat=0
split_feature=18
split_gain=108.608
threshold=1.0000000180025095e-35
decision_type=2
left_child=-1
right_child=-2
leaf_value=0.0016395627439240578 -0.00032678040421266235
leaf_count=227 1255
internal_value=0
internal_count=1482
shrinkage=0.0006


Tree=101
num_leaves=2
num_cat=0
split_feature=16
split_gain=108.488
threshold=1.0000000180025095e-35
decision_type=2
left_child=-1
right_child=-2
leaf_value=0.0012916243177854162 -0.00041434733731259395
leaf_count=317 1165
internal_value=0
internal_count=1482
shrinkage=0.0006


Tree=102
num_leaves=2
num_cat=0
split_feature=16
split_gain=108.274
threshold=1.0000000180025095e-35
decision_type=2
left_child=-1
right_child=-2
leaf_value=0.0012893807870178956 -0.0004142532290940944
leaf_count=317 1165
internal_value=0
internal_count=1482
shrinkage=0.0006


Tree=103
num_leaves=2
num_cat=0
split_feature=18
split_gain=108.087
threshold=1.0000000180025095e-35
decision_type=2
left_child=-1
right_child=-2
leaf_value=0.001632735444192363 -0.0003265785782446007
leaf_count=227 1255
internal_value=0
internal_count=1482
shrinkage=0.0006


Tree=104
num_leaves=2
num_cat=0
split_feature=16
split_gain=107.951
threshold=1.0000000180025095e-35
decision_type=2
left_child=-1
right_child=-2
leaf_value=0.0012859833008747553 -0.00041411025294881004
leaf_count=317 1165
internal_value=0
internal_count=1482
shrinkage=0.0006


Tree=105
num_leaves=2
num_cat=0
split_feature=16
split_gain=107.739
threshold=1.0000000180025095e-35
decision_type=2
left_child=-1
right_child=-2
leaf_value=0.001283756556758721 -0.00041401618865491278
leaf_count=317 1165
internal_value=0
internal_count=1482
shrinkage=0.0006


Tree=106
num_leaves=2
num_cat=0
split_feature=18
split_gain=107.57
threshold=1.0000000180025095e-35
decision_type=2
left_child=-1
right_child=-2
leaf_value=0.0016259573280931654 -0.00032637675595204035
leaf_count=227 1255
internal_value=0
internal_count=1482
shrinkage=0.0006


Tree=107
num_leaves=2
num_cat=0
split_feature=16
split_gain=107.417
threshold=1.0000000180025095e-35
decision_type=2
left_child=-1
right_child=-2
leaf_value=0.0012803838698074749 -0.00041387313565115495
leaf_count=317 1165
internal_value=0
internal_count=1482
shrinkage=0.0006


Tree=108
num_leaves=2
num_cat=0
split_feature=16
split_gain=107.207
threshold=1.0000000180025095e-35
decision_type=2
left_child=-1
right_child=-2
leaf_value=0.0012781736868518873 -0.00041377900168769103
leaf_count=317 1165
internal_value=0
internal_count=1482
shrinkage=0.0006


Tree=109
num_leaves=2
num_cat=0
split_feature=18
split_gain=107.057
threshold=1.0000000180025095e-35
decision_type=2
left_child=-1
right_child=-2
leaf_value=0.0016192280337614085 -0.00032617498145248432
leaf_count=227 1255
internal_value=0
internal_count=1482
shrinkage=0.0006


Tree=110
num_leaves=2
num_cat=0
split_feature=16
split_gain=106.888
threshold=1.0000000180025095e-35
decision_type=2
left_child=-1
right_child=-2
leaf_value=0.0012748255261670102 -0.00041363595447349013
leaf_count=317 1165
internal_value=0
internal_count=1482
shrinkage=0.0006


Tree=111
num_leaves=2
num_cat=0
split_feature=16
split_gain=106.679
threshold=1.0000000180025095e-35
decision_type=2
left_child=-1
right_child=-2
leaf_value=0.0012726318019230885 -0.0004135418317941447
leaf_count=317 1165
internal_value=0
internal_count=1482
shrinkage=0.0006


Tree=112
num_leaves=2
num_cat=0
split_feature=18
split_gain=106.547
threshold=1.0000000180025095e-35
decision_type=2
left_child=-1
right_child=-2
leaf_value=0.0016125469242636399 -0.00032597316490568651
leaf_count=227 1255
internal_value=0
internal_count=1482
shrinkage=0.0006


Tree=113
num_leaves=2
num_cat=0
split_feature=16
split_gain=106.363
threshold=1.0000000180025095e-35
decision_type=2
left_child=-1
right_child=-2
leaf_value=0.0012693078179321095 -0.00041339867280782404
leaf_count=317 1165
internal_value=0
internal_count=1482
shrinkage=0.0006


Tree=114
num_leaves=2
num_cat=0
split_feature=18
split_gain=106.17
threshold=1.0000000180025095e-35
decision_type=2
left_child=-1
right_child=-2
leaf_value=0.0016075957758094005 -0.00032582217966496652
leaf_count=227 1255
internal_value=0
internal_count=1482
shrinkage=0.0006


Tree=115
num_leaves=2
num_cat=0
split_feature=16
split_gain=106.048
threshold=1.0000000180025095e-35
decision_type=2
left_child=-1
right_child=-2
leaf_value=0.0012659987505723792 -0.00041325552739468203
leaf_count=317 1165
internal_value=0
internal_count=1482
shrinkage=0.0006


Tree=116
num_leaves=2
num_cat=0
split_feature=16
split_gain=105.841
threshold=1.0000000180025095e-35
decision_type=2
left_child=-1
right_child=-2
leaf_value=0.0012638309299205358 -0.0004131613451771327
leaf_count=317 1165
internal_value=0
internal_count=1482
shrinkage=0.0006


Tree=117
num_leaves=2
num_cat=0
split_feature=18
split_gain=105.667
threshold=1.0000000180025095e-35
decision_type=2
left_child=-1
right_child=-2
leaf_value=0.0016009963360247427 -0.00032562038117996968
leaf_count=227 1255
internal_value=0
internal_count=1482
shrinkage=0.0006


Tree=118
num_leaves=2
num_cat=0
split_feature=16
split_gain=105.528
threshold=1.0000000180025095e-35
decision_type=2
left_child=-1
right_child=-2
leaf_value=0.0012605456423776472 -0.00041301817721096364
leaf_count=317 1165
internal_value=0
internal_count=1482
shrinkage=0.0006


Tree=119
num_leaves=2
num_cat=0
split_feature=16
split_gain=105.323
threshold=1.0000000180025095e-35
decision_type=2
left_child=-1
right_child=-2
leaf_value=0.0012583938322897079 -0.00041292396307430123
leaf_count=317 1165
internal_value=0
internal_count=1482
shrinkage=0.0006


Tree=120
num_leaves=2
num_cat=0
split_feature=18
split_gain=105.167
threshold=1.0000000180025095e-35
decision_type=2
left_child=-1
right_child=-2
leaf_value=0.0015944435248959666 -0.00032541856275322705
leaf_count=227 1255
internal_value=0
internal_count=1482
shrinkage=0.0006


Tree=121
num_leaves=2
num_cat=0
split_feature=16
split_gain=105.013
threshold=1.0000000180025095e-35
decision_type=2
left_child=-1
right_child=-2
leaf_value=0.0012551321465721283 -0.00041278075899578242
leaf_count=317 1165
internal_value=0
internal_count=1482
shrinkage=0.0006


Tree=122
num_leaves=2
num_cat=0
split_feature=16
split_gain=104.81
threshold=1.0000000180025095e-35
decision_type=2
left_child=-1
right_child=-2
leaf_value=0.0012529960708718391 -0.0004126865598324064
leaf_count=317 1165
internal_value=0
internal_count=1482
shrinkage=0.0006


Tree=123
num_leaves=2
num_cat=0
split_feature=18
split_gain=104.671
threshold=1.0000000180025095e-35
decision_type=2
left_child=-1
right_child=-2
leaf_value=0.001587937273082191 -0.00032521678975590322
leaf_count=227 1255
internal_value=0
internal_count=1482
shrinkage=0.0006


Tree=124
num_leaves=2
num_cat=0
split_feature=16
split_gain=104.501
threshold=1.0000000180025095e-35
decision_type=2
left_child=-1
right_child=-2
leaf_value=0.0012497576963177673 -0.00041254327686281091
leaf_count=317 1165
internal_value=0
internal_count=1482
shrinkage=0.0006


Tree=125
num_leaves=2
num_cat=0
split_feature=18
split_gain=104.304
threshold=1.0000000180025095e-35
decision_type=2
left_child=-1
right_child=-2
leaf_value=0.0015831167920370712 -0.00032506581016643273
leaf_count=227 1255
internal_value=0
internal_count=1482
shrinkage=0.0006


Tree=126
num_leaves=2
num_cat=0
split_feature=16
split_gain=104.194
threshold=1.0000000180025095e-35
decision_type=2
left_child=-1
right_child=-2
leaf_value=0.0012465336562519104 -0.00041239994980789312
leaf_count=317 1165
internal_value=0
internal_count=1482
shrinkage=0.0006


Tree=127
num_leaves=2
num_cat=0
split_feature=16
split_gain=103.993
threshold=1.0000000180025095e-35
decision_type=2
left_child=-1
right_child=-2
leaf_value=0.0012444225578397022 -0.00041230571909150164
leaf_count=317 1165
internal_value=0
internal_count=1482
shrinkage=0.0006


Tree=128
num_leaves=2
num_cat=0
split_feature=18
split_gain=103.814
threshold=1.0000000180025095e-35
decision_type=2
left_child=-1
right_child=-2
leaf_value=0.0015766889927298034 -0.00032486400119791418
leaf_count=227 1255
internal_value=0
internal_count=1482
shrinkage=0.0006


Tree=129
num_leaves=2
num_cat=0
split_feature=16
split_gain=103.689
threshold=1.0000000180025095e-35
decision_type=2
left_child=-1
right_child=-2
leaf_value=0.0012412215048497335 -0.00041216236002070069
leaf_count=317 1165
internal_value=0
internal_count=1482
shrinkage=0.0006


Tree=130
num_leaves=2
num_cat=0
split_feature=16
split_gain=103.489
threshold=1.0000000180025095e-35
decision_type=2
left_child=-1
right_child=-2
leaf_value=0.0012391256595476491 -0.00041206813473642961
leaf_count=317 1165
internal_value=0
internal_count=1482
shrinkage=0.0006


Tree=131
num_leaves=2
num_cat=0
split_feature=18
split_gain=103.327
threshold=1.0000000180025095e-35
decision_type=2
left_child=-1
right_child=-2
leaf_value=0.0015703062781483926 -0.00032466219824272516
leaf_count=227 1255
internal_value=0
internal_count=1482
shrinkage=0.0006


Tree=132
num_leaves=2
num_cat=0
split_feature=16
split_gain=103.186
threshold=1.0000000180025095e-35
decision_type=2
left_child=-1
right_child=-2
leaf_value=0.0012359472117581803 -0.00041192475044661618
leaf_count=317 1165
internal_value=0
internal_count=1482
shrinkage=0.0006


Tree=133
num_leaves=2
num_cat=0
split_feature=16
split_gain=102.988
threshold=1.0000000180025095e-35
decision_type=2
left_child=-1
right_child=-2
leaf_value=0.0012338666427157085 -0.00041183044246399201
leaf_count=317 1165
internal_value=0
internal_count=1482
shrinkage=0.0006


Tree=134
num_leaves=2
num_cat=0
split_feature=18
split_gain=102.845
threshold=1.0000000180025095e-35
decision_type=2
left_child=-1
right_child=-2
leaf_value=0.0015639683258800794 -0.00032446042238193774
leaf_count=227 1255
internal_value=0
internal_count=1482
shrinkage=0.0006


Tree=135
num_leaves=2
num_cat=0
split_feature=16
split_gain=102.688
threshold=1.0000000180025095e-35
decision_type=2
left_child=-1
right_child=-2
leaf_value=0.0012307106965401655 -0.00041168699676104374
leaf_count=317 1165
internal_value=0
internal_count=1482
shrinkage=0.0006


Tree=136
num_leaves=2
num_cat=0
split_feature=16
split_gain=102.491
threshold=1.0000000180025095e-35
decision_type=2
left_child=-1
right_child=-2
leaf_value=0.0012286450243946213 -0.00041159271321771949
leaf_count=317 1165
internal_value=0
internal_count=1482
shrinkage=0.0006


Tree=137
num_leaves=2
num_cat=0
split_feature=18
split_gain=102.365
threshold=1.0000000180025095e-35
decision_type=2
left_child=-1
right_child=-2
leaf_value=0.0015576745664148926 -0.00032425868126054555
leaf_count=227 1255
internal_value=0
internal_count=1482
shrinkage=0.0006


Tree=138
num_leaves=2
num_cat=0
split_feature=16
split_gain=102.193
threshold=1.0000000180025095e-35
decision_type=2
left_child=-1
right_child=-2
leaf_value=0.001225511397614369 -0.00041144922497900595
leaf_count=317 1165
internal_value=0
internal_count=1482
shrinkage=0.0006


Tree=139
num_leaves=2
num_cat=0
split_feature=18
split_gain=102.01
threshold=1.0000000180025095e-35
decision_type=2
left_child=-1
right_child=-2
leaf_value=0.0015530124366836524 -0.0003241077093346067
leaf_count=227 1255
internal_value=0
internal_count=1482
shrinkage=0.0006


Tree=140
num_leaves=2
num_cat=0
split_feature=16
split_gain=101.896
threshold=1.0000000180025095e-35
decision_type=2
left_child=-1
right_child=-2
leaf_value=0.0012223912389056487 -0.00041130571821739847
leaf_count=317 1165
internal_value=0
internal_count=1482
shrinkage=0.0006


Tree=141
num_leaves=2
num_cat=0
split_feature=16
split_gain=101.702
threshold=1.0000000180025095e-35
decision_type=2
left_child=-1
right_child=-2
leaf_value=0.0012203493889189673 -0.00041121142830505053
leaf_count=317 1165
internal_value=0
internal_count=1482
shrinkage=0.0006


Tree=142
num_leaves=2
num_cat=0
split_feature=18
split_gain=101.536
threshold=1.0000000180025095e-35
decision_type=2
left_child=-1
right_child=-2
leaf_value=0.0015467934386848299 -0.00032390591309035217
leaf_count=227 1255
internal_value=0
internal_count=1482
shrinkage=0.0006


Tree=143
num_leaves=2
num_cat=0
split_feature=16
split_gain=101.407
threshold=1.0000000180025095e-35
decision_type=2
left_child=-1
right_child=-2
leaf_value=0.0012172511090478182 -0.00041106784691895168
leaf_count=317 1165
internal_value=0
internal_count=1482
shrinkage=0.0006


Tree=144
num_leaves=2
num_cat=0
split_feature=16
split_gain=101.214
threshold=1.0000000180025095e-35
decision_type=2
left_child=-1
right_child=-2
leaf_value=0.0012152238116628 -0.00041097353006913238
leaf_count=317 1165
internal_value=0
internal_count=1482
shrinkage=0.0006


Tree=145
num_leaves=2
num_cat=0
split_feature=18
split_gain=101.065
threshold=1.0000000180025095e-35
decision_type=2
left_child=-1
right_child=-2
leaf_value=0.0015406174137522451 -0.00032370413995672906
leaf_count=227 1255
internal_value=0
internal_count=1482
shrinkage=0.0006


Tree=146
num_leaves=2
num_cat=0
split_feature=16
split_gain=100.921
threshold=1.0000000180025095e-35
decision_type=2
left_child=-1
right_child=-2
leaf_value=0.0012121472223356738 -0.00041082992013523095
leaf_count=317 1165
internal_value=0
internal_count=1482
shrinkage=0.0006


Tree=147
num_leaves=2
num_cat=0
split_feature=16
split_gain=100.73
threshold=1.0000000180025095e-35
decision_type=2
left_child=-1
right_child=-2
leaf_value=0.0012101343503998034 -0.00041073559437560138
leaf_count=317 1165
internal_value=0
internal_count=1482
shrinkage=0.0006


Tree=148
num_leaves=2
num_cat=0
split_feature=18
split_gain=100.598
threshold=1.0000000180025095e-35
decision_type=2
left_child=-1
right_child=-2
leaf_value=0.0015344839250924624 -0.00032350236030738048
leaf_count=227 1255
internal_value=0
internal_count=1482
shrinkage=0.0006


Tree=149
num_leaves=2
num_cat=0
split_feature=16
split_gain=100.439
threshold=1.0000000180025095e-35
decision_type=2
left_child=-1
right_child=-2
leaf_value=0.0012070792127623674 -0.00041059192353783331
leaf_count=317 1165
internal_value=0
internal_count=1482
shrinkage=0.0006


Tree=150
num_leaves=2
num_cat=0
split_feature=18
split_gain=100.252
threshold=1.0000000180025095e-35
decision_type=2
left_child=-1
right_child=-2
leaf_value=0.0015299414648042525 -0.00032335144224787129
leaf_count=227 1255
internal_value=0
internal_count=1482
shrinkage=0.0006


Tree=151
num_leaves=2
num_cat=0
split_feature=16
split_gain=100.149
threshold=1.0000000180025095e-35
decision_type=2
left_child=-1
right_child=-2
leaf_value=0.0012040370744234004 -0.00041044826051986019
leaf_count=317 1165
internal_value=0
internal_count=1482
shrinkage=0.0006


Tree=152
num_leaves=2
num_cat=0
split_feature=16
split_gain=99.9601
threshold=1.0000000180025095e-35
decision_type=2
left_child=-1
right_child=-2
leaf_value=0.001202047017380343 -0.00041035386090805965
leaf_count=317 1165
internal_value=0
internal_count=1482
shrinkage=0.0006


Tree=153
num_leaves=2
num_cat=0
split_feature=18
split_gain=99.7906
threshold=1.0000000180025095e-35
decision_type=2
left_child=-1
right_child=-2
leaf_value=0.0015238799168215129 -0.00032314962330657856
leaf_count=227 1255
internal_value=0
internal_count=1482
shrinkage=0.0006


Tree=154
num_leaves=2
num_cat=0
split_feature=16
split_gain=99.6727
threshold=1.0000000180025095e-35
decision_type=2
left_child=-1
right_child=-2
leaf_value=0.0011990260486939113 -0.00041021016663917343
leaf_count=317 1165
internal_value=0
internal_count=1482
shrinkage=0.0006


Tree=155
num_leaves=2
num_cat=0
split_feature=16
split_gain=99.4847
threshold=1.0000000180025095e-35
decision_type=2
left_child=-1
right_child=-2
leaf_value=0.0011970501327572144 -0.00041011579084395549
leaf_count=317 1165
internal_value=0
internal_count=1482
shrinkage=0.0006


Tree=156
num_leaves=2
num_cat=0
split_feature=18
split_gain=99.3321
threshold=1.0000000180025095e-35
decision_type=2
left_child=-1
right_child=-2
leaf_value=0.0015178598066062808 -0.00032294785336155186
leaf_count=227 1255
internal_value=0
internal_count=1482
shrinkage=0.0006


Tree=157
num_leaves=2
num_cat=0
split_feature=16
split_gain=99.1992
threshold=1.0000000180025095e-35
decision_type=2
left_child=-1
right_child=-2
leaf_value=0.0011940499288580827 -0.00040997202683930425
leaf_count=317 1165
internal_value=0
internal_count=1482
shrinkage=0.0006


Tree=158
num_leaves=2
num_cat=0
split_feature=16
split_gain=99.0126
threshold=1.0000000180025095e-35
decision_type=2
left_child=-1
right_child=-2
leaf_value=0.0011920878769603911 -0.00040987760975165716
leaf_count=317 1165
internal_value=0
internal_count=1482
shrinkage=0.0006


Tree=159
num_leaves=2
num_cat=0
split_feature=18
split_gain=98.8768
threshold=1.0000000180025095e-35
decision_type=2
left_child=-1
right_child=-2
leaf_value=0.0015118808513916052 -0.00032274613989380206
leaf_count=227 1255
internal_value=0
internal_count=1482
shrinkage=0.0006


Tree=160
num_leaves=2
num_cat=0
split_feature=16
split_gain=98.7291
threshold=1.0000000180025095e-35
decision_type=2
left_child=-1
right_child=-2
leaf_value=0.0011891083336174448 -0.00040973383089656972
leaf_count=317 1165
internal_value=0
internal_count=1482
shrinkage=0.0006


Tree=161
num_leaves=2
num_cat=0
split_feature=16
split_gain=98.5437
threshold=1.0000000180025095e-35
decision_type=2
left_child=-1
right_child=-2
leaf_value=0.0011871600139878413 -0.00040963938852232596
leaf_count=317 1165
internal_value=0
internal_count=1482
shrinkage=0.0006


Tree=162
num_leaves=2
num_cat=0
split_feature=18
split_gain=98.4246
threshold=1.0000000180025095e-35
decision_type=2
left_child=-1
right_child=-2
leaf_value=0.0015059424607414688 -0.00032254437516369554
leaf_count=227 1255
internal_value=0
internal_count=1482
shrinkage=0.0006


Tree=163
num_leaves=2
num_cat=0
split_feature=16
split_gain=98.2622
threshold=1.0000000180025095e-35
decision_type=2
left_child=-1
right_child=-2
leaf_value=0.0011842009341122123 -0.00040949554133893847
leaf_count=317 1165
internal_value=0
internal_count=1482
shrinkage=0.0006


Tree=164
num_leaves=2
num_cat=0
split_feature=18
split_gain=98.0899
threshold=1.0000000180025095e-35
decision_type=2
left_child=-1
right_child=-2
leaf_value=0.001501545248953666 -0.00032239348482613597
leaf_count=227 1255
internal_value=0
internal_count=1482
shrinkage=0.0006


Tree=165
num_leaves=2
num_cat=0
split_feature=16
split_gain=97.9819
threshold=1.0000000180025095e-35
decision_type=2
left_child=-1
right_child=-2
leaf_value=0.0011812542454526446 -0.00040935165477262682
leaf_count=317 1165
internal_value=0
internal_count=1482
shrinkage=0.0006


Tree=166
num_leaves=2
num_cat=0
split_feature=16
split_gain=97.7987
threshold=1.0000000180025095e-35
decision_type=2
left_child=-1
right_child=-2
leaf_value=0.0011793277380396589 -0.00040925722067235615
leaf_count=317 1165
internal_value=0
internal_count=1482
shrinkage=0.0006


Tree=167
num_leaves=2
num_cat=0
split_feature=18
split_gain=97.6431
threshold=1.0000000180025095e-35
decision_type=2
