tree
version=v2
num_class=1
num_tree_per_iteration=1
label_index=0
max_feature_idx=13
objective=binary sigmoid:1
feature_names=PCScreening_Major_last_5_checklists PCRelationship_Major_last_5_checklists DRDocumentation_standard_Minor_last_10_checklists TLAssignedName_Skrzynecki__P___Piotr_ DRClient_Outreach_Critical_last_10_checklists DRClient_Outreach_Major_last_5_checklists DRClient_Outreach_Major_last_10_checklists ProjectExperience PCDocumentation_standard_Minor_last_5_checklists PCScreening_Major_last_10_checklists TeamExperience PCDocumentation_standard_Major_last_10_checklists PCDocumentation_standard_Minor_last_10_checklists PCDocumentation_standard_Major_last_5_checklists
feature_infos=[-0.834630980365203:4.1223560267121693] [-0.38480189026421102:12.509021448127301] [-0.65710273760035498:5.4950640134774007] [0:1] [-0.18643628896481498:5.3608073908899296] [-0.77449706568511711:5.1401404134950592] [-0.99452560359753595:5.0763173466138802] [-1.37744542758453:2.70499138557311] [-0.89474259576979009:6.4203826804561999] [-1.0382072079275999:4.6873548249884598] [-1.17208852408901:2.98242113525315] [-0.67005078998210499:6.426329567815241] [-1.12677371210425:5.2442365292328708] [-0.52574784907408401:6.1941982500066404]
tree_sizes=263 275 275 275 275 275 274 275 275 275 276 275 276 276 274 275 276 275 276 276 276 276 276 275 276 275 276 276 276 275 276 276 276 276 276 276 276 274 275 276 276 276 276 276 276 276 276 276 276 276 276 276 276 276 276 275 275 276 275 276 276 276 276 275 276 275 276 276 276 276 276 276 275 275 276 276 276 276 274 276 276 276 275 275 276 276 276 276 275 276 276 275 276 276 276 276 276 276 276 276 277 277 277 277 277 276 277 277 277 276 277 277 277 277 277 276 277 275 277 277 277 277 275 277 276 277 276 277 277 276 277 275 277 277 277 276 277 276 277 277 277 277 276 277 277 276 277 277 276 274 277 277 276 277 277 277 277 277 276 277 277 277 277 277 277 276 276 277 277 277 277 276 275 277 275 276 277 277 276 277 277 277 277 277 277 277 277 277 277 277 277 277 276 277 277 277 277 277 277 277 277 277 277 276 276 277 277 277 276 277 277 277 277 277 276 277 277 277 276 277 277 277 277 277 277 277 276 277 277 277 277 277 277 277 277 277 275 277 277 277 277 277 277 277 277 277 276 276 277 277 277 276 277 276 277 276 277 277 277 277 277 277 277 277 276 277 277 276 277 277 277 276 276 277 276 277 276 277 276 277 276 274 277 276 276 277 277 276 277 276 277 277 276 276 277 277 277 277 273 276 277 275 277 277 276 277 277 277 277 277 277 276 277 277 277 277 276 277 276 277 277 277 277 277 277 277 275 274 276 277 276 277 277 274 277 277 277 276 276 277 277 277 277 277 277 275 276 277 277 274 277 276 276 276 276 276 277 277 277 275 277 275 276 277 276 276 276 275 277 276 277 277 277 277 277 277 277 277 277 277 277 277 276 277 277 277 277 276 276 277 277 277 276 277 277 277 277 277 277 277 276 277 277 277 277 277 277 277 277 276 277 277 277 276 277 277 277 275 277 277 277 277 276 277 277 277 275 277 276 277 277 277 276 277 277 277 277 276 276 277 276 276 277 274 277 277 275 277 277 277 277 277 275 277 277 277 276 277 277 277 277 276 277 277 277 277 277 277 275 275 277 277 277 277 277 277 277 276 276 277 276 276 277 275 277 277 277 277 277 277 277 277 277 277 277 277 277 277 277 277 277 277 277 276 277 277 277 276 277 277 275 275 277 277 277 277 276 277 277 277 277 276 276 277 277 277 277 277 276 276 276 277 276 277 277 276 276 277 277 277 277 277 277 277 277 277 277 275 277 277 274 277 277 277 277 277 277 277 277 277 277 277 276 276 275 276 277 276 277 277 277 277 277 277 276 276 278 277 277 277 276 278 277 278 277 277 277 277 277 278 277 278 277 277 278 277 278 275 276 278 277 278 277 277 278 277 278 276 277 278 277 277 278 277 278 277 277 277 277 278 277 275 278 277 278 277 277 276 276 278 277 277 278 277 277 278 277 276 277 277 278 277 278 279 277 276 279 278 277 278 278 277 279 277 277 279 276 278 279 277 278 277 277 279 277 278 277 279 278 277 278 277 279 278 277 279 277 276 279 277 278 279 277 278 279 277 276 279 278 276 279 278 277 279 278 277 279 277 278 279 277 279 278 277 279 277 278 276 279 278 277 278 276 278 279 277 279 278 276 279 276 278 278 277 278 279 276 277 277 277 277 279 278 276 279 276 276 279 276 278 278 277 278 279 277 279 276 278 277 279 278 277 279 277 278 279 276 279 278 277 279 278 276 279 275 278 279 277 278 278 276 277 279 278 276 279 278 277 279 277 278 279 276 276 279 276 279 277 277 279 277 278 277 279 277 277 279 277 278 277 277 277 278 276 279 278 276 279 277 278 279 276 278 279 277 277 279 278 277 279 278 277 279 276 277 279 277 277 279 277 277 278 277 277 276 277 277 278 277 275 279 276 278 279 277 279 278 277 279 277 278 279 276 278 279 277 278 279 276 277 279 278 277 279 278 277 279 276 278 279 277 278 279 277 279 278 276 279 277 278 277 279 277 277 279 277 278 279 273 277 278 278 277 279 277 273 277 279 276 277 279 276 273 276 279 278 277 279 278 273 276 278 276 277 279 275 271 277 279 277 277 279 272 278 277 279 278 277 278 273 277 278 279 276 277 273 278 279 277 279 274 278 277 273 279 278 275 279 277 274 277 275 278 277 272 278 279 277 276 279 278 277 274 279 276 278 275 272 279 276 278 275 279 277 273 275 275 279 277 274 279 278 275 277 279 277 278 273 276 279 277 277 276 279 274 276 277 279 275 273 276 280 277 279 277 280 275 278 279 280 278 277 274 279 280 277 276 278 277 278 275 278 280 279 277 272 279 278 279 277 280 277 274 276 279 280 278 278 274 280 279 277 279 278 279 273 276 280 278 279 278 279 275 277 278 280 278 277 274 277 280 278 277 280 278 275 279 278 280 277 274 279 278 280 278 276 280 279 273 278 280 277 279 275 278 280 276 278 277 280 274 278 277 280 279 277 275 279 279 277 277 279 273 278 279 277 280 278 275 279 280 277 278 279 278 274 276 277 280 277 279 277 273 277 278 277 279 276 274 278 279 280 276 277 272 280 279 278 275 280 279 278 275 280 277 278 279 274 279 277 277 279 278 278 275 280 276 279 277 274 280 278 279 275 280 277 275 277 279 279 278 274 280 278 279 277 280 278 279 274 277 280 277 279 277 280 275 278 279 279 278 274 277 277 278 279 277 280 275 278 279 278 280 277 273 279 280 278 276 279 279 278 274 276 280 279 278 274 277 280 277 279 280 278 274 275 279 280 278 275 278 280 278 277 278 279 274 277 278 278 280 278 277 275 280 277 278 279 278 274 277 277 279 279 278 275 277 280 279 278 280 274 277 278 278 280 277 274 278 280 278 278 277 280 275 279 278 280 277 279 278 274 279 277 279 278 280 275 278 280 279 277 278 274 279 276 279 276 278 278 275 279 277 280 278 272 277 279 279 277 278 280 279 277 275 277 278 278 279 274 279 277 277 279 278 278 274 277 278 280 277 279 277 275 280 277 276 279 278 280 274 278 277 279 277 280 278 275 277 277 279 280 278 274 279 278 278 277 277 278 280 275 278 277 277 280 278 274 279 278 277 280 277 279 277 275 278 277 278 275 279 273 280 278 276 279 280 276 278 273 277 277 280 279 278 275 280 277 277 279 277 278 278 274 279 275 277 280 278 274 279 278 276 280 277 273 278 278 279 277 277 277 274 279 279 278 277 279 280 275 273 278 277 280 278 279 277 275 276 279 275 279 276 274 279 280 278 279 276 279 280 279 277 275 278 277 279 280 279 276 274 278 277 280 278 277 278 277 279 279 275 276 276 277 279 280 277 273 279 277 277 280 279 279 277 276 275 279 280 278 279 279 277 277 272 280 279 278 278 280 277 277 277 275 278 279 279 279 277 279 274 277 278 278 278 277 278 276 280 279 274 278 279 277 279 280 279 274 277 276 280 277 277 279 277 274 277 280 278 277 278 279 280 278 274 277 278 277 280 279 279 277 274 277 278 280 277 279 276 278 280 273 276 278 279 279 280 279 275 277 276 278 279 278 278 276 279 277 274 278 280 278 279 274 275 278 277 280 275 278 277 279 280 278 274 279 277 280 278 276 279 274 278 277 279 280 276 279 279 280 277 275 277 278 277 279 280 279 274 277 277 279 277 278 279 279 275 277 280 279 277 278 279 278 274 278 279 276 277 279 279 279 278 275 277 278 280 279 277 279 278 274 277 278 280 275 279 279 279 277 275 278 279 276 280 279 279 277 273 278 279 279 277 279 276 279 275 277 280 276 279 277 278 279 279 274 278 279 275 277 280 279 274 278 275 278 280 276 279 279 276 279 273 279 277 279 275 276 274 279 279 277 276 278 276 280 279 279 276 274 279 277 280 274 278 277 277 274 280 279 277 278 277 278 279 280 275 277 279 278 274 278 279 279 273 277 280 279 277 278 279 276 279 280 275 274 279 277 278 278 280 279 272 277 278 277 279 279 279 277 274 278 275 280 279 277 278 278 274 280 279 277 278 277 278 279 279 275 277 279 274 280 279 278 277 277 271 278 280 276 278 276 279 279 275 280 275 278 275 279 279 278 277 278 274 277 279 280 279 274 279 276 275 277 280 278 277 277 279 279 278 277 274 277 277 280 278 275 279 275 277 275 278 280 279 279 278 272 277 280 277 277 279 275 279 280 275 279 277 277 278 278 280 279 278 275 279 275 280 277 279 277 278 274 280 279 277 278 277 279 276 279 274 278 275 279 279 276 278 279 277 274 280 278 276 277 277 277 279 275 280 274 278 277 278 280 277 278 276 273 278 277 280 277 279 275 274 279 276 280 278 279 276 277 280 274 279 277 278 279 280 279 275 276 275 279 277 280 278 278 279 273 276 277 279 279 278 279 275 279 279 276 274 279 277 279 280 277 279 274 278 277 279 280 278 275 279 273 275 278 277 280 279 277 278 277 279 280 274 277 275 278 277 280 278 275 279 279 275 277 280 279 279 277 279 275 274 276 280 278 278 277 273 278 279 280 279 273 277 278 275 280 279 275 279 276 277 279 278 278 274 274 278 277 278 278 279 277 278 274 275 279 280 279 277 277 275 278 278 278 274 278 278 276 278 280 277 279 275 275 278 275 279 280 278 274 279 273 277 280 278 279 277 278 274 273 279 279 277 279 279 279 277 280 278 279 274 275 278 276 279 274 279 280 278 275 278 277 279 276 279 279 280 275 275 279 279 279 275 276 280 278 277 274 277 279 279 279 280 278 279 274 278 275 277 279 278 277 280 279 279 275 274 278 280 279 277 278 276 274 275 278 275 279 276 279 279 277 277 279 279 275 275 276 280 279 278 275 279 279 277 274 280 278 276 279 279 278 275 274 278 280 279 279 275 279 277 279 278 276 279 273 279 279 279 274 276 279 275 279 278 277 279 279 279 275 280 278 277 275 279 279 279 275 276 277 280 277 273 279 279 279 280 277 277 279 275 279 275 279 279 277 275 280 279 279 279 278 274 277 279 280 278 274 279 277 274 278 280 279 275 279 278 277 279 275 277 280 278 278 278 275 278 279 277 274 278 278 277 277 279 275 279 274 279 280 279 277 275 278 277 278 280 279 279 279 275 277 277 279 277 280 275 274 279 279 279 275 279 277 279 279 278 279 275 277 278 278 279 273 280 277 279 274 279 275 279 280 279 278 276 274 279 279 279 274 280 277 279 277 276 275 279 276 278 279 280 278 277 274 277 279 276 277 275 277 279 277 280 278 279 277 277 273 278 279 277 277 276 279 280 275 277 277 276 279 275 274 279 277 279 277 277 279 279 280 278 277 277 278 276 275 278 279 275 279 276 277 279 277 279 275 278 277 279 279 277 278 274 279 279 277 275 277 275 279 277 279 277 276 277 275 277 279 279 278 277 279 279 277 276 277 279 275 279 275 277 279 278 277 275 279 277 278 277 276 277 278 274 279 275 280 277 278 279 274 278 277 279 276 278 276 277 280 279 279 277 275 274 278 277 279 279 277 279 280 276 277 279 275 276 279 279 275 277 279 277 275 279 280 277 279 277 277 278 279 277 278 279 275 275 277 279 280 279 277 279 277 277 274 279 277 278 277 278 277 280 279 278 279 275 275 278 275 277 277 279 278 279 277 275 275 277 278 279 277 277 274 277 279 276 277 280 278 279 276 275 277 277 279 275 279 280 276 277 276 273 277 279 278 277 277 277 279 276 275 279 280 279 276 277 275 277 277 277 274 278 277 277 279 277 278 279 277 279 277 277 275 275 278 277 279 279 277 279 275 278 276 279 277 277 277 278 277 273 277 279 279 275 280 279 277 277 278 277 279 277 277 280 275 279 279 277 275 275 277 277 277 278 278 279 279 277 279 277 277 277 279 277 279 276 275 275 280 279 274 279 277 276 278 275 277 278 279 277 277 279 280 277 279 279 274 275 277 277 277 279 277 279 279 278 279 276 275 278 275 279 278 276 277 277 279 275 277 279 279 279 277 276 279 277 279 275 277 279 279 277 275 280 278 279 277 275 277 277 279 277 278 279 280 277 274 277 277 279 279 277 278 274 279 277 280 279 274 276 277 279 277 278 278 274 279 276 276 279 277 280 279 277 278 275 277 277 279 277 275 278 279 274 278 277 277 277 278 276 279 277 278 277 277 275 277 280 279 279 277 273 279 277 274 279 277 280 277 279 278 277 277 279 275 278 275 275 279 278 276 279 279 279 277 276 275 279 276 279 277 275 279 277 275 279 280 279 277 277 279 278 277 279 277 279 279 279 273 275 279 275 279 277 274 277 276 275 279 279 278 279 277 277 278 277 277 279 275 276 277 275 278 277 280 276 279 278 275 275 279 279 275 276 279 280 277 278 274 278 275 278 275 279 277 277 279 277 276 274 279 278 277 277 275 279 279 276 279 275 280 276 279 277 279 277 278 275 277 276 277 279 277 279 279 273 278 279 277 277 279 274 279 277 279 277 279 274 279 276 277 277 278 276 279 278 277 279 275 277 280 279 276 275 279 274 279 277 274 276 278 277 278 280 277 279 279 275 278 277 277 279 275 277 279 275 277 280 277 279 278 277 277 275 274 277 279 279 279 277 279 278 274 277 276 279 279 277 275 278 276 280 279 275 279 277 275 277 276 279 277 279 279 278 277 279 279 278 277 279 275 277 277 275 278 279 274 277 280 277 277 279 279 279 279 277 276 280 277 277 279 275 275 277 279 277 277 275 279 279 277 274 279 278 276 279 279 277 275 279 277 275 279 280 277 278 278 277 279 277 279 277 277 274 274 279 277 279 278 279 279 275 275 277 277 278 279 275 277 277 279 278 280 277 279 279 275 274 279 279 277 277 275 279 280 279 277 275 279 277 279 277 277 275 279 279 280 277 279 278 274 277 275 278 279 273 279 275 279 277 279 277 279 277 277 278 279 274 277 278 279 279 277 279 275 274 276 274 277 279 279 277 279 277 280 277 279 274 277 278 279 277 275 277 279 279 275 277 278 280 277 278 279 279 277 277 276 274 275 277 279 277 279 278 279 276 278 279 277 275 275 277 277 279 280 279 275 277 278 277 275 277 279 278 277 280 278 277 277 279 275 279 275 277 279 275 276 279 279 278 277 278 277 278 276 277 279 279 275 279 277 280 274 279 279 277 275 277 279 274 277 278 279 280 278 277 277 278 275 278 277 279 279 275 277 277 280 278 277 278 275 277 279 275 279 275 277 279 279 277 280 277 278 277 279 273 277 279 277 273 279 277 280 277 277 279 277 279 278 275 277 274 278 275 275 279 280 276 279 277 277 276 279 276 277 279 280 276 277 275 279 277 277 279 274 275 278 277 277 279 279 280 279 277 276 279 278 279 275 277 279 277 277 279 277 279 279 273 277 278 275 277 279 279 277 279 276 279 279 277 279 275 279 277 279 279 276 274 279 278 275 278 276 278 274 278 275 279 277 275 279 279 277 278 278 277 276 279 279 277 279 279 277 279 279 279 275 275 280 277 277 277 278 279 277 279 275 279 277 280 279 279 277 278 275 278 273 277 278 279 276 275 278 279 277 280 279 277 278 279 275 277 277 279 278 275 279 279 277 277 279 277 279 278 277 274 279 275 279 279 280 278 276 278 277 278 275 279 277 278 279 275 277 277 279 279 278 277 275 279 278 277 277 277 275 278 279 277 278 279 279 277 275 279 279 279 279 276 276 277 279 277 279 277 274 278 274 279 276 279 279 279 275 277 276 280 279 277 279 278 274 279 277 275 274 278 280 277 279 274 279 275 276 277 279 279 277 279 277 278 280 275 277 279 279 277 277 277 279 279 275 279 275 277 279 280 276 279 278 278 277 279 275 277 279 277 279 280 277 279 279 276 277 279 279 275 277 279 274 279 275 280 278 277 279 279 277 274 277 279 279 277 279 279 278 278 277 274 279 277 274 279 278 277 276 278 277 275 279 279 278 279 277 278 277 278 278 277 276 274 275 279 280 277 279 278 279 279 277 275 279 279 277 280 277 279 276 277 279 279 275 279 279 277 280 277 277 279 277 274 277 278 277 277 278 272 279 276 279 279 279 279 274 276 279 277 279 277 279 274 277 279 276 279 279 280 275 275 277 279 279 278 277 277 277 279 280 277 275 278 279 278 277 277 275 279 275 276 278 279 280 279 277 279 276 276 279 278 276 278 277 275 279 279 279 275 278 277 279 277 275 279 277 278 279 275 280 278 277 279 279 278 277 275 279 277 277 277 279 279 280 274 279 275 277 279 279 279 277 277 279 278 279 275 277 278 279 276 276 279 278 276 277 278 278 274 275 280 276 277 279 279 277 276 275 279 279 276 280 279 279 277 277 279 277 279 279 278 277 275 279 275 277 279 280 277 279 275 278 277 278 276 278 279 277 279 280 279 276 275 279 277 274 279 277 277 276 279 279 277 280 279 278 277 274 279 277 279 279 277 275 280 279 277 278 275 278 276 276 276 279 278 277 279 278 275 279 279 276 279 279 275 279 276 277 279 279 277 277 280 279 279 273 277 279 278 275 276 275 279 277 279 277 279 279 279 279 275 277 277 275 279 277 277 279 280 279 275 279 279 277 277 279 279 275 279 279 276 280 277 278 274 279 277 275 279 273 276 279 277 279 278 277 277 280 278 277 279 278 278 277 277 273 277 279 279 280 278 277 277 279 274 275 279 279 277 279 279 277 277 279 279 275 276 277 279 279 279 275 277 279 279 280 278 277 276 278 279 279 275 276 277 279 274 276 280 279 279 279 277 279 277 279 277 277 279 275 279 274 277 280 279 278 279 277 274 278 279 276 277 278 278 277 278 279 277 279 275 279 279 275 279 275 277 277 280 279 276 279 279 276 279 275 278 277 278 277 280 278 274 277 279 279 277 274 278 276 279 278 279 277 278 279 276 275 277 279 279 276 279 277 279 275 279 279 277 279 278 277 279 274 275 279 275 277 279 279 277 279 279 276 277 277 279 276 275 278 279 279 277 280 274 279 279 276 277 275 277 279 279 278 279 276 278 279 277 278 277 279 279 277 275 275 275 279 276 279 275 279 280 278 277 278 279 278 277 277 276 279 279 279 277 279 275 279 279 277 275 279 274 277 279 279 277 280 277 277 279 279 278 274 277 279 277 279 279 274 278 279 279 277 274 278 276 278 279 274 277 278 278 280 275 277 274 279 279 277 279 278 277 275 278 277 279 278 277 275 275 278 279 279 277 277 278 279 279 277 279 279 275 277 279 276 277 275 279 279 277 275 276 279 280 279 277 278 277 279 277 279 275 277 279 277 279 278 274 279 276 279 277 279 277 274 278 277 278 278 280 277 279 279 274 277 279 276 279 278 275 280 278 277 276 277 279 279 275 277 277 279 275 278 278 280 277 279 277 277 278 278 275 276 277 279 279 277 278 275 277 279 277 279 278 279 277 279 276 275 277 275 278 278 280 278 277 278 275 279 277 279 279 277 278 275 278 278 275 276 278 279 277 279 276 279 275 280 277 279 279 278 278 276 275 279 276 274 277 280 277 277 276 278 275 278 278 274 278 276 276 277 280 279 277 277 274 277 279 275 278 279 277 279 279 275 279 279 278 277 277 279 275 279 277 276 279 279 280 277 277 278 277 279 278 275 276 279 278 273 275 274 277 279 280 279 279 279 277 277 278 274 279 277 279 278 279 280 277 277 277 278 274 278 278 279 276 280 278 275 278 274 279 277 277 279 277 278 279 277 275 277 279 277 279 279 279 277 278 277 278 278 275 280 278 273 277 278 277 274 279 277 279 279 277 278 275 276 278 279 280 278 276 279 278 275 279 277 276 276 279 280 279 276 278 279 274 278 278 275 277 276 279 279 277 277 279 278 275 279 279 277 277 274 278 278 276 278 280 277 276 279 275 279 275 278 279 277 278 277 277 272 279 279 279 277 275 279 277 277 274 279 280 277 279 278 277 278 279 277 274 279 278 277 275 276 279 277 280 278 278 276 276 277 275 278 279 279 275 278 280 278 277 277 279 278 277 276 279 278 275 278 280 277 279 278 277 277 279 273 279 275 278 275 278 277 279 276 278 278 276 277 274 279 279 277 278 280 279 275 279 277 277 277 277 279 279 277 274 279 274 280 279 277 278 275 278 279 277 277 276 277 277 279 279 279 275 277 279 279 277 278 279 277 273 275 279 280 278 279 277 277 275 278 276 277 279 279 276 277 279 279 280 279 278 275 276 279 275 279 277 277 279 277 279 274 279 278 276 279 278 274 276 278 277 278 278 279 280 277 277 279 279 277 274 279 279 276 275 277 276 279 277 279 279 277 277 274 278 277 276 274 277 277 280 277 278 278 277 275 278 278 278 276 275 280 278 277 279 277 278 277 277 277 275 279 277 275 278 276 279 280 277 277 278 279 275 279 277 279 278 275 280 279 277 278 277 278 279 278 278 278 277 279 274 277 275 279 275 279 276 279 278 275 276 279 277 280 277 279 279 277 274 278 276 279 279 279 279 280 277 278 279 278 274 277 275 278 272 277 277 279 277 275 276 280 279 277 279 277 275 279 278 276 278 280 278 279 277 277 279 276 275 275 278 277 274 279 279 277 280 278 279 277 278 277 277 277 279 278 275 278 280 277 279 278 274 279 277 278 279 276 279 275 277 275 277 280 276 279 278 278 277 277 277 278 275 276 279 279 280 279 277 277 279 275 278 278 277 277 278 278 278 274 280 273 275 278 278 279 277 276 278 277 279 278 274 276 279 278 279 275 279 277 278 276 279 275 277 276 275 280 279 274 279 279 277 278 277 277 279 279 276 280 278 274 279 277 278 275 277 279 279 277 278 279 275 277 279 279 273 278 275 279 277 275 279 279 279 275 277 279 277 277 278 275 278 274 278 277 279 277 277 276 279 279 275 277 277 274 279 278 278 277 277 280 279 279 278 275 277 279 279 277 277 275 277 280 278 279 276 278 279 277 277 274 274 277 276 280 277 278 276 277 279 277 279 275 279 279 277 275 278 280 278 277 277 277 278 279 279 274 276 279 275 278 280 277 278 274 275 279 279 277 277 277 279 275 279 280 276 277 279 279 279 277 278 277 278 278 277 275 280 279 279 278 275 274 276 277 277 277 279 279 274 278 279 278 275 279 277 279 277 277 279 276 276 280 278 275 278 279 276 279 273 274 279 279 277 277 277 280 279 279 277 275 276 278 276 278 277 278 277 278 280 279 277 275 278 275 278 277 277 279 277 279 277 275 279 277 277 279 275 279 277 279 279 277 276 279 279 277 279 274 279 276 277 279 278 275 278 280 277 279 279 277 274 278 277 278 277 275 276 279 277 277 279 280 279 277 275 278 279 278 279 277 275 279 279 280 277 277 277 277 275 278 279 276 276 275 278 277 280 279 278 279 276 275 277 277 279 279 278 274 280 279 278 277 279 274 277 278 276 279 275 277 274 280 278 275 277 279 278 278 277 279 276 279 277 279 279 280 275 276 275 274 278 277 277 279 279 277 278 278 275 278 280 275 279 276 279 277 277 278 277 277 279 280 279 277 275 279 276 279 277 278 277 275 279 279 275 280 279 277 277 279 279 275 277 276 277 278 279 277 279 280 278 275 276 278 279 277 277 279 279 277 280 277 275 279 273 278 278 277 275 278 277 277 277 280 276 279 279 278 277 278 277 278 275 276 275 277 278 275 278 279 277 277 279 279 278 274 278 277 275 278 279 279 277 276 279 277 279 274 275 279 279 276 275 278 280 277 277 279 279 275 277 279 277 278 278 274 277 280 279 277 279 279 276 278 275 276 278 275 276 280 279 277 278 278 279 276 277 274 279 277 279 278 277 275 280 277 279 278 277 279 275 275 279 277 280 277 278 275 277 278 276 279 275 279 278 277 279 278 277 275 279 279 276 278 277 277 277 275 279 279 279 279 279 277 277 279 277 275 279 277 279 277 278 274 277 277 279 278 278 275 279 278 277 279 275 279 277 280 278 276 279 278 279 275 277 277 278 277 277 280 279 275 279 279 277 275 278 277 272 275 279 279 277 276 279 279 277 278 275 276 279 278 279 279 277 280 279 277 275 277 277 277 275 277 278 279 275 278 278 276 278 280 279 277 277 277 277 279 275 275 278 278 279 277 280 279 279 277 279 277 274 277 275 277 274 278 279 279 279 277 277 279 279 277 277 277 275 277 277 277 277 280 279 277 277 275 279 279 279 276 275 278 279 276 280 277 277 276 277 274 278 278 273 279 277 279 277 278 279 277 278 277 274 277 279 277 279 275 277 275 279 278 279 277 279 277 277 273 279 276 277 279 277 275 277 278 280 277 272 279 279 278 277 277 278 277 275 275 277 274 280 278 279 275 274 277 279 275 277 277 278 277 277 280 277 274 278 278 277 278 277 279 279 276 279 274 278 280 277 277 277 277 279 273 278 275 276 277 277 274 279 280 279 276 279 277 277 279 278 277 275 277 277 278 279 280 276 278 277 279 279 275 277 277 279 277 275 279 280 274 277 279 277 276 279 276 277 279 275 278 279 278 277 277 277 277 279 279 275 275 279 279 275 277 274 280 278 277 277 277 276 278 277 277 278 277 278 275 280 278 279 279 277 279 273 277 277 279 277 277 277 274 279 278 277 279 279 275 277 277 276 277 279 277 275 278 280 278 276 279 279 275 276 279 279 277 277 277 278 279 275 275 276 278 279 276 278 274 277 276 274 274 277 277 279 279 279 275 279 276 279 278 278 277 276 278 275 276 280 277 279 278 278 277 276 277 279 278 274 274 278 280 277 279 279 274 278 277 278 277 277 276 279 279 277 275 280 278 277 279 279 279 276 276 274 278 275 278 275 278 280 277 279 275 278 277 277 278 277 279 279 275 276 280 279 275 278 277 279 277 278 279 279 277 274 277 275 280 276 277 278 275 277 278 277 276 277 278 277 277 279 277 279 279 275 277 279 277 276 276 277 278 279 279 275 277 280 277 274 274 278 276 278 277 278 275 277 277 279 277 277 280 278 274 279 277 278 275 277 276 275 277 279 277 278 276 280 279 278 278 275 276 277 277 279 277 278 277 280 278 275 277 279 277 277 279 276 275 277 279 279 278 279 276 275 279 274 279 279 276 276 277 276 279 277 278 280 275 276 277 277 277 279 277 275 279 277 277 279 279 279 277 277 276 278 275 279 277 279 275 277 277 277 280 278 279 277 277 278 274 276 279 277 275 279 280 279 278 277 277 278 275 274 277 278 276 279 277 279 277 278 279 277 278 278 278 275 279 276 277 275 276 279 276 277 275 279 276 278 280 275 278 279 279 277 279 277 277 277 277 278 274 279 277 279 278 278 277 275 276 277 276 279 280 276 277 279 278 275 275 278 277 277 279 277 279 278 275 280 279 279 276 277 278 274 277 277 278 277 279 277 277 279 278 276 273 277 277 275 276 277 277 279 275 277 279 279 280 278 275 277 279 278 278 275 277 279 276 277 278 280 276 279 277 277 279 275 275 277 279 277 277 276 278 279 280 278 275 278 279 277 277 275 278 278 277 277 279 279 280 277 279 279 277 275 275 278 279 277 278 277 277 275 279 279 279 279 277 278 275 277 276 277 277 279 279 278 280 277 279 278 279 272 278 275 273 278 277 277 277 277 277 280 279 276 279 278 277 279 274 277 279 276 278 278 280 277 278 277 277 279 274 279 275 277 277 279 275 277 279 276 277 277 279 276 278 279 278 275 278 279 277 275 280 278 277 276 279 279 277 275 275 278 277 279 275 278 277 280 277 277 279 278 279 278 274 279 279 277 277 276 277 280 277 277 277 275 278 279 277 279 274 278 279 274 277 277 277 279 277 279 276 274 276 276 277 277 279 278 277 279 279 278 275 277 279 279 277 273 276 277 275 277 275 278 278 279 277 278 277 277 276 277 275 278 279 276 278 278 278 278 274 279 277 279 275 277 278 275 277 277 275 279 278 280 277 279 278 277 277 274 276 279 278 278 276 277 280 278 277 275 278 279 278 275 277 275 275 279 274 278 278 278 277 278 277 278 279 277 275 276 279 277 276 278 278 280 275 275 279 279 278 278 274 277 276 273 276 279 278 276 280 278 277 279 279 274 277 277 277 275 278 277 280 278 279 277 277 279 275 279 279 277 277 278 275 276 278 279 280 276 277 279 277 275 278 277 277 274 276 277 278 278 278 278 277 276 278 277 279 278 279 274 277 277 280 279 275 278 276 277 277 276 275 279 278 277 274 277 279 278 280 279 276 278 277 277 277 279 275 274 277 277 279 278 277 277 278 279 277 277 279 275 279 276 275 278 280 278 277 277 277 276 278 278 275 275 279 274 277 277 278 278 280 279 279 278 275 276 277 276 274 279 279 276 279 275 280 278 279 277 278 277 275 277 277 275 275 279 277 279 280 278 275 279 278 279 277 278 276 276 277 277 275 278 280 279 278 279 277 278 277 277 275 278 277 277 280 279 277 274 274 279 279 277 278 277 276 278 275 279 278 280 277 279 277 277 277 278 276 278 275 277 275 278 279 277 276 280 277 275 277 278 276 276 276 277 277 275 279 277 280 279 276 279 278 278 276 275 278 277 277 278 278 277 275 278 278 276 274 279 279 278 276 277 275 277 278 279 277 279 279 277 279 279 277 274 277 278 277 278 277 275 280 279 277 275 279 277 277 277 277 275 279 277 279 279 280 279 277 278 277 279 275 277 277 277 277 277 275 274 278 280 278 279 277 278 277 279 279 276 275 277 277 280 278 279 279 276 277 278 277 275 278 277 278 275 275 278 278 280 277 277 276 277 279 277 279 277 279 274 277 277 278 279 279 279 275 276 278 275 277 275 279 276 277 276 277 280 278 277 275 279 277 278 275 279 277 277 277 277 279 280 279 278 275 277 279 275 277 276 278 279 277 275 279 276 273 279 280 277 279 277 276 277 275 278 279 277 280 279 276 274 279 279 279 275 277 277 277 278 277 275 278 280 278 275 278 277 277 277 276 279 278 274 278 278 277 280 275 279 279 277 279 279 277 278 275 276 277 280 277 279 279 275 277 278 278 278 279 277 274 277 276 279 277 280 277 279 279 275 278 279 279 274 277 275 277 278 280 278 277 279 276 274 277 279 279 277 279 277 275 274 278 275 280 277 279 279 277 277 276 279 275 275 278 277 278 279 280 278 277 279 277 277 279 279 277 277 275 277 278 275 279 277 279 278 278 277 277 278 275 279 279 277 279 279 277 277 279 275 276 278 278 277 274 278 274 277 278 277 280 278 277 277 279 279 277 277 279 275 278 277 275 274 277 280 278 276 279 279 278 275 277 276 276 279 279 275 278 277 279 279 277 278 277 277 275 277 276 277 279 274 279 280 278 279 277 277 278 275 278 276 277 275 276 279 279 278 280 277 275 278 278 275 276 277 277 277 279 274 279 280 278 275 278 279 277 279 276 279 277 277 275 277 279 279 280 278 277 278 277 279 275 276 277 278 274 276 279 275 279 275 278 280 277 277 279 278 278 279 278 277 274 277 277 279 277 278 275 277 280 276 279 279 277 273 277 279 277 275 278 275 277 276 279 277 278 278 279 274 279 277 277 276 277 277 279 279 273 278 278 277 278 275 278 277 278 274 277 279 279 275 275 277 275 279 279 275 280 277 278 276 277 277 279 278 274 279 277 277 278 277 280 277 278 275 275 277 279 277 279 275 278 276 274 277 278 276 278 276 276 280 279 277 274 278 279 276 277 278 279 279 273 276 277 273 277 280 279 278 275 279 277 277 275 277 277 275 278 279 277 280 277 279 274 278 279 275 276 277 277 275 278 279 279 277 277 280 279 277 277 277 275 279 275 278 274 279 279 274 279 277 277 280 277 277 277 276 274 279 277 275 277 277 278 278 279 277 274 278 277 276 280 279 276 275 279 278 277 275 279 279 277 276 274 277 280 277 274 276 277 279 278 277 278 279 279 279 273 277 279 277 280 277 275 277 277 277 279 274 275 278 279 276 274 278 278 276 278 279 276 280 277 277 278 274 278 278 277 279 277 279 275 277 278 275 280 277 274 275 279 277 279 275 277 273 277 278 278 277 276 275 277 280 279 277 277 279 279 277 278 274 279 278 279 277 275 279 280 277 275 278 277 274 277 277 278 279 278 277 277 280 279 276 277 275 278 277 279 274 278 277 275 277 279 279 279 275 278 276 277 280 277 279 275 279 277 277 274 277 279 278 277 278 279 277 279 276 279 275 277 277 279 277 278 273 276 274 279 276 275 277 279 278 278 280 278 277 278 276 279 275 278 277 277 277 274 277 278 279 275 280 277 278 275 279 275 279 278 274 279 277 277 275 277 278 278 274 280 276 278 279 279 279 273 277 277 277 274 278 279 274 277 279 277 272 279 279 275 279 277 277 277 278 275 277 279 279 279 277 279 279 278 277 277 274 278 275 277 279 277 272 277 275 277 276 279 280 278 279 277 274 277 279 278 277 274 277 278 275 277 277 279 280 278 279 277 278 278 277 275 279 277 275 276 277 279 274 280 278 279 277 275 277 277 277 279 279 279 277 277 274 275 278 280 279 278 277 274 278 277 278 277 279 277 274 279 277 278 277 279 277 276 276 278 275 277 274 279 277 277 275 277 278 277 278 273 279 278 279 277 278 277 279 277 276 274 274 278 279 279 275 277 277 280 277 275 278 279 276 275 278 277 278 278 274 279 279 277 279 277 280 277 275 277 277 278 277 277 278 275 280 277 279 279 274 277 279 274 274 277 277 277 277 275 278 278 277 277 279 279 280 278 277 275 277 278 274 277 279 277 276 274 279 279 277 279 275 280 278 277 277 275 277 279 277 278 274 277 279 279 277 279 280 279 278 279 277 276 276 276 275 278 275 279 275 274 279 275 276 280 276 279 277 276 276 278 275 279 279 275 278 279 280 278 277 276 274 277 279 277 277 274 276 279 278 274 279 275 278 277 279 280 277 279 277 277 274 278 277 278 276 275 275 277 279 278 277 279 278 280 278 275 277 277 278 279 274 275 278 276 277 279 278 275 277 279 279 277 277 279 279 276 275 274 278 278 276 275 279 276 277 276 278 280 279 277 278 278 275 277 277 277 274 279 279 277 278 273 277 280 279 277 277 274 278 277 277 277 276 279 277 275 276 280 278 275 279 279 278 274 278 277 277 277 277 279 274 279 277 275 280 277 279 278 277 278 276 274 279 278 278 277 277 274 277 279 278 275 276 278 278 279 277 278 274 279 278 278 276 275 277 277 277 279 280 275 278 277 278 277 278 279 279 274 277 277 277 280 279 277 275 278 276 277 274 279 278 274 276 277 278 274 276 277 280 278 279 277 278 276 279 275 278 277 279 276 275 279 279 274 276 277 274 279 277 280 278 278 278 278 275 276 276 277 278 275 279 277 279 277 278 275 279 279 277 274 278 275 275 276 277 278 275 279 277 279 279 279 278 275 277 277 279 277 279 274 277 278 280 276 279 279 277 278 278 274 279 277 275 277 276 274 279 277 279 272 279 277 276 279 279 277 277 277 277 274 277 278 279 278 277 280 278 274 277 274 277 279 279 277 275 277 276 279 277 279 275 277 280 279 278 278 277 277 274 279 277 277 276 275 278 278 277 275 278 280 276 278 277 279 277 274 274 277 274 279 277 279 278 275 280 277 277 277 277 277 277 277 277 274 273 276 279 277 277 278 278 275 280 277 279 279 279 273 278 277 276 276 275 279 274 277 279 279 279 279 275 273 277 277 279 277 277 277 277 278 277 274 277 280 277 279 274 279 277 275 277 274 277 277 279 275 278 276 279 279 272 279 277 279 276 278 274 277 275 277 279 277 279 277 279 279 275 278 280 278 275 276 276 278 278 277 275 276 278 272 277 279 279 280 279 277 274 277 279 278 277 278 278 277 276 272 278 278 278 275 274 280 277 278 276 277 275 277 279 277 277 277 278 274 278 277 279 280 277 277 275 277 279 278 279 277 276 279 279 275 274 277 277 277 279 278 274 279 279 278 275 277 276 277 278 278 277 277 279 278 274 279 278 279 273 277 277 275 277 278 275 277 278 278 276 277 279 278 277 279 279 277 274 278 273 278 279 277 277 275 277 280 279 278 274 276 278 278 274 278 277 278 275 278 277 277 273 277 277 280 279 278 277 279 275 278 274 279 275 277 279 274 277 275 279 278 278 277 275 278 277 277 279 277 279 277 279 274 278 280 277 279 276 279 277 274 278 275 279 278 277 275 276 277 278 275 280 273 279 279 277 277 278 273 279 279 278 277 278 277 276 279 275 277 280 278 276 274 279 277 277 274 279 275 279 277 275 278 277 274 277 276 279 278 280 279 275 279 278 277 279 277 277 277 274 277 279 277 277 278 275 280 278 277 276 279 276 277 278 276 277 277 279 277 275 278 280 278 278 277 279 274 273 276 275 279 276 278 275 279 276 279 276 279 275 277 277 277 279 280 278 279 277 278 278 274 279 277 279 277 277 277 279 278 277 274 277 280 277 275 278 276 277 276 278 279 277 278 275 273 276 279 278 277 277 277 276 277 279 275 280 278 279 277 278 274 278 277 276 279 278 277 276 278 275 276 280 278 275 275 279 277 278 277 278 277 279 277 279 277 277 277 275 280 278 277 278 274 279 279 277 277 277 278 278 278 275 276 278 275 278 277 275 275 280 278 275 277 276 278 279 276 274 279 277 277 279 279 278 277 278 276 277 280 275 277 276 277 279 277 276 276 279 274 278 279 277 277 278 279 278 277 277 275 279 277 277 277 275 279 277 276 277 274 274 279 277 279 277 280 277 278 276 279 276 275 279 277 278 279 279 275 277 276 274 278 277 274 278 279 277 278 280 277 274 277 275 279 276 279 277 277 277 277 278 277 278 274 279 280 279 277 277 278 276 274 278 277 277 277 278 279 277 279 277 277 277 278 275 277 277 278 277 273 278 277 279 274 279 279 276 277 277 278 277 280 279 277 279 277 274 279 276 275 277 275 278 274 278 276 278 277 279 279 277 277 279 280 277 277 274 276 279 279 276 274 277 278 279 277 276 277 274 277 276 277 279 280 277 274 278 276 279 276 278 275 277 277 277 278 276 274 279 280 278 277 274 279 277 278 275 277 277 279 277 277 275 277 277 277 278 277 277 278 280 275 277 278 276 279 274 279 279 277 276 277 278 277 278 280 276 279 277 275 278 276 277 278 279 279 277 273 279 277 277 275 277 279 277 277 278 277 280 278 275 279 275 278 277 277 277 279 277 278 277 273 278 275 277 277 280 279 277 275 277 277 277 277 278 277 279 277 275 279 276 277 279 274 279 277 277 278 280 277 275 277 277 277 278 279 276 277 279 277 278 279 279 276 279 274 277 277 279 277 278 274 277 276 279 277 278 275 275 277 276 278 277 279 279 277 277 274 277 279 278 274 272 278 276 277 277 277 279 277 277 277 279 278 279 279 275 277 277 277 277 277 278 274 278 278 279 277 275 277 279 276 279 277 277 277 277 279 278 275 279 279 277 277 278 277 278 274 277 279 280 278 279 276 277 278 275 279 277 277 278 275 276 276 275 279 279 277 273 279 278 278 277 277 277 277 276 275 279 276 279 277 278 277 279 277 277 277 280 277 277 275 275 277 279 277 279 274 279 277 278 279 277 275 276 277 277 280 278 278 277 275 274 279 277 279 276 277 278 274 279 275 277 278 275 278 277 278 280 277 275 279 277 277 278 277 276 277 276 277 274 277 277 277 278 278 275 277 280 277 277 276 274 278 277 279 277 279 277 279 274 279 275 276 278 277 279 280 278 278 278 275 276 276 279 274 278 277 278 277 277 278 275 277 280 277 277 272 277 277 277 277 279 277 279 275 278 277 278 277 277 276 277 277 280 279 279 277 275 278 277 273 278 278 277 279 277 277 276 277 280 275 278 278 279 277 277 276 274 279 278 274 278 277 275 277 277 279 279 276 278 277 277 277 279 276 275 277 279 279 278 277 277 278 277 278 278 274 278 279 277 277 276 274 279 279 277 275 276 277 279 276 276 279 279 277 277 274 277 278 276 280 277 279 279 277 277 276 279 275 279 278 276 275 278 277 278 278 277 275 280 277 277 274 277 274 277 279 278 275 277 277 277 277 277 278 279 280 279 276 277 277 275 278 275 279 279 278 277 274 276 278 277 277 279 279 278 279 277 275 279 277 276 276 278 274 275 278 277 277 277 279 274 277 277 275 279 279 279 277 278 276 276 277 274 277 277 279 279 277 277 277 274 277 277 279 279 279 277 275 277 279 277 276 279 275 278 277 278 277 277 276 279 279 280 277 276 274 278 277 276 279 274 279 279 277 278 277 277 277 278 279 277 277 279 277 279 274 277 274 279 278 277 277 274 274 278 277 278 277 279 279 279 280 276 279 278 275 276 277 277 277 277 274 277 279 278 279 278 277 278 277 279 277 277 277 279 275 277 277 279 274 278 277 279 277 276 274 277 278 279 275 277 278 279 277 277 275 274 276 279 277 277 277 277 274 277 277 279 279 279 277 276 280 277 277 279 275 277 277 275 277 275 278 277 277 279 274 279 274 279 280 277 278 276 278 278 277 277 275 276 277 277 279 278 279 276 278 280 279 277 279 275 278 278 277 277 274 277 278 277 276 279 275 274 277 277 278 279 280 277 277 277 278 274 278 276 277 275 279 277 278 277 277 277 279 278 277 278 279 279 275 277 279 276 279 274 278 277 276 274 276 277 277 277 279 276 280 278 277 279 279 275 279 276 277 277 278 277 277 277 275 274 278 277 277 277 278 279 276 279 277 277 274 279 276 275 277 279 278 277 277 277 277 279 274 277 279 280 277 277 275 279 277 278 277 277 276 279 277 276 280 278 275 277 279 278 279 277 277 276 274 279 279 279 277 275 278 277 278 277 276 276 275 275 280 278 276 278 277 279 274 278 275 277 278 276 276 279 274 277 278 277 277 280 277 275 279 279 279 275 277 277 273 278 274 279 279 278 276 276 279 280 277 277 279 277 277 278 275 277 277 278 279 276 277 276 274 279 277 278 278 276 280 279 277 275 278 276 278 276 278 274 279 277 273 279 276 276 274 279 277 280 278 276 277 278 277 275 278 278 277 279 277 278 277 279 280 277 273 277 276 277 277 277 278 279 279 273 279 277 275 276 279 274 277 277 275 279 277 280 279 277 279 276 275 278 274 276 277 277 277 278 277 279 278 280 277 279 278 275 277 277 277 277 277 278 278 274 279 278 275 279 277 278 277 279 277 280 277 278 277 277 275 277 277 277 279 278 279 275 277 279 274 277 279 277 280 278 277 276 275 276 274 277 279 278 277 278 276 275 277 279 278 274 276 278 278 280 277 275 277 278 277 275 279 277 277 276 279 279 277 277 276 280 278 274 276 279 278 277 277 274 277 277 277 277 275 279 279 279 280 279 277 278 278 277 279 277 276 274 278 275 277 277 279 274 277 279 277 277 279 280 277 277 278 275 278 277 276 277 277 279 277 276 273 279 278 275 278 280 276 278 279 277 277 278 276 275 276 279 277 275 277 277 278 278 274 277 279 276 280 278 274 276 277 278 277 277 279 279 277 275 277 275 277 279 274 277 277 278 277 279 280 277 279 278 278 278 275 278 277 276 276 277 277 278 278 274 278 279 277 279 278 274 277 277 277 276 276 279 278 277 278 275 278 279 274 280 278 277 279 279 277 274 277 277 275 277 278 279 277 276 277 274 277 277 277 279 278 280 278 275 277 279 277 277 279 277 279 274 278 278 277 274 276 279 280 278 277 278 275 276 277 277 279 278 279 273 277 277 276 279 277 278 277 277 278 280 275 279 277 279 279 277 277 277 277 274 275 277 279 276 275 279 279 277 278 277 276 276 279 278 277 275 278 279 277 277 277 279 279 277 274 277 278 280 275 279 274 279 278 276 277 278 277 279 278 275 279 280 276 277 277 278 277 277 279 279 274 277 275 277 279 277 277 279 279 276 277 275 278 275 280 277 279 278 278 275 277 277 279 277 278 279 274 278 275 277 279 276 277 277 277 279 278 275 274 278 279 278 274 278 277 277 277 279 278 277 278 278 275 280 279 274 277 278 277 277 278 277 277 278 278 274 277 279 278 275 278 279 275 279 277 277 277 276 277 278 278 275 279 279 277 277 279 277 276 274 278 279 280 277 279 279 275 277 277 277 276 277 279 275 276 277 278 278 280 276 279 277 273 278 277 279 277 276 274 278 279 277 276 278 276 278 277 278 274 278 280 279 274 276 277 277 279 278 277 274 278 279 277 274 275 277 279 276 277 278 280 278 277 277 274 278 279 276 273 277 277 279 279 276 276 279 278 277 275 280 276 279 276 276 279 277 278 277 277 274 279 277 279 275 276 277 276 280 278 276 279 274 275 277 275 277 277 277 279 277 277 274 279 277 278 274 275 279 276 278 277 280 279 279 277 276 277 279 277 276 277 275 279 279 277 274 276 279 279 277 278 277 278 275 277 277 278 277 276 278 278 277 277 277 279 273 275 278 275 279 278 277 278 279 277 276 277 277 278 279 276 276 273 277 280 274 278 279 277 277 278 278 279 275 278 278 277 279 280 276 278 280 280 281 279 274 278 278 278 276 279 278 280 278 274 278 277 280 278 280 278 274 278 279 280 279 279 278 280 277 276 280 278 276 278 280 275 280 277 279 277 279 279 276 278 280 278 280 279 278 279 278 278 279 280 278 278 274 279 278 276 278 279 280 278 278 280 278 276 279 278 279 276 278 280 278 279 277 278 278 280 275 278 276 280 278 281 277 278 278 278 279 280 278 279 279 276 280 278 279 280 277 278 278 280 279 278 279 276 278 274 280 279 275 278 280 278 278 277 279 280 275 279 281 279 279 278 278 280 277 278 278 277 278 275 280 279 279 276 279 278 278 277 277 279 281 279 277 278 276 280 279 278 278 278 278 280 275 280 280 277 275 276 279 281 278 278 278 280 278 278 279 278 276 278 279 277 277 280 280 279 278 278 275 280 280 281 278 278 278 279 276 278 277 279 277 280 278 277 276 278 281 277 275 280 278 280 280 278 278 279 278 278 274 279 280 278 277 277 275 279 280 279 277 278 280 278 276 279 275 279 278 278 279 280 280 277 278 278 278 280 278 279 279 277 280 279 278 278 275 279 276 278 280 278 278 279 277 280 278 281 280 280 278 278 278 280 279 277 278 277 278 280 277 280 276 278 279 278 278 279 281 280 280 278 277 279 279 277 278 280 278 277 279 275 278 278 275 278 279 278 277 280 281 279 277 280 277 279 278 278 280 279 277 279 279 281 279 278 277 275 279 278 278 278 280 275 278 279 278 277 279 276 278 278 278 279 278 278 280 279 281 279 279 277 277 278 276 279 280 278 278 278 279 279 276 278 280 276 279 276 280 279 278 278 278 280 279 276 278 278 278 278 278 279 276 277 280 279 281 280 276 279 277 278 279 279 278 278 277 278 278 275 279 279 279 280 278 278 278 278 276 281 280 278 280 278 278 279 277 278 279 277 280 279 276 276 279 278 278 279 281 278 280 280 277 279 278 280 278 278 278 280 278 278 280 278 279 276 279 276 278 281 280 280 279 278 278 278 278 279 280 279 279 277 278 278 278 279 278 281 279 277 278 278 280 278 276 278 278 279 277 279 279 278 278 277 277 281 278 279 278 278 280 279 275 278 280 274 278 280 277 279 277 278 278 278 278 279 280 281 278 280 278 277 279 277 277 274 278 280 278 278 278 277 280 278 277 278 281 278 280 280 278 280 278 278 279 278 277 280 279 278 276 280 280 277 279 278 278 279 277 279 278 277 278 277 277 280 280 278 278 279 277 278 279 276 279 277 281 277 280 279 280 278 278 279 279 276 280 280 278 278 280 276 275 281 277 279 276 280 276 279 276 277 280 278 280 278 278 277 279 278 278 278 279 280 280 278 280 278 280 276 279 278 279 279 276 278 279 278 278 278 278 278 277 279 281 278 279 280 278 279 276 278 278 279 278 280 278 279 275 277 279 276 277 279 280 281 280 279 278 278 279 278 280 278 277 278 278 276 279 278 278 279 278 279 280 279 278 278 277 276 280 280 277 279 279 278 279 276 279 277 278 280 276 280 278 281 278 277 278 276 280 279 277 277 280 278 278 279 278 278 280 279 276 277 278 281 278 277 278 280 278 279 278 280 280 277 280 277 279 277 279 281 278 277 278 277 278 276 280 276 279 280 277 279 277 279 278 278 280 279 275 278 278 281 278 277 278 279 277 278 280 280 279 276 278 280 280 278 278 279 277 280 278 276 278 278 279 277 276 280 277 278 277 278 276 280 278 279 280 278 280 280 278 280 280 278 279 278 275 279 278 278 278 278 279 280 276 279 278 278 281 280 276 276 279 278 278 280 278 276 278 278 278 278 279 278 280 279 277 276 280 280 280 280 279 277 278 278 278 279 278 278 278 280 279 278 277 276 280 280 281 278 277 278 279 276 278 279 277 275 279 278 278 279 280 278 278 277 280 279 277 281 280 278 277 277 279 280 277 278 275 280 277 280 277 278 279 278 279 279 277 281 278 278 278 280 280 277 278 277 276 279 278 279 278 278 277 278 278 279 278 276 280 281 280 279 278 278 278 278 278 279 278 276 280 278 280 278 279 277 278 278 281 280 278 280 278 277 278 276 278 280 277 279 275 280 280 276 278 279 275 275 280 276 278 279 278 278 279 277 277 278 278 280 276 280 280 278 278 275 280 278 280 278 279 277 279 277 279 277 278 278 278 279 278 280 280 277 276 279 281 278 279 278 279 277 277 276 278 278 278 278 280 280 277 279 278 277 279 278 277 276 281 279 279 276 278 278 278 279 278 278 280 280 277 279 278 275 280 278 278 280 280 279 280 278 277 278 278 276 279 279 278 280 277 279 278 278 279 278 280 279 278 281 278 278 278 279 276 278 278 280 276 279 276 276 277 278 280 280 277 279 280 280 278 277 277 278 278 279 277 279 279 279 278 278 277 279 278 276 279 280 280 280 276 278 278 276 278 278 279 280 278 277 278 276 279 280 277 280 280 278 277 279 281 276 278 278 277 278 279 278 279 278 278 280 278 278 280 280 278 275 279 281 278 278 276 279 278 278 278 280 280 277 278 278 276 277 279 280 280 280 278 277 278 277 279 277 277 280 276 279 278 278 278 278 278 278 280 278 279 281 280 275 279 278 278 278 279 278 279 278 276 279 279 278 278 279 278 276 280 279 278 277 279 281 280 278 279 277 279 274 278 279 278 278 280 278 278 280 280 277 276 277 279 278 279 281 279 280 278 278 278 280 279 276 278 279 278 278 280 280 278 277 281 278 279 276 278 280 277 278 277 278 278 279 280 275 278 279 278 278 280 278 278 277 277 278 280 277 281 278 279 280 279 276 278 278 278 278 278 280 277 280 272 279 282 278 281 280 277 279 279 280 279 279 278 281 280 279 279 277 280 277 280 279 278 281 281 282 279 276 280 279 279 281 278 280 278 279 279 278 280 279 281 281 279 281 279 280 277 279 278 279 279 277 280 281 279 277 281 277 279 280 279 282 279 280 277 277 281 279 280 279 280 281 280 281 279 280 276 279 278 279 277 280 280 278 282 280 279 280 279 279 277 280 280 281 279 278 278 279 280 279 278 278 280 281 282 279 279 279 278 281 279 279 281 281 276 280 279 281 279 281 278 280 280 282 279 278 281 279 279 279 278 280 278 281 278 278 278 276 281 280 278 280 279 280 281 279 279 281 278 278 280 280 279 278 279 281 279 279 276 280 280 281 280 279 278 278 281 280 280 278 277 278 278 278 278 279 279 281 277 278 279 277 280 280 279 280 282 281 278 280 279 278 281 279 279 279 278 281 277 278 280 281 279 278 281 279 278 280 282 279 278 279 279 279 279 279 280 281 279 278 281 281 279 280 277 280 282 281 279 279 279 276 280 279 280 280 279 279 279 281 282 278 278 280 279 278 278 279 280 277 281 276 279 281 280 277 280 279 279 280 277 278 282 279 281 278 279 281 279 278 279 280 279 281 280 277 281 279 280 279 280 279 278 277 281 278 281 282 278 279 280 280 279 278 281 277 281 279 277 278 281 281 278 280 278 282 281 280 280 279 279 281 278 278 280 275 278 278 279 279 278 279 280 280 278 279 279 278 281 280 279 281 280 279 279 281 279 278 278 279 281 281 276 280 278 282 281 278 281 279 279 280 279 280 278 279 279 278 279 278 279 280 279 279 279 281 276 279 279 282 279 279 281 279 279 281 279 277 278 280 279 278 279 280 279 281 279 277 279 279 280 279 280 278 281 279 280 280 278 278 277 281 279 279 279 278 282 281 276 278 280 281 280 279 280 279 280 278 278 280 279 279 280 278 281 279 281 277 279 278 282 280 279 281 279 280 279 278 280 279 279 281 279 281 280 279 279 282 280 279 280 277 279 279 280 281 279 281 276 279 281 279 281 279 278 280 282 280 281 278 281 279 278 279 281 277 281 281 278 280 279 278 279 279 278 282 280 278 280 279 279 280 279 280 278 281 279 278 276 280 278 279 279 280 281 279 277 281 279 280 282 281 278 281 278 278 279 279 280 279 279 279 280 281 279 276 281 279 281 281 279 278 280 278 279 281 281 280 279 275 281 281 276 279 279 280 278 279 279 279 281 279 281 279 278 280 279 279 278 279 281 279 280 281 277 277 279 280 282 279 279 279 278 280 279 279 280 280 277 279 281 281 279 279 279 279 280 278 279 277 277 281 280 281 281 281 277 279 278 279 279 280 279 280 279 277 280 279 279 279 279 281 282 281 277 281 279 279 278 280 281 279 280 279 278 279 278 280 281 282 281 279 281 278 279 280 279 279 278 277 278 281 280 279 280 277 280 279 282 280 279 279 278 280 280 280 278 279 276 279 281 279 279 279 281 281 279 278 280 279 282 278 278 278 281 280 279 279 280 279 277 280 281 277 281 279 278 276 278 281 279 279 279 282 278 280 279 281 278 281 278 280 280 279 279 281 276 277 279 281 278 280 279 278 282 279 281 278 280 278 279 280 279 281 281 279 278 277 280 280 279 280 282 278 281 279 281 278 279 278 278 279 281 281 278 279 280 276 279 279 280 280 278 281 280 279 282 279 278 280 278 279 278 281 281 279 278 277 280 279 279 277 280 282 280 279 280 281 279 277 280 281 279 279 280 281 279 277 278 279 281 280 275 282 280 278 278 280 278 279 280 278 280 279 280 281 279 281 276 278 279 279 282 280 277 279 279 281 279 281 279 277 280 279 278 280 279 281 281 280 279 279 278 281 280 280 278 280 279 279 277 281 279 281 278 281 279 278 279 278 278 280 278 282 279 280 280 280 279 278 279 281 277 279 281 279 280 280 281 279 279 280 279 278 279 280 281 282 280 279 279 280 279 279 277 281 278 280 278 277 281 279 279 277 281 281 278 279 279 282 279 279 278 281 279 280 278 277 281 278 280 281 278 279 281 278 279 279 281 282 280 278 279 280 279 278 279 279 281 280 279 277 279 280 278 281 280 278 281 281 279 280 279 280 281 281 279 277 277 280 279 279 280 277 278 281 280 279 280 281 280 279 279 279 280 278 281 278 279 278 279 278 279 279 279 279 279 281 281 276 281 279 279 279 281 280 281 279 280 277 279 281 279 278 279 281 277 277 279 279 279 279 280 282 277 280 280 279 280 279 281 278 280 281 279 280 279 279 278 279 276 279 281 281 280 279 279 279 278 280 279 281 279 279 280 278 280 280 279 279 276 280 280 282 279 278 280 280 280 279 279 277 281 278 278 280 278 281 281 279 282 277 280 281 279 277 279 278 280 280 280 279 276 281 279 279 281 279 281 278 279 280 282 278 278 281 277 277 281 278 279 279 280 280 280 278 279 280 278 281 281 282 278 281 278 279 278 279 280 279 279 281 276 279 281 279 279 279 281 281 279 278 279 282 278 279 281 281 279 279 280 279 279 279 277 280 278 281 279 281 281 279 282 280 277 279 280 279 280 279 279 279 280 281 277 278 279 279 281 281 278 278 278 280 282 279 279 279 281 280 279 280 280 279 277 280 277 279 281 281 279 279 279 279 280 280 278 281 278 279 281 279 281 278 280 278 280 277 280 279 281 279 279 277 281 282 281 278 280 278 279 278 278 277 280 277 280 281 278 279 280 281 277 280 279 280 282 281 279 280 278 278 279 276 280 278 279 279 279 280 280 281 279 281 276 282 279 279 279 279 278 279 280 278 279 279 279 279 281 279 278 279 281 279 279 279 279 278 277 279 281 279 279 280 278 281 279 281 280 280 279 279 281 279 278 279 280 279 278 278 279 279 279 281 279 279 279 279 277 279 280 279 278 279 279 280 280 279 279 278 278 278 281 282 280 278 279 281 278 280 278 278 281 279 281 278 276 280 279 278 279 280 281 279 279 279 278 279 279 279 279 281 281 278 280 282 279 279 281 278 279 279 279 280 279 278 280 277 278 279 281 279 280 279 279 279 278 281 278 279 279 280 279 279 278 280 281 279 276 279 280 278 278 282 279 279 280 278 279 279 280 277 279 278 281 277 281 279 281 279 279 280 278 279 279 277 280 279 278 279 277 280 281 278 280 277 279 277 281 281 279 280 279 279 277 279 278 282 278 279 276 281 278 281 279 279 278 280 279 279 278 280 279 278 279 280 277 280 279 279 281 280 279 279 279 278 280 278 278 281 279 279 279 280 279 281 279 280 278 279 279 280 279 279 279 281 276 281 278 280 278 277 279 280 278 280 279 278 279 278 279 279 281 281 278 277 281 279 279 281 280 278 279 279 281 277 279 279 279 281 279 280 278 279 280 278 278 279 279 276 278 280 281 279 277 280 278 279 281 277 279 281 278 281 278 279 280 278 279 279 279 280 280 279 279 279 279 279 279 279 278 280 279 280 279 281 278 280 279 280 279 279 278 277 278 279 278 277 280 279 279 280 280 280 279 279 279 279 279 281 281 278 277 281 278 279 279 279 281 277 281 278 278 279 280 279 279 281 278 279 278 277 279 279 278 280 281 281 279 280 279 279 279 278 280 278 279 279 279 278 281 277 280 279 278 279 279 278 279 281 279 279 277 279 280 280 281 279 278 279 279 280 282 280 279 279 279 276 281 279 279 276 279 280 279 279 278 279 280 278 279 281 279 279 278 281 279 280 278 279 280 279 279 278 279 281 276 280 281 279 278 279 280 281 279 279 279 281 278 278 278 278 278 281 278 280 281 279 278 280 279 278 279 278 279 281 279 279 279 277 280 279 280 278 279 279 279 279 279 281 281 281 281 280 278 279 278 279 280 278 278 277 278 280

Tree=0
num_leaves=2
num_cat=0
split_feature=3
split_gain=10.208
threshold=1.0000000180025095e-35
decision_type=2
left_child=-1
right_child=-2
leaf_value=-4.4971227405806768 -4.4945760078657964
leaf_count=1398 54
internal_value=0
internal_count=1452
shrinkage=1


Tree=1
num_leaves=2
num_cat=0
split_feature=3
split_gain=10.1722
threshold=1.0000000180025095e-35
decision_type=2
left_child=-1
right_child=-2
leaf_value=-9.4665178105880565e-05 0.0024446772888145393
leaf_count=1398 54
internal_value=0
internal_count=1452
shrinkage=0.0006


Tree=2
num_leaves=2
num_cat=0
split_feature=3
split_gain=10.1367
threshold=1.0000000180025095e-35
decision_type=2
left_child=-1
right_child=-2
leaf_value=-9.4617096413468225e-05 0.0024373751487045442
leaf_count=1398 54
internal_value=0
internal_count=1452
shrinkage=0.0006


Tree=3
num_leaves=2
num_cat=0
split_feature=3
split_gain=10.1014
threshold=1.0000000180025095e-35
decision_type=2
left_child=-1
right_child=-2
leaf_value=-9.4569079071617521e-05 0.0024301121442831964
leaf_count=1398 54
internal_value=0
internal_count=1452
shrinkage=0.0006


Tree=4
num_leaves=2
num_cat=0
split_feature=3
split_gain=10.0662
threshold=1.0000000180025095e-35
decision_type=2
left_child=-1
right_child=-2
leaf_value=-9.4521103663983388e-05 0.0024228885297780554
leaf_count=1398 54
internal_value=0
internal_count=1452
shrinkage=0.0006


Tree=5
num_leaves=2
num_cat=0
split_feature=3
split_gain=10.0313
threshold=1.0000000180025095e-35
decision_type=2
left_child=-1
right_child=-2
leaf_value=-9.4473080772603194e-05 0.0024157038344899948
leaf_count=1398 54
internal_value=0
internal_count=1452
shrinkage=0.0006


Tree=6
num_leaves=2
num_cat=0
split_feature=3
split_gain=9.99651
threshold=1.0000000180025095e-35
decision_type=2
left_child=-1
right_child=-2
leaf_value=-9.4425130363231499e-05 0.002408557342925651
leaf_count=1398 54
internal_value=0
internal_count=1452
shrinkage=0.0006


Tree=7
num_leaves=2
num_cat=0
split_feature=3
split_gain=9.96194
threshold=1.0000000180025095e-35
decision_type=2
left_child=-1
right_child=-2
leaf_value=-9.4377213849665428e-05 0.0024014493133673086
leaf_count=1398 54
internal_value=0
internal_count=1452
shrinkage=0.0006


Tree=8
num_leaves=2
num_cat=0
split_feature=3
split_gain=9.92757
threshold=1.0000000180025095e-35
decision_type=2
left_child=-1
right_child=-2
leaf_value=-9.4329331253591083e-05 0.0023943793097356853
leaf_count=1398 54
internal_value=0
internal_count=1452
shrinkage=0.0006


Tree=9
num_leaves=2
num_cat=0
split_feature=3
split_gain=9.89338
threshold=1.0000000180025095e-35
decision_type=2
left_child=-1
right_child=-2
leaf_value=-9.4281409278300501e-05 0.0023873467843355312
leaf_count=1398 54
internal_value=0
internal_count=1452
shrinkage=0.0006


Tree=10
num_leaves=2
num_cat=0
split_feature=3
split_gain=9.85937
threshold=1.0000000180025095e-35
decision_type=2
left_child=-1
right_child=-2
leaf_value=-9.4233500940579562e-05 0.0023803516212881296
leaf_count=1398 54
internal_value=0
internal_count=1452
shrinkage=0.0006


Tree=11
num_leaves=2
num_cat=0
split_feature=3
split_gain=9.82555
threshold=1.0000000180025095e-35
decision_type=2
left_child=-1
right_child=-2
leaf_value=-9.418567741030696e-05 0.0023733935484809223
leaf_count=1398 54
internal_value=0
internal_count=1452
shrinkage=0.0006


Tree=12
num_leaves=2
num_cat=0
split_feature=3
split_gain=9.79192
threshold=1.0000000180025095e-35
decision_type=2
left_child=-1
right_child=-2
leaf_value=-9.4137845066955456e-05 0.0023664721254726801
leaf_count=1398 54
internal_value=0
internal_count=1452
shrinkage=0.0006


Tree=13
num_leaves=2
num_cat=0
split_feature=3
split_gain=9.75846
threshold=1.0000000180025095e-35
decision_type=2
left_child=-1
right_child=-2
leaf_value=-9.4090046717314169e-05 0.0023595870201599776
leaf_count=1398 54
internal_value=0
internal_count=1452
shrinkage=0.0006


Tree=14
num_leaves=2
num_cat=0
split_feature=3
split_gain=9.72519
threshold=1.0000000180025095e-35
decision_type=2
left_child=-1
right_child=-2
leaf_value=-9.4042200963243664e-05 0.00235273832164609
leaf_count=1398 54
internal_value=0
internal_count=1452
shrinkage=0.0006


Tree=15
num_leaves=2
num_cat=0
split_feature=3
split_gain=9.6921
threshold=1.0000000180025095e-35
decision_type=2
left_child=-1
right_child=-2
leaf_value=-9.3994427833232432e-05 0.0023459254239480659
leaf_count=1398 54
internal_value=0
internal_count=1452
shrinkage=0.0006


Tree=16
num_leaves=2
num_cat=0
split_feature=3
split_gain=9.65918
threshold=1.0000000180025095e-35
decision_type=2
left_child=-1
right_child=-2
leaf_value=-9.3946688745851392e-05 0.0023391481499590258
leaf_count=1398 54
internal_value=0
internal_count=1452
shrinkage=0.0006


Tree=17
num_leaves=2
num_cat=0
split_feature=3
split_gain=9.62644
threshold=1.0000000180025095e-35
decision_type=2
left_child=-1
right_child=-2
leaf_value=-9.389894088142308e-05 0.0023324059337955644
leaf_count=1398 54
internal_value=0
internal_count=1452
shrinkage=0.0006


Tree=18
num_leaves=2
num_cat=0
split_feature=3
split_gain=9.59387
threshold=1.0000000180025095e-35
decision_type=2
left_child=-1
right_child=-2
leaf_value=-9.3851227086877656e-05 0.0023256990172154852
leaf_count=1398 54
internal_value=0
internal_count=1452
shrinkage=0.0006


Tree=19
num_leaves=2
num_cat=0
split_feature=3
split_gain=9.56148
threshold=1.0000000180025095e-35
decision_type=2
left_child=-1
right_child=-2
leaf_value=-9.3803547383858112e-05 0.0023190269540569889
leaf_count=1398 54
internal_value=0
internal_count=1452
shrinkage=0.0006


Tree=20
num_leaves=2
num_cat=0
split_feature=3
split_gain=9.52926
threshold=1.0000000180025095e-35
decision_type=2
left_child=-1
right_child=-2
leaf_value=-9.3755850901535646e-05 0.0023123890993048618
leaf_count=1398 54
internal_value=0
internal_count=1452
shrinkage=0.0006


Tree=21
num_leaves=2
num_cat=0
split_feature=3
split_gain=9.49721
threshold=1.0000000180025095e-35
decision_type=2
left_child=-1
right_child=-2
leaf_value=-9.3708165993386996e-05 0.0023057857887299072
leaf_count=1398 54
internal_value=0
internal_count=1452
shrinkage=0.0006


Tree=22
num_leaves=2
num_cat=0
split_feature=3
split_gain=9.46533
threshold=1.0000000180025095e-35
decision_type=2
left_child=-1
right_child=-2
leaf_value=-9.3660553818257809e-05 0.0022992163065149764
leaf_count=1398 54
internal_value=0
internal_count=1452
shrinkage=0.0006


Tree=23
num_leaves=2
num_cat=0
split_feature=3
split_gain=9.43362
threshold=1.0000000180025095e-35
decision_type=2
left_child=-1
right_child=-2
leaf_value=-9.3612916874949889e-05 0.002292680673677295
leaf_count=1398 54
internal_value=0
internal_count=1452
shrinkage=0.0006


Tree=24
num_leaves=2
num_cat=0
split_feature=3
split_gain=9.40208
threshold=1.0000000180025095e-35
decision_type=2
left_child=-1
right_child=-2
leaf_value=-9.3565322119669781e-05 0.0022861782173959825
leaf_count=1398 54
internal_value=0
internal_count=1452
shrinkage=0.0006


Tree=25
num_leaves=2
num_cat=0
split_feature=3
split_gain=9.3707
threshold=1.0000000180025095e-35
decision_type=2
left_child=-1
right_child=-2
leaf_value=-9.3517769564006561e-05 0.0022797092286016372
leaf_count=1398 54
internal_value=0
internal_count=1452
shrinkage=0.0006


Tree=26
num_leaves=2
num_cat=0
split_feature=3
split_gain=9.33949
threshold=1.0000000180025095e-35
decision_type=2
left_child=-1
right_child=-2
leaf_value=-9.3470192285051025e-05 0.0022732730995590682
leaf_count=1398 54
internal_value=0
internal_count=1452
shrinkage=0.0006


Tree=27
num_leaves=2
num_cat=0
split_feature=3
split_gain=9.30844
threshold=1.0000000180025095e-35
decision_type=2
left_child=-1
right_child=-2
leaf_value=-9.3422657232932615e-05 0.0022668695836162117
leaf_count=1398 54
internal_value=0
internal_count=1452
shrinkage=0.0006


Tree=28
num_leaves=2
num_cat=0
split_feature=3
split_gain=9.27754
threshold=1.0000000180025095e-35
decision_type=2
left_child=-1
right_child=-2
leaf_value=-9.3375113489488389e-05 0.0022604984365869069
leaf_count=1398 54
internal_value=0
internal_count=1452
shrinkage=0.0006


Tree=29
num_leaves=2
num_cat=0
split_feature=3
split_gain=9.24682
threshold=1.0000000180025095e-35
decision_type=2
left_child=-1
right_child=-2
leaf_value=-9.332765492412445e-05 0.0022541597674751207
leaf_count=1398 54
internal_value=0
internal_count=1452
shrinkage=0.0006


Tree=30
num_leaves=2
num_cat=0
split_feature=3
split_gain=9.21625
threshold=1.0000000180025095e-35
decision_type=2
left_child=-1
right_child=-2
leaf_value=-9.3280128755250793e-05 0.0022478528495255647
leaf_count=1398 54
internal_value=0
internal_count=1452
shrinkage=0.0006


Tree=31
num_leaves=2
num_cat=0
split_feature=3
split_gain=9.18584
threshold=1.0000000180025095e-35
decision_type=2
left_child=-1
right_child=-2
leaf_value=-9.3232687807644923e-05 0.0022415777147979724
leaf_count=1398 54
internal_value=0
internal_count=1452
shrinkage=0.0006


Tree=32
num_leaves=2
num_cat=0
split_feature=3
split_gain=9.15558
threshold=1.0000000180025095e-35
decision_type=2
left_child=-1
right_child=-2
leaf_value=-9.3185238207150128e-05 0.0022353339937871528
leaf_count=1398 54
internal_value=0
internal_count=1452
shrinkage=0.0006


Tree=33
num_leaves=2
num_cat=0
split_feature=3
split_gain=9.12549
threshold=1.0000000180025095e-35
decision_type=2
left_child=-1
right_child=-2
leaf_value=-9.3137830904381282e-05 0.0022291216681753819
leaf_count=1398 54
internal_value=0
internal_count=1452
shrinkage=0.0006


Tree=34
num_leaves=2
num_cat=0
split_feature=3
split_gain=9.09554
threshold=1.0000000180025095e-35
decision_type=2
left_child=-1
right_child=-2
leaf_value=-9.3090398992644416e-05 0.0022229402482626397
leaf_count=1398 54
internal_value=0
internal_count=1452
shrinkage=0.0006


Tree=35
num_leaves=2
num_cat=0
split_feature=3
split_gain=9.06575
threshold=1.0000000180025095e-35
decision_type=2
left_child=-1
right_child=-2
leaf_value=-9.3043060368090189e-05 0.0022167895960348819
leaf_count=1398 54
internal_value=0
internal_count=1452
shrinkage=0.0006


Tree=36
num_leaves=2
num_cat=0
split_feature=3
split_gain=9.03612
threshold=1.0000000180025095e-35
decision_type=2
left_child=-1
right_child=-2
leaf_value=-9.2995662155497886e-05 0.0022106695644364513
leaf_count=1398 54
internal_value=0
internal_count=1452
shrinkage=0.0006


Tree=37
num_leaves=2
num_cat=0
split_feature=3
split_gain=9.00663
threshold=1.0000000180025095e-35
decision_type=2
left_child=-1
right_child=-2
leaf_value=-9.2948341312583494e-05 0.00220457980629648
leaf_count=1398 54
internal_value=0
internal_count=1452
shrinkage=0.0006


Tree=38
num_leaves=2
num_cat=0
split_feature=3
split_gain=8.9773
threshold=1.0000000180025095e-35
decision_type=2
left_child=-1
right_child=-2
leaf_value=-9.2901011866436555e-05 0.0021985201449281435
leaf_count=1398 54
internal_value=0
internal_count=1452
shrinkage=0.0006


Tree=39
num_leaves=2
num_cat=0
split_feature=3
split_gain=8.94811
threshold=1.0000000180025095e-35
decision_type=2
left_child=-1
right_child=-2
leaf_value=-9.2853724795512548e-05 0.0021924904439405949
leaf_count=1398 54
internal_value=0
internal_count=1452
shrinkage=0.0006


Tree=40
num_leaves=2
num_cat=0
split_feature=3
split_gain=8.91907
threshold=1.0000000180025095e-35
decision_type=2
left_child=-1
right_child=-2
leaf_value=-9.2806421165616453e-05 0.0021864903536909243
leaf_count=1398 54
internal_value=0
internal_count=1452
shrinkage=0.0006


Tree=41
num_leaves=2
num_cat=0
split_feature=3
split_gain=8.89018
threshold=1.0000000180025095e-35
decision_type=2
left_child=-1
right_child=-2
leaf_value=-9.2759151974468719e-05 0.0021805197086997839
leaf_count=1398 54
internal_value=0
internal_count=1452
shrinkage=0.0006


Tree=42
num_leaves=2
num_cat=0
split_feature=3
split_gain=8.86144
threshold=1.0000000180025095e-35
decision_type=2
left_child=-1
right_child=-2
leaf_value=-9.2711917243612309e-05 0.0021745782079412063
leaf_count=1398 54
internal_value=0
internal_count=1452
shrinkage=0.0006


Tree=43
num_leaves=2
num_cat=0
split_feature=3
split_gain=8.83284
threshold=1.0000000180025095e-35
decision_type=2
left_child=-1
right_child=-2
leaf_value=-9.2664704582003777e-05 0.0021686656850432463
leaf_count=1398 54
internal_value=0
internal_count=1452
shrinkage=0.0006


Tree=44
num_leaves=2
num_cat=0
split_feature=3
split_gain=8.80438
threshold=1.0000000180025095e-35
decision_type=2
left_child=-1
right_child=-2
leaf_value=-9.2617503721209246e-05 0.0021627822639359367
leaf_count=1398 54
internal_value=0
internal_count=1452
shrinkage=0.0006


Tree=45
num_leaves=2
num_cat=0
split_feature=3
split_gain=8.77606
threshold=1.0000000180025095e-35
decision_type=2
left_child=-1
right_child=-2
leaf_value=-9.2570329419071424e-05 0.0021569271928659883
leaf_count=1398 54
internal_value=0
internal_count=1452
shrinkage=0.0006


Tree=46
num_leaves=2
num_cat=0
split_feature=3
split_gain=8.74789
threshold=1.0000000180025095e-35
decision_type=2
left_child=-1
right_child=-2
leaf_value=-9.2523146574602629e-05 0.0021511005230652178
leaf_count=1398 54
internal_value=0
internal_count=1452
shrinkage=0.0006


Tree=47
num_leaves=2
num_cat=0
split_feature=3
split_gain=8.71986
threshold=1.0000000180025095e-35
decision_type=2
left_child=-1
right_child=-2
leaf_value=-9.2476006203270957e-05 0.0021453020080287248
leaf_count=1398 54
internal_value=0
internal_count=1452
shrinkage=0.0006


Tree=48
num_leaves=2
num_cat=0
split_feature=3
split_gain=8.69197
threshold=1.0000000180025095e-35
decision_type=2
left_child=-1
right_child=-2
leaf_value=-9.2428900382931207e-05 0.0021395314030725424
leaf_count=1398 54
internal_value=0
internal_count=1452
shrinkage=0.0006


Tree=49
num_leaves=2
num_cat=0
split_feature=3
split_gain=8.66421
threshold=1.0000000180025095e-35
decision_type=2
left_child=-1
right_child=-2
leaf_value=-9.2381808761129053e-05 0.0021337887612454679
leaf_count=1398 54
internal_value=0
internal_count=1452
shrinkage=0.0006


Tree=50
num_leaves=2
num_cat=0
split_feature=3
split_gain=8.63659
threshold=1.0000000180025095e-35
decision_type=2
left_child=-1
right_child=-2
leaf_value=-9.2334721073826937e-05 0.0021280736337358202
leaf_count=1398 54
internal_value=0
internal_count=1452
shrinkage=0.0006


Tree=51
num_leaves=2
num_cat=0
split_feature=3
split_gain=8.60911
threshold=1.0000000180025095e-35
decision_type=2
left_child=-1
right_child=-2
leaf_value=-9.2287624880280271e-05 0.0021223858698099186
leaf_count=1398 54
internal_value=0
internal_count=1452
shrinkage=0.0006


Tree=52
num_leaves=2
num_cat=0
split_feature=3
split_gain=8.58177
threshold=1.0000000180025095e-35
decision_type=2
left_child=-1
right_child=-2
leaf_value=-9.2240614339489474e-05 0.0021167252331387503
leaf_count=1398 54
internal_value=0
internal_count=1452
shrinkage=0.0006


Tree=53
num_leaves=2
num_cat=0
split_feature=3
split_gain=8.55456
threshold=1.0000000180025095e-35
decision_type=2
left_child=-1
right_child=-2
leaf_value=-9.2193544267484912e-05 0.0021110917790145333
leaf_count=1398 54
internal_value=0
internal_count=1452
shrinkage=0.0006


Tree=54
num_leaves=2
num_cat=0
split_feature=3
split_gain=8.52748
threshold=1.0000000180025095e-35
decision_type=2
left_child=-1
right_child=-2
leaf_value=-9.2146590551462856e-05 0.0021054847935379011
leaf_count=1398 54
internal_value=0
internal_count=1452
shrinkage=0.0006


Tree=55
num_leaves=2
num_cat=0
split_feature=3
split_gain=8.50054
threshold=1.0000000180025095e-35
decision_type=2
left_child=-1
right_child=-2
leaf_value=-9.209958978639984e-05 0.0020999045270632547
leaf_count=1398 54
internal_value=0
internal_count=1452
shrinkage=0.0006


Tree=56
num_leaves=2
num_cat=0
split_feature=3
split_gain=8.47373
threshold=1.0000000180025095e-35
decision_type=2
left_child=-1
right_child=-2
leaf_value=-9.2052631610438598e-05 0.002094350837240824
leaf_count=1398 54
internal_value=0
internal_count=1452
shrinkage=0.0006


Tree=57
num_leaves=2
num_cat=0
split_feature=3
split_gain=8.44705
threshold=1.0000000180025095e-35
decision_type=2
left_child=-1
right_child=-2
leaf_value=-9.2005657067473087e-05 0.0020888231779555145
leaf_count=1398 54
internal_value=0
internal_count=1452
shrinkage=0.0006


Tree=58
num_leaves=2
num_cat=0
split_feature=3
split_gain=8.4205
threshold=1.0000000180025095e-35
decision_type=2
left_child=-1
right_child=-2
leaf_value=-9.1958755812015245e-05 0.0020833217712704372
leaf_count=1398 54
internal_value=0
internal_count=1452
shrinkage=0.0006


Tree=59
num_leaves=2
num_cat=0
split_feature=3
split_gain=8.39407
threshold=1.0000000180025095e-35
decision_type=2
left_child=-1
right_child=-2
leaf_value=-9.1911858605327551e-05 0.0020778460298247416
leaf_count=1398 54
internal_value=0
internal_count=1452
shrinkage=0.0006


Tree=60
num_leaves=2
num_cat=0
split_feature=3
split_gain=8.36778
threshold=1.0000000180025095e-35
decision_type=2
left_child=-1
right_child=-2
leaf_value=-9.1864945066419897e-05 0.0020723961374932765
leaf_count=1398 54
internal_value=0
internal_count=1452
shrinkage=0.0006


Tree=61
num_leaves=2
num_cat=0
split_feature=3
split_gain=8.34161
threshold=1.0000000180025095e-35
decision_type=2
left_child=-1
right_child=-2
leaf_value=-9.1818066285198177e-05 0.0020669716018023392
leaf_count=1398 54
internal_value=0
internal_count=1452
shrinkage=0.0006


Tree=62
num_leaves=2
num_cat=0
split_feature=3
split_gain=8.31557
threshold=1.0000000180025095e-35
decision_type=2
left_child=-1
right_child=-2
leaf_value=-9.1771260859255244e-05 0.0020615725194980342
leaf_count=1398 54
internal_value=0
internal_count=1452
shrinkage=0.0006


Tree=63
num_leaves=2
num_cat=0
split_feature=3
split_gain=8.28966
threshold=1.0000000180025095e-35
decision_type=2
left_child=-1
right_child=-2
leaf_value=-9.1724416333517186e-05 0.002056198440112319
leaf_count=1398 54
internal_value=0
internal_count=1452
shrinkage=0.0006


Tree=64
num_leaves=2
num_cat=0
split_feature=3
split_gain=8.26387
threshold=1.0000000180025095e-35
decision_type=2
left_child=-1
right_child=-2
leaf_value=-9.1677598726824422e-05 0.0020508493564126628
leaf_count=1398 54
internal_value=0
internal_count=1452
shrinkage=0.0006


Tree=65
num_leaves=2
num_cat=0
split_feature=3
split_gain=8.2382
threshold=1.0000000180025095e-35
decision_type=2
left_child=-1
right_child=-2
leaf_value=-9.1630811298917101e-05 0.0020455252434752511
leaf_count=1398 54
internal_value=0
internal_count=1452
shrinkage=0.0006


Tree=66
num_leaves=2
num_cat=0
split_feature=3
split_gain=8.21266
threshold=1.0000000180025095e-35
decision_type=2
left_child=-1
right_child=-2
leaf_value=-9.1584020129292489e-05 0.0020402255926502506
leaf_count=1398 54
internal_value=0
internal_count=1452
shrinkage=0.0006


Tree=67
num_leaves=2
num_cat=0
split_feature=3
split_gain=8.18723
threshold=1.0000000180025095e-35
decision_type=2
left_child=-1
right_child=-2
leaf_value=-9.1537271684997512e-05 0.0020349504168630972
leaf_count=1398 54
internal_value=0
internal_count=1452
shrinkage=0.0006


Tree=68
num_leaves=2
num_cat=0
split_feature=3
split_gain=8.16193
threshold=1.0000000180025095e-35
decision_type=2
left_child=-1
right_child=-2
leaf_value=-9.1490588815713208e-05 0.0020296995219289057
leaf_count=1398 54
internal_value=0
internal_count=1452
shrinkage=0.0006


Tree=69
num_leaves=2
num_cat=0
split_feature=3
split_gain=8.13675
threshold=1.0000000180025095e-35
decision_type=2
left_child=-1
right_child=-2
leaf_value=-9.1443866879752835e-05 0.0020244729347055064
leaf_count=1398 54
internal_value=0
internal_count=1452
shrinkage=0.0006


Tree=70
num_leaves=2
num_cat=0
split_feature=3
split_gain=8.11169
threshold=1.0000000180025095e-35
decision_type=2
left_child=-1
right_child=-2
leaf_value=-9.1397210551358513e-05 0.0020192700292992532
leaf_count=1398 54
internal_value=0
internal_count=1452
shrinkage=0.0006


Tree=71
num_leaves=2
num_cat=0
split_feature=3
split_gain=8.08675
threshold=1.0000000180025095e-35
decision_type=2
left_child=-1
right_child=-2
leaf_value=-9.1350507304729418e-05 0.0020140910651363915
leaf_count=1398 54
internal_value=0
internal_count=1452
shrinkage=0.0006


Tree=72
num_leaves=2
num_cat=0
split_feature=3
split_gain=8.06192
threshold=1.0000000180025095e-35
decision_type=2
left_child=-1
right_child=-2
leaf_value=-9.1303846842407847e-05 0.002008935766344228
leaf_count=1398 54
internal_value=0
internal_count=1452
shrinkage=0.0006


Tree=73
num_leaves=2
num_cat=0
split_feature=3
split_gain=8.03722
threshold=1.0000000180025095e-35
decision_type=2
left_child=-1
right_child=-2
leaf_value=-9.125725204434702e-05 0.0020038038274986505
leaf_count=1398 54
internal_value=0
internal_count=1452
shrinkage=0.0006


Tree=74
num_leaves=2
num_cat=0
split_feature=3
split_gain=8.01262
threshold=1.0000000180025095e-35
decision_type=2
left_child=-1
right_child=-2
leaf_value=-9.1210618201981321e-05 0.0019986953524443302
leaf_count=1398 54
internal_value=0
internal_count=1452
shrinkage=0.0006


Tree=75
num_leaves=2
num_cat=0
split_feature=3
split_gain=7.98815
threshold=1.0000000180025095e-35
decision_type=2
left_child=-1
right_child=-2
leaf_value=-9.1164042212293729e-05 0.0019936097702930159
leaf_count=1398 54
internal_value=0
internal_count=1452
shrinkage=0.0006


Tree=76
num_leaves=2
num_cat=0
split_feature=3
split_gain=7.96378
threshold=1.0000000180025095e-35
decision_type=2
left_child=-1
right_child=-2
leaf_value=-9.1117435031530088e-05 0.0019885473415802383
leaf_count=1398 54
internal_value=0
internal_count=1452
shrinkage=0.0006


Tree=77
num_leaves=2
num_cat=0
split_feature=3
split_gain=7.93954
threshold=1.0000000180025095e-35
decision_type=2
left_child=-1
right_child=-2
leaf_value=-9.1070885742579766e-05 0.0019835078094428225
leaf_count=1398 54
internal_value=0
internal_count=1452
shrinkage=0.0006


Tree=78
num_leaves=2
num_cat=0
split_feature=3
split_gain=7.9154
threshold=1.0000000180025095e-35
decision_type=2
left_child=-1
right_child=-2
leaf_value=-9.102434858751717e-05 0.0019784908163529729
leaf_count=1398 54
internal_value=0
internal_count=1452
shrinkage=0.0006


Tree=79
num_leaves=2
num_cat=0
split_feature=3
split_gain=7.89138
threshold=1.0000000180025095e-35
decision_type=2
left_child=-1
right_child=-2
leaf_value=-9.0977854305228942e-05 0.0019734964187942921
leaf_count=1398 54
internal_value=0
internal_count=1452
shrinkage=0.0006


Tree=80
num_leaves=2
num_cat=0
split_feature=3
split_gain=7.86747
threshold=1.0000000180025095e-35
decision_type=2
left_child=-1
right_child=-2
leaf_value=-9.0931374648917738e-05 0.0019685244563321176
leaf_count=1398 54
internal_value=0
internal_count=1452
shrinkage=0.0006


Tree=81
num_leaves=2
num_cat=0
split_feature=3
split_gain=7.84367
threshold=1.0000000180025095e-35
decision_type=2
left_child=-1
right_child=-2
leaf_value=-9.0884848152267622e-05 0.0019635747399865972
leaf_count=1398 54
internal_value=0
internal_count=1452
shrinkage=0.0006


Tree=82
num_leaves=2
num_cat=0
split_feature=3
split_gain=7.81998
threshold=1.0000000180025095e-35
decision_type=2
left_child=-1
right_child=-2
leaf_value=-9.083843865879638e-05 0.0019586469951016808
leaf_count=1398 54
internal_value=0
internal_count=1452
shrinkage=0.0006


Tree=83
num_leaves=2
num_cat=0
split_feature=3
split_gain=7.7964
threshold=1.0000000180025095e-35
decision_type=2
left_child=-1
right_child=-2
leaf_value=-9.0791990170801409e-05 0.0019537413864612286
leaf_count=1398 54
internal_value=0
internal_count=1452
shrinkage=0.0006


Tree=84
num_leaves=2
num_cat=0
split_feature=3
split_gain=7.77293
threshold=1.0000000180025095e-35
decision_type=2
left_child=-1
right_child=-2
leaf_value=-9.0745564176504125e-05 0.0019488573501381834
leaf_count=1398 54
internal_value=0
internal_count=1452
shrinkage=0.0006


Tree=85
num_leaves=2
num_cat=0
split_feature=3
split_gain=7.74957
threshold=1.0000000180025095e-35
decision_type=2
left_child=-1
right_child=-2
leaf_value=-9.0699216691336593e-05 0.0019439951220953282
leaf_count=1398 54
internal_value=0
internal_count=1452
shrinkage=0.0006


Tree=86
num_leaves=2
num_cat=0
split_feature=3
split_gain=7.72631
threshold=1.0000000180025095e-35
decision_type=2
left_child=-1
right_child=-2
leaf_value=-9.0652830228251164e-05 0.0019391542966392494
leaf_count=1398 54
internal_value=0
internal_count=1452
shrinkage=0.0006


Tree=87
num_leaves=2
num_cat=0
split_feature=3
split_gain=7.70316
threshold=1.0000000180025095e-35
decision_type=2
left_child=-1
right_child=-2
leaf_value=-9.0606466291859514e-05 0.0019343348996147551
leaf_count=1398 54
internal_value=0
internal_count=1452
shrinkage=0.0006


Tree=88
num_leaves=2
num_cat=0
split_feature=3
split_gain=7.68011
threshold=1.0000000180025095e-35
decision_type=2
left_child=-1
right_child=-2
leaf_value=-9.0560106771975051e-05 0.001929536614580939
leaf_count=1398 54
internal_value=0
internal_count=1452
shrinkage=0.0006


Tree=89
num_leaves=2
num_cat=0
split_feature=3
split_gain=7.65718
threshold=1.0000000180025095e-35
decision_type=2
left_child=-1
right_child=-2
leaf_value=-9.0513813207641382e-05 0.0019247594816123232
leaf_count=1398 54
internal_value=0
internal_count=1452
shrinkage=0.0006


Tree=90
num_leaves=2
num_cat=0
split_feature=3
split_gain=7.63434
threshold=1.0000000180025095e-35
decision_type=2
left_child=-1
right_child=-2
leaf_value=-9.0467480677095051e-05 0.0019200033386874717
leaf_count=1398 54
internal_value=0
internal_count=1452
shrinkage=0.0006


Tree=91
num_leaves=2
num_cat=0
split_feature=3
split_gain=7.61161
threshold=1.0000000180025095e-35
decision_type=2
left_child=-1
right_child=-2
leaf_value=-9.042121413452792e-05 0.0019152680756463392
leaf_count=1398 54
internal_value=0
internal_count=1452
shrinkage=0.0006


Tree=92
num_leaves=2
num_cat=0
split_feature=3
split_gain=7.58898
threshold=1.0000000180025095e-35
decision_type=2
left_child=-1
right_child=-2
leaf_value=-9.0374982838309557e-05 0.0019105533834461545
leaf_count=1398 54
internal_value=0
internal_count=1452
shrinkage=0.0006


Tree=93
num_leaves=2
num_cat=0
split_feature=3
split_gain=7.56646
threshold=1.0000000180025095e-35
decision_type=2
left_child=-1
right_child=-2
leaf_value=-9.0328712592509136e-05 0.0019058591304908891
leaf_count=1398 54
internal_value=0
internal_count=1452
shrinkage=0.0006


Tree=94
num_leaves=2
num_cat=0
split_feature=3
split_gain=7.54403
threshold=1.0000000180025095e-35
decision_type=2
left_child=-1
right_child=-2
leaf_value=-9.0282508391132226e-05 0.0019011853756069647
leaf_count=1398 54
internal_value=0
internal_count=1452
shrinkage=0.0006


Tree=95
num_leaves=2
num_cat=0
split_feature=3
split_gain=7.52171
threshold=1.0000000180025095e-35
decision_type=2
left_child=-1
right_child=-2
leaf_value=-9.0236316483174514e-05 0.0018965319321537384
leaf_count=1398 54
internal_value=0
internal_count=1452
shrinkage=0.0006


Tree=96
num_leaves=2
num_cat=0
split_feature=3
split_gain=7.49949
threshold=1.0000000180025095e-35
decision_type=2
left_child=-1
right_child=-2
leaf_value=-9.0190139419436393e-05 0.0018918985775955792
leaf_count=1398 54
internal_value=0
internal_count=1452
shrinkage=0.0006


Tree=97
num_leaves=2
num_cat=0
split_feature=3
split_gain=7.47736
threshold=1.0000000180025095e-35
decision_type=2
left_child=-1
right_child=-2
leaf_value=-9.0143997677258713e-05 0.0018872851450419446
leaf_count=1398 54
internal_value=0
internal_count=1452
shrinkage=0.0006


Tree=98
num_leaves=2
num_cat=0
split_feature=3
split_gain=7.45534
threshold=1.0000000180025095e-35
decision_type=2
left_child=-1
right_child=-2
leaf_value=-9.0097817008018966e-05 0.0018826917879072142
leaf_count=1398 54
internal_value=0
internal_count=1452
shrinkage=0.0006


Tree=99
num_leaves=2
num_cat=0
split_feature=3
split_gain=7.43341
threshold=1.0000000180025095e-35
decision_type=2
left_child=-1
right_child=-2
leaf_value=-9.0051702471986581e-05 0.0018781181393773734
leaf_count=1398 54
internal_value=0
internal_count=1452
shrinkage=0.0006


Tree=100
num_leaves=2
num_cat=0
split_feature=3
split_gain=7.41159
threshold=1.0000000180025095e-35
decision_type=2
left_child=-1
right_child=-2
leaf_value=-9.0005623305735858e-05 0.0018735639966948785
leaf_count=1398 54
internal_value=0
internal_count=1452
shrinkage=0.0006


Tree=101
num_leaves=2
num_cat=0
split_feature=3
split_gain=7.38986
threshold=1.0000000180025095e-35
decision_type=2
left_child=-1
right_child=-2
leaf_value=-8.9959505229074259e-05 0.0018690293548293347
leaf_count=1398 54
internal_value=0
internal_count=1452
shrinkage=0.0006


Tree=102
num_leaves=2
num_cat=0
split_feature=3
split_gain=7.36822
threshold=1.0000000180025095e-35
decision_type=2
left_child=-1
right_child=-2
leaf_value=-8.9913453341965887e-05 0.0018645142502296504
leaf_count=1398 54
internal_value=0
internal_count=1452
shrinkage=0.0006


Tree=103
num_leaves=2
num_cat=0
split_feature=3
split_gain=7.34669
threshold=1.0000000180025095e-35
decision_type=2
left_child=-1
right_child=-2
leaf_value=-8.9867444624572496e-05 0.0018600183625762565
leaf_count=1398 54
internal_value=0
internal_count=1452
shrinkage=0.0006


Tree=104
num_leaves=2
num_cat=0
split_feature=3
split_gain=7.32524
threshold=1.0000000180025095e-35
decision_type=2
left_child=-1
right_child=-2
leaf_value=-8.9821420062070908e-05 0.0018555415328097898
leaf_count=1398 54
internal_value=0
internal_count=1452
shrinkage=0.0006


Tree=105
num_leaves=2
num_cat=0
split_feature=3
split_gain=7.3039
threshold=1.0000000180025095e-35
decision_type=2
left_child=-1
right_child=-2
leaf_value=-8.9775407883237927e-05 0.0018510837886860825
leaf_count=1398 54
internal_value=0
internal_count=1452
shrinkage=0.0006


Tree=106
num_leaves=2
num_cat=0
split_feature=3
split_gain=7.28264
threshold=1.0000000180025095e-35
decision_type=2
left_child=-1
right_child=-2
leaf_value=-8.9729402938999381e-05 0.0018466447577718318
leaf_count=1398 54
internal_value=0
internal_count=1452
shrinkage=0.0006


Tree=107
num_leaves=2
num_cat=0
split_feature=3
split_gain=7.26148
threshold=1.0000000180025095e-35
decision_type=2
left_child=-1
right_child=-2
leaf_value=-8.9683448950316053e-05 0.0018422245771135101
leaf_count=1398 54
internal_value=0
internal_count=1452
shrinkage=0.0006


Tree=108
num_leaves=2
num_cat=0
split_feature=3
split_gain=7.24042
threshold=1.0000000180025095e-35
decision_type=2
left_child=-1
right_child=-2
leaf_value=-8.9637522712794187e-05 0.0018378232556329622
leaf_count=1398 54
internal_value=0
internal_count=1452
shrinkage=0.0006


Tree=109
num_leaves=2
num_cat=0
split_feature=3
split_gain=7.21944
threshold=1.0000000180025095e-35
decision_type=2
left_child=-1
right_child=-2
leaf_value=-8.9591557604096322e-05 0.001833440259858423
leaf_count=1398 54
internal_value=0
internal_count=1452
shrinkage=0.0006


Tree=110
num_leaves=2
num_cat=0
split_feature=3
split_gain=7.19856
threshold=1.0000000180025095e-35
decision_type=2
left_child=-1
right_child=-2
leaf_value=-8.9545666558566098e-05 0.0018290758057526704
leaf_count=1398 54
internal_value=0
internal_count=1452
shrinkage=0.0006


Tree=111
num_leaves=2
num_cat=0
split_feature=3
split_gain=7.17777
threshold=1.0000000180025095e-35
decision_type=2
left_child=-1
right_child=-2
leaf_value=-8.9499803322175983e-05 0.0018247295572138367
leaf_count=1398 54
internal_value=0
internal_count=1452
shrinkage=0.0006


Tree=112
num_leaves=2
num_cat=0
split_feature=3
split_gain=7.15706
threshold=1.0000000180025095e-35
decision_type=2
left_child=-1
right_child=-2
leaf_value=-8.9453939778751088e-05 0.0018204014792433433
leaf_count=1398 54
internal_value=0
internal_count=1452
shrinkage=0.0006


Tree=113
num_leaves=2
num_cat=0
split_feature=3
split_gain=7.13645
threshold=1.0000000180025095e-35
decision_type=2
left_child=-1
right_child=-2
leaf_value=-8.9408073249916029e-05 0.0018160915665707373
leaf_count=1398 54
internal_value=0
internal_count=1452
shrinkage=0.0006


Tree=114
num_leaves=2
num_cat=0
split_feature=3
split_gain=7.11593
threshold=1.0000000180025095e-35
decision_type=2
left_child=-1
right_child=-2
leaf_value=-8.9362229528507613e-05 0.0018117994579436296
leaf_count=1398 54
internal_value=0
internal_count=1452
shrinkage=0.0006


Tree=115
num_leaves=2
num_cat=0
split_feature=3
split_gain=7.0955
threshold=1.0000000180025095e-35
decision_type=2
left_child=-1
right_child=-2
leaf_value=-8.9316429114338162e-05 0.0018075252560504243
leaf_count=1398 54
internal_value=0
internal_count=1452
shrinkage=0.0006


Tree=116
num_leaves=2
num_cat=0
split_feature=3
split_gain=7.07515
threshold=1.0000000180025095e-35
decision_type=2
left_child=-1
right_child=-2
leaf_value=-8.9270656600683008e-05 0.0018032690497241789
leaf_count=1398 54
internal_value=0
internal_count=1452
shrinkage=0.0006


Tree=117
num_leaves=2
num_cat=0
split_feature=3
split_gain=7.0549
threshold=1.0000000180025095e-35
decision_type=2
left_child=-1
right_child=-2
leaf_value=-8.922488379968487e-05 0.0017990301617535338
leaf_count=1398 54
internal_value=0
internal_count=1452
shrinkage=0.0006


Tree=118
num_leaves=2
num_cat=0
split_feature=3
split_gain=7.03473
threshold=1.0000000180025095e-35
decision_type=2
left_child=-1
right_child=-2
leaf_value=-8.9179138932621397e-05 0.0017948088946774588
leaf_count=1398 54
internal_value=0
internal_count=1452
shrinkage=0.0006


Tree=119
num_leaves=2
num_cat=0
split_feature=3
split_gain=7.01465
threshold=1.0000000180025095e-35
decision_type=2
left_child=-1
right_child=-2
leaf_value=-8.9133437428929018e-05 0.0017906051189030962
leaf_count=1398 54
internal_value=0
internal_count=1452
shrinkage=0.0006


Tree=120
num_leaves=2
num_cat=0
split_feature=3
split_gain=6.99465
threshold=1.0000000180025095e-35
decision_type=2
left_child=-1
right_child=-2
leaf_value=-8.9087689407558326e-05 0.0017864184888733243
leaf_count=1398 54
internal_value=0
internal_count=1452
shrinkage=0.0006


Tree=121
num_leaves=2
num_cat=0
split_feature=3
split_gain=6.97474
threshold=1.0000000180025095e-35
decision_type=2
left_child=-1
right_child=-2
leaf_value=-8.9042015614007773e-05 0.0017822492825038854
leaf_count=1398 54
internal_value=0
internal_count=1452
shrinkage=0.0006


Tree=122
num_leaves=2
num_cat=0
split_feature=3
split_gain=6.95491
threshold=1.0000000180025095e-35
decision_type=2
left_child=-1
right_child=-2
leaf_value=-8.89963261675191e-05 0.0017780969104070645
leaf_count=1398 54
internal_value=0
internal_count=1452
shrinkage=0.0006


Tree=123
num_leaves=2
num_cat=0
split_feature=3
split_gain=6.93517
threshold=1.0000000180025095e-35
decision_type=2
left_child=-1
right_child=-2
leaf_value=-8.8950680124982016e-05 0.0017739615987534681
leaf_count=1398 54
internal_value=0
internal_count=1452
shrinkage=0.0006


Tree=124
num_leaves=2
num_cat=0
split_feature=3
split_gain=6.91552
threshold=1.0000000180025095e-35
decision_type=2
left_child=-1
right_child=-2
leaf_value=-8.890506981490912e-05 0.0017698433206456304
leaf_count=1398 54
internal_value=0
internal_count=1452
shrinkage=0.0006


Tree=125
num_leaves=2
num_cat=0
split_feature=3
split_gain=6.89594
threshold=1.0000000180025095e-35
decision_type=2
left_child=-1
right_child=-2
leaf_value=-8.8859443886480074e-05 0.0017657417332031695
leaf_count=1398 54
internal_value=0
internal_count=1452
shrinkage=0.0006


Tree=126
num_leaves=2
num_cat=0
split_feature=3
split_gain=6.87645
threshold=1.0000000180025095e-35
decision_type=2
left_child=-1
right_child=-2
leaf_value=-8.881386140017003e-05 0.0017616568601706991
leaf_count=1398 54
internal_value=0
internal_count=1452
shrinkage=0.0006


Tree=127
num_leaves=2
num_cat=0
split_feature=3
split_gain=6.85705
threshold=1.0000000180025095e-35
decision_type=2
left_child=-1
right_child=-2
leaf_value=-8.8768263313394432e-05 0.0017575885404835095
leaf_count=1398 54
internal_value=0
internal_count=1452
shrinkage=0.0006


Tree=128
num_leaves=2
num_cat=0
split_feature=3
split_gain=6.83772
threshold=1.0000000180025095e-35
decision_type=2
left_child=-1
right_child=-2
leaf_value=-8.8722708689012214e-05 0.0017535366756792545
leaf_count=1398 54
internal_value=0
internal_count=1452
shrinkage=0.0006


Tree=129
num_leaves=2
num_cat=0
split_feature=3
split_gain=6.81848
threshold=1.0000000180025095e-35
decision_type=2
left_child=-1
right_child=-2
leaf_value=-8.8677182205419201e-05 0.001749501271301955
leaf_count=1398 54
internal_value=0
internal_count=1452
shrinkage=0.0006


Tree=130
num_leaves=2
num_cat=0
split_feature=3
split_gain=6.79931
threshold=1.0000000180025095e-35
decision_type=2
left_child=-1
right_child=-2
leaf_value=-8.8631655488859195e-05 0.0017454819090081703
leaf_count=1398 54
internal_value=0
internal_count=1452
shrinkage=0.0006


Tree=131
num_leaves=2
num_cat=0
split_feature=3
split_gain=6.78023
threshold=1.0000000180025095e-35
decision_type=2
left_child=-1
right_child=-2
leaf_value=-8.8586164606359747e-05 0.00174147896622312
leaf_count=1398 54
internal_value=0
internal_count=1452
shrinkage=0.0006


Tree=132
num_leaves=2
num_cat=0
split_feature=3
split_gain=6.76123
threshold=1.0000000180025095e-35
decision_type=2
left_child=-1
right_child=-2
leaf_value=-8.8540709579046741e-05 0.0017374921176833277
leaf_count=1398 54
internal_value=0
internal_count=1452
shrinkage=0.0006


Tree=133
num_leaves=2
num_cat=0
split_feature=3
split_gain=6.74231
threshold=1.0000000180025095e-35
decision_type=2
left_child=-1
right_child=-2
leaf_value=-8.8495239020388374e-05 0.0017335212170786474
leaf_count=1398 54
internal_value=0
internal_count=1452
shrinkage=0.0006


Tree=134
num_leaves=2
num_cat=0
split_feature=3
split_gain=6.72346
threshold=1.0000000180025095e-35
decision_type=2
left_child=-1
right_child=-2
leaf_value=-8.8449812000363453e-05 0.0017295662226350088
leaf_count=1398 54
internal_value=0
internal_count=1452
shrinkage=0.0006


Tree=135
num_leaves=2
num_cat=0
split_feature=3
split_gain=6.7047
threshold=1.0000000180025095e-35
decision_type=2
left_child=-1
right_child=-2
leaf_value=-8.8404369466878643e-05 0.0017256270152500859
leaf_count=1398 54
internal_value=0
internal_count=1452
shrinkage=0.0006


Tree=136
num_leaves=2
num_cat=0
split_feature=3
split_gain=6.68601
threshold=1.0000000180025095e-35
decision_type=2
left_child=-1
right_child=-2
leaf_value=-8.8358970492275678e-05 0.0017217033534936551
leaf_count=1398 54
internal_value=0
internal_count=1452
shrinkage=0.0006


Tree=137
num_leaves=2
num_cat=0
split_feature=3
split_gain=6.6674
threshold=1.0000000180025095e-35
decision_type=2
left_child=-1
right_child=-2
leaf_value=-8.8313607447535489e-05 0.0017177955828579746
leaf_count=1398 54
internal_value=0
internal_count=1452
shrinkage=0.0006


Tree=138
num_leaves=2
num_cat=0
split_feature=3
split_gain=6.64887
threshold=1.0000000180025095e-35
decision_type=2
left_child=-1
right_child=-2
leaf_value=-8.8268236560930529e-05 0.0017139030740273824
leaf_count=1398 54
internal_value=0
internal_count=1452
shrinkage=0.0006


Tree=139
num_leaves=2
num_cat=0
split_feature=3
split_gain=6.63042
threshold=1.0000000180025095e-35
decision_type=2
left_child=-1
right_child=-2
leaf_value=-8.8222901630958137e-05 0.0017100262274557447
leaf_count=1398 54
internal_value=0
internal_count=1452
shrinkage=0.0006


Tree=140
num_leaves=2
num_cat=0
split_feature=3
split_gain=6.61204
threshold=1.0000000180025095e-35
decision_type=2
left_child=-1
right_child=-2
leaf_value=-8.8177551239943617e-05 0.0017061646117062577
leaf_count=1398 54
internal_value=0
internal_count=1452
shrinkage=0.0006


Tree=141
num_leaves=2
num_cat=0
split_feature=3
split_gain=6.59374
threshold=1.0000000180025095e-35
decision_type=2
left_child=-1
right_child=-2
leaf_value=-8.8132295909317546e-05 0.0017023182029713949
leaf_count=1398 54
internal_value=0
internal_count=1452
shrinkage=0.0006


Tree=142
num_leaves=2
num_cat=0
split_feature=3
split_gain=6.57551
threshold=1.0000000180025095e-35
decision_type=2
left_child=-1
right_child=-2
leaf_value=-8.808697369676949e-05 0.0016984870143306591
leaf_count=1398 54
internal_value=0
internal_count=1452
shrinkage=0.0006


Tree=143
num_leaves=2
num_cat=0
split_feature=3
split_gain=6.55736
threshold=1.0000000180025095e-35
decision_type=2
left_child=-1
right_child=-2
leaf_value=-8.8041746573710167e-05 0.0016946708575053657
leaf_count=1398 54
internal_value=0
internal_count=1452
shrinkage=0.0006


Tree=144
num_leaves=2
num_cat=0
split_feature=3
split_gain=6.53928
threshold=1.0000000180025095e-35
decision_type=2
left_child=-1
right_child=-2
leaf_value=-8.7996452577736873e-05 0.0016908696822386118
leaf_count=1398 54
internal_value=0
internal_count=1452
shrinkage=0.0006


Tree=145
num_leaves=2
num_cat=0
split_feature=3
split_gain=6.52128
threshold=1.0000000180025095e-35
decision_type=2
left_child=-1
right_child=-2
leaf_value=-8.795124608611634e-05 0.0016870834309766136
leaf_count=1398 54
internal_value=0
internal_count=1452
shrinkage=0.0006


Tree=146
num_leaves=2
num_cat=0
split_feature=3
split_gain=6.50335
threshold=1.0000000180025095e-35
decision_type=2
left_child=-1
right_child=-2
leaf_value=-8.7906062729817036e-05 0.0016833120977716219
leaf_count=1398 54
internal_value=0
internal_count=1452
shrinkage=0.0006


Tree=147
num_leaves=2
num_cat=0
split_feature=3
split_gain=6.48549
threshold=1.0000000180025095e-35
decision_type=2
left_child=-1
right_child=-2
leaf_value=-8.7860884538818333e-05 0.0016795552743262424
leaf_count=1398 54
internal_value=0
internal_count=1452
shrinkage=0.0006


Tree=148
num_leaves=2
num_cat=0
split_feature=3
split_gain=6.46771
threshold=1.0000000180025095e-35
decision_type=2
left_child=-1
right_child=-2
leaf_value=-8.781569857812586e-05 0.0016758131636754946
leaf_count=1398 54
internal_value=0
internal_count=1452
shrinkage=0.0006


Tree=149
num_leaves=2
num_cat=0
split_feature=3
split_gain=6.45
threshold=1.0000000180025095e-35
decision_type=2
left_child=-1
right_child=-2
leaf_value=-8.7770548723172797e-05 0.0016720855402731936
leaf_count=1398 54
internal_value=0
internal_count=1452
shrinkage=0.0006


Tree=150
num_leaves=2
num_cat=0
split_feature=3
split_gain=6.43236
threshold=1.0000000180025095e-35
decision_type=2
left_child=-1
right_child=-2
leaf_value=-8.7725434994996828e-05 0.0016683724920204769
leaf_count=1398 54
internal_value=0
internal_count=1452
shrinkage=0.0006


Tree=151
num_leaves=2
num_cat=0
split_feature=3
split_gain=6.41479
threshold=1.0000000180025095e-35
decision_type=2
left_child=-1
right_child=-2
leaf_value=-8.7680313521845341e-05 0.0016646737308392569
leaf_count=1398 54
internal_value=0
internal_count=1452
shrinkage=0.0006


Tree=152
num_leaves=2
num_cat=0
split_feature=3
split_gain=6.3973
threshold=1.0000000180025095e-35
decision_type=2
left_child=-1
right_child=-2
leaf_value=-8.7635259134488034e-05 0.0016609892816022293
leaf_count=1398 54
internal_value=0
internal_count=1452
shrinkage=0.0006


Tree=153
num_leaves=2
num_cat=0
split_feature=3
split_gain=6.37987
threshold=1.0000000180025095e-35
decision_type=2
left_child=-1
right_child=-2
leaf_value=-8.7590166083861108e-05 0.0016573191624387541
leaf_count=1398 54
internal_value=0
internal_count=1452
shrinkage=0.0006


Tree=154
num_leaves=2
num_cat=0
split_feature=3
split_gain=6.36252
threshold=1.0000000180025095e-35
decision_type=2
left_child=-1
right_child=-2
leaf_value=-8.7545109213421472e-05 0.0016536629897682471
leaf_count=1398 54
internal_value=0
internal_count=1452
shrinkage=0.0006


Tree=155
num_leaves=2
num_cat=0
split_feature=3
split_gain=6.34523
threshold=1.0000000180025095e-35
decision_type=2
left_child=-1
right_child=-2
leaf_value=-8.7500088544182646e-05 0.0016500209873298347
leaf_count=1398 54
internal_value=0
internal_count=1452
shrinkage=0.0006


Tree=156
num_leaves=2
num_cat=0
split_feature=3
split_gain=6.32802
threshold=1.0000000180025095e-35
decision_type=2
left_child=-1
right_child=-2
leaf_value=-8.7455060166040033e-05 0.0016463930073452623
leaf_count=1398 54
internal_value=0
internal_count=1452
shrinkage=0.0006


Tree=157
num_leaves=2
num_cat=0
split_feature=3
split_gain=6.31087
threshold=1.0000000180025095e-35
decision_type=2
left_child=-1
right_child=-2
leaf_value=-8.7410098961340484e-05 0.0016427788065965924
leaf_count=1398 54
internal_value=0
internal_count=1452
shrinkage=0.0006


Tree=158
num_leaves=2
num_cat=0
split_feature=3
split_gain=6.29379
threshold=1.0000000180025095e-35
decision_type=2
left_child=-1
right_child=-2
leaf_value=-8.7365099116192428e-05 0.001639178540075598
leaf_count=1398 54
internal_value=0
internal_count=1452
shrinkage=0.0006


Tree=159
num_leaves=2
num_cat=0
split_feature=3
split_gain=6.27678
threshold=1.0000000180025095e-35
decision_type=2
left_child=-1
right_child=-2
leaf_value=-8.7320135525609883e-05 0.0016355919289792686
leaf_count=1398 54
internal_value=0
internal_count=1452
shrinkage=0.0006


Tree=160
num_leaves=2
num_cat=0
split_feature=3
split_gain=6.25984
threshold=1.0000000180025095e-35
decision_type=2
left_child=-1
right_child=-2
leaf_value=-8.7275208210581921e-05 0.0016320188975542996
leaf_count=1398 54
internal_value=0
internal_count=1452
shrinkage=0.0006


Tree=161
num_leaves=2
num_cat=0
split_feature=3
split_gain=6.24297
threshold=1.0000000180025095e-35
decision_type=2
left_child=-1
right_child=-2
leaf_value=-8.7230304178850473e-05 0.0016284594724196597
leaf_count=1398 54
internal_value=0
internal_count=1452
shrinkage=0.0006


Tree=162
num_leaves=2
num_cat=0
split_feature=3
split_gain=6.22616
threshold=1.0000000180025095e-35
decision_type=2
left_child=-1
right_child=-2
leaf_value=-8.7185413054771267e-05 0.0016249136755864917
leaf_count=1398 54
internal_value=0
internal_count=1452
shrinkage=0.0006


Tree=163
num_leaves=2
num_cat=0
split_feature=3
split_gain=6.20942
threshold=1.0000000180025095e-35
decision_type=2
left_child=-1
right_child=-2
leaf_value=-8.7140499151366544e-05 0.0016213812326858978
leaf_count=1398 54
internal_value=0
internal_count=1452
shrinkage=0.0006


Tree=164
num_leaves=2
num_cat=0
split_feature=3
split_gain=6.19275
threshold=1.0000000180025095e-35
decision_type=2
left_child=-1
right_child=-2
leaf_value=-8.7095667652252879e-05 0.0016178620701928492
leaf_count=1398 54
internal_value=0
internal_count=1452
shrinkage=0.0006


Tree=165
num_leaves=2
num_cat=0
split_feature=3
split_gain=6.17614
threshold=1.0000000180025095e-35
decision_type=2
left_child=-1
right_child=-2
leaf_value=-8.705083398587827e-05 0.0016143563127520334
leaf_count=1398 54
internal_value=0
internal_count=1452
shrinkage=0.0006


Tree=166
num_leaves=2
num_cat=0
split_feature=3
split_gain=6.1596
threshold=1.0000000180025095e-35
decision_type=2
left_child=-1
right_child=-2
leaf_value=-8.7005992682725406e-05 0.0016108636568251942
leaf_count=1398 54
internal_value=0
internal_count=1452
shrinkage=0.0006


Tree=167
num_leaves=2
num_cat=0
split_feature=3
split_gain=6.14312
threshold=1.0000000180025095e-35
decision_type=2
left_child=-1
right_child=-2
leaf_value=-8.6961187756049311e-05 0.0016073841947064147
leaf_count=1398 54
internal_value=0
internal_count=1452
shrinkage=0.0006


Tree=168
num_leaves=2
num_cat=0
split_feature=3
split_gain=6.12671
threshold=1.0000000180025095e-35
decision_type=2
left_child=-1
right_child=-2
leaf_value=-8.6916406178567837e-05 0.0016039177224790248
leaf_count=1398 54
internal_value=0
internal_count=1452
shrinkage=0.0006


Tree=169
num_leaves=2
num_cat=0
split_feature=3
split_gain=6.11036
threshold=1.0000000180025095e-35
